{"classes": ["not_pinky", "pinky_swear"], "layers": [{"w": [[5.994959593289683e-31, 0.22258667647838593, 9.502075159454997e-28, -0.053586095571517944, -0.09952029585838318, -0.15954677760601044, -0.16068699955940247, 0.1174544021487236, 0.017670873552560806, 0.09070266038179398, -0.17497915029525757, 0.21644636988639832, 0.16174522042274475, -0.13738615810871124, 1.9497116946538884e-23, 3.3912211955139875e-21, -0.018862785771489143, -0.008496341295540333, -0.02603730373084545, -0.12372427433729172, 0.0927884504199028, -0.13158626854419708, -0.058661509305238724, -8.312640897602579e-31, -0.04160166159272194, 2.882937537632238e-25, -0.3588099181652069, 0.017764702439308167, 0.05912674590945244, -5.2397715615166984e-14, 0.07790390402078629, -1.3358643775304618e-20, -0.17334230244159698, 0.3337560296058655, 4.0440879269486307e-13, 0.14856600761413574, -0.059595972299575806, -0.17368650436401367, 0.11243404448032379, -0.005228851921856403, -0.1140609085559845, 0.0287942998111248, -0.19152167439460754, 0.1631464958190918, 2.2896551033013816e-27, 0.01739414408802986, 0.02133595012128353, 0.015281237661838531, 0.027878383174538612, 5.484286441980404e-24, -0.00022476290178019553, 0.13718250393867493, 0.18573252856731415, 1.92719082692988e-18, 3.8232859720946835e-31, 0.14779359102249146, -0.16052737832069397, -0.12549462914466858, -0.2632310688495636, -0.04849674180150032, -0.006071954499930143, -0.08676160126924515, 5.595563950131785e-23, -0.017197521403431892], [-2.7899512286529317e-28, 0.008042991161346436, -6.783846336247328e-21, 0.037817634642124176, -0.1310594230890274, 0.2509689927101135, 0.12501320242881775, -0.11590397357940674, -0.22151194512844086, 0.1474607139825821, 0.06605332344770432, 0.16171544790267944, 0.0971185490489006, -0.1674918383359909, -1.4876880650051988e-30, 2.0522404764180433e-18, 0.20449301600456238, 0.0968475192785263, -0.0353732630610466, -0.204123392701149, -0.09015198051929474, -0.0880703553557396, 0.10253860056400299, -1.1864436575222308e-30, 0.18219758570194244, 8.621164318754144e-32, 0.10583914071321487, 0.1165362149477005, 0.15510599315166473, -2.3032170814248976e-31, 0.17655909061431885, -4.145385701370685e-10, 0.05392201617360115, -0.1129005029797554, -1.4264251672196915e-12, -0.17196792364120483, -0.21853339672088623, 0.09356626123189926, -0.08997850120067596, -0.008965537883341312, 0.19625701010227203, -0.11874505132436752, -0.03691506013274193, 0.1452263742685318, 2.765343236567507e-27, -0.14975781738758087, -0.15100820362567902, -0.13260899484157562, 0.15131382644176483, 5.398291531410904e-24, -0.000732123851776123, 0.22376367449760437, 0.1741948127746582, -4.753821754129283e-25, 9.612619369569279e-19, 0.0006562444032169878, 0.17441996932029724, 0.17314812541007996, -0.07889729738235474, -0.17915664613246918, -0.07879582047462463, 0.006621455308049917, -1.8741066344087825e-23, 0.08285516500473022], [-1.2801064895595626e-11, 7.211976935650455e-06, 1.0333467560536217e-31, 8.89643433765741e-06, -1.048739613906946e-05, 1.4573482985724695e-05, -9.617383511795197e-06, -1.5066166370036882e-10, 4.657190186902058e-32, 8.444678314845078e-06, -3.94354992749868e-06, 2.1775283585157013e-06, -3.199836555722868e-06, 1.321889885730343e-05, 3.72028019393121e-33, 9.87195882603371e-26, -2.156935352104483e-06, 1.514258656243328e-05, 3.850369921565289e-06, -2.2617896320298314e-05, -5.1199763220211025e-06, -9.743765986058861e-06, -9.123905329033732e-06, 7.876285411681973e-27, 5.417194643086987e-06, -3.1102596046238914e-32, 5.180511948310595e-07, 1.9358809367986396e-05, 5.7030547395697795e-06, -1.233779129841143e-27, 9.83022232503572e-07, -1.9463789870542534e-28, 5.358337489269616e-07, -8.163261372828856e-05, 6.827071825733946e-31, 1.2235623216838576e-05, -7.582313173770672e-06, 4.374647232907591e-06, -4.886350779997883e-06, -7.358641610314689e-16, -5.330810381565243e-06, -1.199743928737007e-05, -5.832625447510509e-06, 5.564327693718951e-06, -9.139721308928712e-33, 4.396320036903489e-06, -3.386824027984403e-05, 8.85524059413001e-06, -3.524926114550908e-06, 2.085907819504838e-32, -5.541906858549592e-14, 4.359602371550864e-06, 8.248798621934839e-06, 1.7769307803226316e-19, -3.27483107380569e-16, -1.3008004498582804e-19, 8.374224762519589e-07, -2.1279201973811723e-06, 1.5876426914473996e-05, -1.6703878600310418e-06, 2.421640829197713e-06, 3.182055252182181e-06, -6.433913788423712e-18, -4.914133751299232e-05], [5.524874555271824e-18, 0.05354595556855202, -5.121753771052538e-30, -0.05423863232135773, 0.05131484940648079, 0.20497341454029083, 0.1522769331932068, 0.0862511694431305, 0.03423270583152771, -0.13932549953460693, -0.14624013006687164, 0.21674127876758575, 0.035064686089754105, -0.18419420719146729, -4.1919110484507976e-18, -2.6210586918838656e-21, -0.18114742636680603, -0.114554762840271, 0.06086976081132889, 0.10171987861394882, 0.07835111767053604, -0.13346491754055023, 0.08936980366706848, -7.156675554657282e-27, -0.05334081873297691, 2.651275220786312e-27, -0.03338540345430374, 0.2227834314107895, 0.12507058680057526, 2.8531319115503067e-31, -0.11189895868301392, -1.552301063594116e-24, -0.07025671750307083, -0.019145166501402855, 1.1564474421479898e-12, -0.06936094909906387, 0.143229141831398, 0.08841724693775177, 0.12464749068021774, -0.005571811925619841, 0.04282655939459801, -0.004836055915802717, -0.1628483533859253, 0.11946742981672287, -2.714803127411643e-28, -0.32546377182006836, 0.12733472883701324, -0.09446197003126144, 0.16736075282096863, 5.6360162847476913e-14, 0.005294309929013252, -0.00012499284639488906, -0.17343005537986755, -4.973609118478985e-16, -1.393382925745791e-31, 0.16467055678367615, 0.23463593423366547, 0.114559605717659, -0.09642648696899414, -0.053995996713638306, 0.1585691124200821, -0.03605258837342262, -1.0374042182942475e-22, -0.014650552533566952], [-2.386592620645428e-16, 0.051102690398693085, -2.3309719136410328e-31, -0.10093094408512115, 0.016948992386460304, 0.262329638004303, -0.17614415287971497, -0.0041127693839371204, 0.12880553305149078, 0.14669109880924225, 0.03564997762441635, 0.17067867517471313, -0.10266159474849701, -0.045761190354824066, 5.772696355511922e-24, 1.1526920809700416e-19, 0.17888398468494415, 0.2498234361410141, 0.07560459524393082, 0.013497105799615383, 0.09330616146326065, 0.015384453348815441, 0.06242853403091431, -1.0802126782833248e-24, 0.20860475301742554, -2.1159159744744798e-30, 0.19752348959445953, -0.10949651151895523, 0.10686478018760681, -3.181011498046976e-13, 0.06784119457006454, 2.05129205288479e-10, -0.03024807758629322, -0.03609419986605644, -7.115064830712226e-13, -0.23268547654151917, 0.09632173180580139, 0.001375714666210115, -0.20036037266254425, -0.007387390825897455, 0.10609780251979828, -0.16070666909217834, 0.027315637096762657, -0.11623287945985794, -1.7448758434760077e-14, 0.12360312789678574, -0.040999144315719604, 0.1004515066742897, 0.043132998049259186, 1.6852348509732717e-12, -0.005234228912740946, 0.011823777109384537, 0.19918948411941528, -8.93682952636379e-29, 1.3942061244396718e-31, -0.1781650185585022, -0.14148670434951782, 0.16699418425559998, 0.21055199205875397, 0.047968991100788116, -0.029119495302438736, -0.0772763192653656, 6.187275136057114e-22, -0.195498988032341], [1.8090182149903282e-31, 0.09712422639131546, 5.759705651910465e-30, -0.3387473523616791, 0.10668054968118668, 0.3057251274585724, -0.10382390022277832, -8.83046322996961e-06, -0.017224347218871117, -0.04024506360292435, -0.06297767162322998, 0.04954555630683899, -0.134590283036232, -0.14245536923408508, -5.710650051796162e-14, -1.4564091848755928e-13, 0.0768439918756485, 0.06697310507297516, -0.004606394562870264, 0.07367666065692902, 0.028179621323943138, -0.004167512059211731, -0.10429995507001877, 3.236387797478421e-32, 0.05360990762710571, 4.1591538603845115e-31, 0.12553822994232178, -0.021242918446660042, -0.04373355582356453, -1.4317080382633903e-31, -0.016117146238684654, -3.8054645019151816e-22, 0.0012603222858160734, -0.7522896528244019, 5.416645995771202e-16, 0.047355253249406815, -0.1966746300458908, 0.042569465935230255, 0.16483235359191895, -5.901876903857683e-11, -0.03461011126637459, 0.08286570757627487, 5.566834443015978e-05, 0.00848337635397911, 2.435522537634757e-15, -0.31899556517601013, -0.31307050585746765, 0.18040595948696136, -0.032308075577020645, 5.765167760435233e-16, 5.2995828809798695e-06, -0.18061886727809906, -0.12721207737922668, 3.8579322104721754e-30, 5.18034656749771e-16, -1.2503731340984814e-05, 0.06699196994304657, -0.1928270012140274, -0.13015525043010712, -0.061706677079200745, -0.14112812280654907, 0.05122357979416847, 6.452728126550744e-31, -0.6109505295753479], [7.443803013009247e-28, 0.1194256842136383, -2.8712064537478723e-28, -0.095748171210289, 0.05434190854430199, 0.17914870381355286, 0.18353909254074097, -0.0401790514588356, -0.07645810395479202, 0.1681308001279831, -0.07357683777809143, 0.23906370997428894, 0.13806882500648499, 0.0064706020057201385, 4.3934972559402605e-27, -2.851527447191835e-20, -0.15383146703243256, 0.21398629248142242, 0.04945508763194084, 0.1799466758966446, -0.07040306180715561, 0.14802250266075134, -0.05685225501656532, -8.36401867904124e-12, 0.20796938240528107, -3.3411270439137224e-18, 0.012888187542557716, 0.28885963559150696, 0.25846150517463684, -1.2857474924689623e-31, 0.11936302483081818, 2.0114678283912964e-22, -0.05746346339583397, 0.016247980296611786, -1.4497606927561436e-32, 0.07613600045442581, 0.08205103129148483, 0.1619071513414383, -0.18239355087280273, -0.004880306776612997, -0.19129790365695953, 0.014530378393828869, -0.06607533246278763, 0.19833266735076904, -3.958008439246945e-31, -0.3134995698928833, -0.08787106722593307, 0.16619907319545746, 0.02480402961373329, -4.436517868159772e-18, -0.0009535590652376413, 0.15176573395729065, -0.1406526267528534, -2.9908812407120645e-23, 7.304664685659478e-29, -0.16997580230236053, -0.1288444548845291, 0.1586546003818512, -0.007448195014148951, -0.06465476006269455, 0.13402330875396729, 0.23847557604312897, 5.840715498056648e-12, 0.042717576026916504], [1.068452424643189e-30, -0.22839021682739258, -1.0363816681926922e-25, 0.07394570112228394, -0.040127310901880264, 0.2180737406015396, -0.20948633551597595, -0.012675061821937561, -0.21358826756477356, 0.05078870803117752, -0.25754520297050476, -0.06739041209220886, -0.22061437368392944, 0.12929603457450867, 2.0154437015284547e-27, 1.2290975909288283e-19, 0.20242027938365936, 0.03517100214958191, 0.0021450798958539963, 0.18688443303108215, -0.1729336529970169, 0.12216437608003616, -0.255984902381897, 7.506963258484267e-13, -0.1398649513721466, 5.271690286200981e-19, 0.18603624403476715, 0.25055086612701416, -0.09009736776351929, -2.0725843257222367e-32, 0.2929447889328003, 6.814065370980282e-13, 0.12461874634027481, 0.021397383883595467, -1.440777917575465e-31, 0.0006758435629308224, -0.02453635074198246, 0.25425446033477783, -0.2537683844566345, -0.007415690924972296, 0.1610361635684967, 0.11036256700754166, -0.06603074073791504, 0.135542631149292, 1.9385867948698842e-28, 0.07864601910114288, -0.05571729689836502, 0.00039227926754392684, -0.027991710230708122, 2.23845794017588e-16, 0.008262312039732933, 0.3118698298931122, 0.17760175466537476, 5.320160698836975e-33, -2.4113052163841375e-29, 0.1018543392419815, 0.15202245116233826, -0.19975091516971588, 0.25821468234062195, 0.08590895682573318, 0.18109652400016785, 0.17877359688282013, 1.204143146492223e-31, -0.1326170563697815], [-5.773434802000435e-16, 0.17070870101451874, -6.622480341889059e-14, -0.4851225018501282, -0.03475321829319, 0.3389894664287567, 0.09575272351503372, -0.00037425398477353156, 0.006005473434925079, -0.02256668731570244, 0.16201628744602203, 0.07554880529642105, 0.16920077800750732, -0.03583483770489693, -4.092650972783351e-31, 2.439848178546324e-21, -0.09330783784389496, 0.11211599409580231, 0.09769155085086823, 0.3075709939002991, 0.23195011913776398, 0.05273330956697464, 0.14650237560272217, 7.109472786957088e-15, 0.2209004908800125, -9.318065071813435e-28, -0.273465633392334, -0.15029796957969666, 0.1419142633676529, -7.165190550606729e-31, -0.10646738857030869, -3.4702853194693044e-29, -0.01712597906589508, -0.5875126123428345, 1.82930617649887e-19, 0.08462194353342056, -0.010155715048313141, 0.09252002090215683, 0.03730982169508934, 9.817497509390094e-11, 0.04752879962325096, 0.06781602650880814, 0.17966251075267792, -0.07088149338960648, -1.6216543098152526e-20, -0.5092265009880066, -0.25023847818374634, 0.03855900838971138, 0.12050339579582214, -3.468779172437833e-25, 2.125079117831774e-05, -0.21514956653118134, -0.07102279365062714, 3.695841460666103e-31, -1.362976530922506e-31, -4.613312194123864e-05, 0.0896945595741272, -0.07389236241579056, -0.3559077978134155, 0.12553028762340546, -0.04064644128084183, 0.01524356473237276, 1.3113958257115178e-20, -0.43026527762413025], [7.018068605338309e-22, 0.20062287151813507, 1.2792934407357726e-32, -0.009909428656101227, 0.008868211880326271, 0.21147969365119934, -0.002869382966309786, -0.06765909492969513, 0.030136091634631157, -0.09019524604082108, -0.15657714009284973, -0.12487509101629257, -0.145403191447258, -0.1467755138874054, -1.086914355542398e-20, -4.172902269953267e-20, -0.09609811753034592, -0.06518495827913284, 0.19295623898506165, 0.0006992260459810495, 0.10738049447536469, -0.13320311903953552, -0.11187631636857986, -1.4348776073563885e-13, -0.14652378857135773, -2.1474300940482735e-29, -0.061816103756427765, -0.08315403759479523, -0.1312423199415207, -1.3712148655308089e-31, -0.07804356515407562, -1.37488574404825e-18, 0.008445211686193943, 0.19500814378261566, -1.8600634812786232e-13, 0.128753662109375, 0.037668801844120026, -0.1724739670753479, 0.18486040830612183, -0.0025182757526636124, -0.16167017817497253, -0.07278398424386978, 0.12359291315078735, 0.10894343256950378, 6.874756339350116e-24, -0.21060310304164886, -0.00031987615511752665, 0.015283185057342052, 0.05218755081295967, 1.5788342982956418e-30, 0.00035473244497552514, 0.14537474513053894, -0.18780091404914856, -4.030677091506982e-27, -9.79109320693687e-29, 0.13746558129787445, 0.031172435730695724, -0.0104002570733428, -0.08795957267284393, -0.0015592329436913133, 0.03920525312423706, -0.0930781289935112, -6.197092708039002e-28, -0.0939619392156601], [-2.8264747313488936e-12, -0.141911119222641, -3.061795231115899e-25, 0.0438857264816761, -0.18802860379219055, 0.21457728743553162, -0.026379788294434547, 0.04766364023089409, 0.09043633192777634, 0.08331922441720963, -0.2632778286933899, 0.12237217277288437, -0.03361053764820099, 0.19115440547466278, -2.8227322170448213e-31, 3.455124629839988e-19, -0.09792220592498779, 0.05026336386799812, 0.17565365135669708, 0.07683606445789337, -0.13394445180892944, 0.10755613446235657, -0.018273264169692993, -7.336343248053234e-27, -0.09163949638605118, 1.3085456068899044e-21, 0.0806986466050148, -0.09849943965673447, -0.023564960807561874, -4.1330613088358063e-29, -0.026963545009493828, 2.6109171713528667e-08, -0.09285580366849899, -0.04245810955762863, -4.596178209737741e-31, 0.13304872810840607, -0.24067945778369904, 0.05731448158621788, 0.12466425448656082, -0.004559122025966644, 0.0846736878156662, -0.181901216506958, -0.20730584859848022, 0.1752294898033142, -5.396928127550306e-16, 0.2862226068973541, -0.0022032964043319225, -0.00955345667898655, 0.037935491651296616, -1.7265264179308998e-24, -0.003940533846616745, 0.08453306555747986, 0.11475356668233871, 1.2599092421395152e-26, 2.3980811233100725e-19, 0.024731092154979706, 0.0009257896454073489, -0.04085221141576767, -0.16375958919525146, -0.07726260274648666, -0.017249170690774918, -0.09211031347513199, 3.6660392464292535e-30, -0.2666362524032593], [1.3708412982099119e-16, 0.25288844108581543, 1.5114676574454972e-30, -0.39376896619796753, -0.03260303661227226, 0.2502988278865814, 0.09134942293167114, 0.0005863545811735094, -0.011581240221858025, -0.0656038299202919, -0.006570762023329735, 0.08842036873102188, 0.1929105967283249, 0.11622839421033859, 8.868390109053688e-20, 1.7741226798575988e-21, 0.1580866575241089, -0.19620263576507568, -0.2523033320903778, 0.129678413271904, 0.10511612892150879, 0.21738766133785248, -0.07283668965101242, -9.693842292022408e-25, -0.04846986383199692, -1.745714094721035e-22, -0.49720996618270874, -0.022875098511576653, -0.007340581156313419, -6.12344923674558e-32, -0.10619451105594635, -2.2805811512726806e-19, -0.10637255012989044, -0.27508577704429626, 4.884251614442768e-32, 0.01598336733877659, 0.018909242004156113, -0.12980511784553528, 0.15303011238574982, -1.0937049876869054e-10, -0.033111151307821274, 0.24252736568450928, 0.03542978689074516, -0.06317193061113358, 6.822620847513406e-18, -0.30509132146835327, -0.11391805112361908, 0.11055703461170197, 0.10940884053707123, 7.437426860816489e-30, 4.9033220420824364e-05, 0.036813199520111084, -0.020875491201877594, -4.459128792743309e-32, 1.4874591317548527e-18, 0.0062803104519844055, -0.16242657601833344, -0.022999338805675507, -0.5528020858764648, 0.15056554973125458, -0.12943360209465027, -0.038919948041439056, 4.848889939452433e-27, -0.24061673879623413], [-3.622350259149304e-31, 0.15482622385025024, -1.4380472910688445e-19, 0.20479437708854675, -0.12278971076011658, -0.05518903210759163, 0.13235032558441162, -0.1257631480693817, -0.13506270945072174, 0.11550536751747131, 0.11903948336839676, 0.09660578519105911, 0.0964435487985611, 0.02583927847445011, -4.6604557981356195e-27, 3.1578484223328464e-21, -0.09301968663930893, 0.17362935841083527, 0.05877652019262314, -0.03621970862150192, 0.019182737916707993, 0.20086927711963654, -0.12804055213928223, 7.980671536327253e-32, -0.012703567743301392, -7.671989893636068e-31, -0.2385537177324295, 0.1912260353565216, 0.21653254330158234, 2.2023660137938398e-31, 0.12859542667865753, 1.7841880861624304e-08, 0.09312888979911804, -0.03213118761777878, -3.327954987050837e-31, 0.046154558658599854, -0.05381911247968674, 0.10537481307983398, 0.2110319435596466, -0.0013537610648199916, 0.004493509419262409, -0.14316441118717194, 0.20140919089317322, 0.14918434619903564, 8.005315674029541e-20, 0.218886598944664, 0.20355689525604248, 0.027757126837968826, 0.03885938227176666, 6.246841231399701e-31, -0.007146853022277355, -0.02896568737924099, 0.1415829062461853, -1.6378122816296248e-11, 4.432541684860337e-30, -0.049664199352264404, 0.04777288809418678, 0.16024090349674225, 0.04705444350838661, -0.04318654537200928, 0.1285843551158905, -0.003524085972458124, 9.116964089252386e-26, -0.048661086708307266], [-6.909248209580074e-21, -0.23106515407562256, 3.987090228261006e-33, -0.05488108843564987, 0.06436137109994888, 0.030943414196372032, -0.07021743059158325, 0.03170078992843628, -0.20681814849376678, 0.18691787123680115, -0.2555136978626251, 0.32757070660591125, -0.24810144305229187, 0.083399198949337, 3.6099210796830845e-17, 1.7825137199611873e-11, -0.037359852343797684, 0.1951979696750641, -0.05645738169550896, 0.19146686792373657, -0.22580058872699738, 0.03732754662632942, -0.22193309664726257, -5.7710085876052014e-24, -0.07568254321813583, 2.6488334031408123e-32, 0.041711147874593735, -0.15387317538261414, 0.259822279214859, 1.171103644323096e-31, 0.1415403038263321, -2.949042089395092e-19, 0.056201569736003876, -0.03556612506508827, 8.581139564830823e-22, -0.24608838558197021, 0.049544017761945724, 0.32027730345726013, -0.16198202967643738, -0.007331206928938627, -0.01695910468697548, -0.1457517296075821, -0.29703161120414734, -0.017763296142220497, 1.5100425858956902e-28, 0.314338743686676, -0.192096546292305, -0.0031815909314900637, -0.22228480875492096, 4.036544533379055e-30, -0.010049793869256973, -0.026368239894509315, 0.2716142237186432, 2.9864547844006883e-23, 1.4786638418937101e-30, -0.11119572818279266, -0.058583684265613556, -0.2073231190443039, -0.10891860723495483, 0.052954915910959244, 0.08099346607923508, 0.08180052787065506, 3.5575413059274525e-30, -0.26029106974601746], [-4.795885145524364e-29, 0.28294268250465393, -6.549522209298164e-12, -0.5948225855827332, 0.03939810022711754, -0.13504724204540253, -0.006665464956313372, 0.0016054098960012197, -0.021695619449019432, 0.03236105665564537, 0.2517193853855133, -0.17563748359680176, 0.019947858527302742, -0.21150438487529755, 1.6054919475946065e-31, 6.423616348648391e-22, 0.1501099020242691, -0.194614976644516, -0.12658633291721344, -0.13975505530834198, 0.05764732137322426, 0.3480466902256012, 0.25088760256767273, -8.33379297268347e-21, 0.11504761874675751, 6.790936934698417e-34, -0.5738844871520996, -0.1505115032196045, -0.18196605145931244, -2.0917477819293318e-12, -0.18592381477355957, -1.1663940497164136e-30, -0.055890899151563644, -0.3083082139492035, -9.82528120426684e-21, 0.2944868206977844, 0.3216645419597626, -0.12101773172616959, 0.003116850508376956, 5.3494438045920134e-11, -0.044559504836797714, 0.31613796949386597, 0.0032000259961932898, -0.1246686577796936, 5.4158305594135705e-28, -0.3400374948978424, 0.03688936308026314, -0.017557417973876, 0.010266348719596863, -8.217393779319515e-12, 0.00011758985056076199, 0.015914984047412872, -0.006791925523430109, 4.949984376919987e-32, -4.963671127844351e-31, 0.008655495941638947, -0.2069162130355835, 0.2871607840061188, -0.5482243895530701, 0.08385173976421356, 0.11977756768465042, -0.30246701836586, -1.794591663973039e-22, -0.049526188522577286], [7.678908870487378e-17, -0.0005973377265036106, 5.255474550755978e-27, -0.10964098572731018, -0.13343362510204315, 0.047285594046115875, 0.022024333477020264, -0.0794815644621849, 0.002961505902931094, 0.08333515375852585, 0.0281688142567873, 0.2704957127571106, 0.05195134878158569, -0.04284138232469559, -6.455084405367073e-13, 2.2560921461206214e-20, 0.009114882908761501, -0.11400659382343292, 0.06565678119659424, 0.13696588575839996, -0.09961514919996262, 0.06037381663918495, -0.21486544609069824, 3.352782457150319e-16, 0.1793133020401001, 3.5009682128982955e-33, 0.05570436641573906, 0.13057973980903625, -0.008708065375685692, -2.3631393378117457e-23, 0.21439065039157867, 9.43940878327644e-19, -0.04645032063126564, 0.037824783474206924, 2.1070079842444004e-30, -0.25332921743392944, 0.09614866971969604, -0.08389318734407425, 0.1502024084329605, -0.005131172016263008, -0.1712023764848709, -0.023309702053666115, 0.0851927101612091, 0.16316787898540497, 4.213741546005106e-24, -0.16507059335708618, 0.14216960966587067, 0.24118930101394653, -0.1732720583677292, -3.2114135383744386e-32, -0.005167651921510696, 0.3054827153682709, 0.27214810252189636, -1.8253303870566923e-13, 9.103075197310189e-29, 0.1492927074432373, -0.06706273555755615, -0.05311122536659241, 0.16613639891147614, -0.24572600424289703, 0.0480303093791008, -0.00836056936532259, -3.1385688835808907e-16, 0.10590077191591263], [6.165901377121847e-15, -0.02944019064307213, 1.2532333964216759e-20, -0.01708873175084591, -0.042312175035476685, 0.18573158979415894, -0.2092454731464386, 0.020756715908646584, -0.12503890693187714, -0.13423192501068115, -0.21702918410301208, 0.1550367772579193, -0.101500004529953, 0.12118369340896606, 4.6104506244864e-16, 3.898148413380097e-20, 0.044428255409002304, 0.17701032757759094, -0.022241031751036644, 0.06712405383586884, 0.14607372879981995, 0.017264006659388542, -0.12484406679868698, -1.6306019035017272e-12, 0.1978691667318344, -2.4343845082125393e-12, 0.2839549481868744, 0.05241360515356064, 0.24796821177005768, -1.2655774388551214e-24, 0.2758871614933014, -2.672040606287759e-16, 0.15697038173675537, -0.23067636787891388, 3.622171819106849e-32, 0.03717932105064392, 0.1329219490289688, 0.25255337357521057, 0.08610720187425613, -0.004628014285117388, -0.02658843621611595, 0.0802655890583992, -0.11847075819969177, -0.12368316948413849, 1.3462285105899563e-30, -0.0005793419550172985, -0.17608892917633057, -0.08447811007499695, -0.2336404025554657, -3.696838841993344e-12, 0.006514484528452158, 0.043009281158447266, 0.00452808290719986, 1.5191583433416842e-29, -5.706942728301874e-26, 0.14831024408340454, 0.15694260597229004, -0.19530124962329865, 0.08319813013076782, 0.13642176985740662, 0.2104508876800537, 0.03365247696638107, 1.1684148185450252e-31, -0.23544692993164062], [1.044169351677171e-11, -0.250259131193161, 3.833021445002419e-15, 0.4700043499469757, -0.22546246647834778, 0.19504314661026, -0.41836148500442505, -0.0003561034391168505, -0.030060093849897385, 0.11849522590637207, -0.08626106381416321, 0.05890500918030739, -0.30948886275291443, 0.35990720987319946, -2.618448759336676e-19, -4.780772538915887e-16, -0.028947794809937477, -0.028242582455277443, 0.1927330493927002, 0.3832346498966217, -0.10104639828205109, -0.3575665056705475, -0.04884893074631691, 9.354734161656985e-26, 0.08656468242406845, -1.0775989461869372e-31, -0.07244143635034561, 0.1114586591720581, 0.03248243406414986, -1.3450876998543695e-19, 0.03798109292984009, -2.476278280626255e-18, 0.20124278962612152, -0.022312091663479805, 1.2688461073661875e-20, -0.07515744864940643, -0.11884582042694092, 0.25453463196754456, -0.34167152643203735, 1.7476836644547689e-10, -0.23167917132377625, -0.2669898569583893, -0.09308522194623947, 0.1742503046989441, 1.1682637074044913e-16, -0.004810201469808817, -0.13225673139095306, 0.019314127042889595, -0.01361099723726511, -1.3620041619955058e-32, 9.811384188651573e-06, 0.19016441702842712, 0.33781999349594116, -2.714907270568753e-30, 1.83644078197326e-30, 6.72053502057679e-05, 0.020613066852092743, -0.07966900616884232, 0.21780838072299957, -0.12534679472446442, -0.09341514110565186, 0.31819361448287964, -3.8239170526938434e-29, -0.19886909425258636], [-5.473879291643617e-29, 0.05715140327811241, -7.346828407893529e-31, 0.08151049166917801, -0.15957747399806976, 0.22289817035198212, 0.10367574542760849, -0.16749827563762665, 0.10845790058374405, -0.08739970624446869, -0.09086228162050247, 0.170135959982872, -0.16779224574565887, 0.1815350502729416, 1.4743215833002536e-22, -9.566237155424928e-20, -0.21095360815525055, -0.045954570174217224, 0.10585857182741165, 0.2784723937511444, 0.05100030452013016, -0.13963598012924194, 0.03689368814229965, -1.3915954690359306e-31, 0.16441479325294495, -1.1296526452179962e-18, 0.1305093914270401, 0.1570793241262436, 0.2743348479270935, -1.095988144712331e-30, 0.1336081624031067, 3.518282110093196e-09, -0.13230760395526886, 0.11548540741205215, -1.7630584124254376e-29, -0.23461727797985077, -0.14594532549381256, 0.14093419909477234, -0.20301935076713562, -0.0028494633734226227, -0.07874691486358643, 0.035525161772966385, -0.2398752123117447, 0.2018376886844635, 1.2333350486726236e-12, 0.04146707057952881, 0.10634665936231613, -0.09163354337215424, 0.06954960525035858, -1.5914381357867713e-12, -0.0034069924149662256, 0.0021188119426369667, 0.052855607122182846, 1.107254488069143e-26, 4.060381772062318e-31, -0.03256634995341301, -0.04209897667169571, 0.14215442538261414, 0.04318192973732948, -0.043282728642225266, -0.1619599610567093, 0.1814209520816803, 2.853251971841322e-29, -0.22854666411876678], [8.53563174230937e-17, 0.123121477663517, -3.293641507614176e-30, -0.12362560629844666, 0.2463972568511963, -0.23577219247817993, 0.03743652626872063, 0.12386924028396606, -0.05195314809679985, 0.020129363983869553, -0.012529268860816956, -0.07913599908351898, 0.23538430035114288, -0.09012041985988617, 1.5794022213940766e-18, 3.626084186267431e-20, -0.02370164357125759, -0.23735342919826508, 0.05844131484627724, -0.1327619105577469, 0.19894522428512573, 0.02414492517709732, 0.25765928626060486, 2.9004806208729953e-24, 0.12033629417419434, -1.0313806598321403e-25, 0.165793314576149, 0.025866756215691566, 0.10344819724559784, 2.959133055031187e-31, -0.1311715990304947, -4.27874707886744e-10, 0.17962022125720978, 0.05590776354074478, -1.2089590181427595e-24, 0.050778038799762726, -0.10792652517557144, -0.1772937923669815, 0.12298953533172607, -0.004771413281559944, -0.05709580332040787, 0.038951851427555084, -0.12786807119846344, 0.01549960020929575, -6.970876470690379e-28, 0.3262261152267456, -0.07286189496517181, -0.049995049834251404, -0.1833178699016571, 4.629481337228836e-16, 0.0010090203722938895, 0.002585259499028325, 0.02973043918609619, 3.664024844078046e-29, 1.4453959411722184e-30, 0.11303278058767319, 0.11200795322656631, -0.14032968878746033, -0.059907834976911545, -0.12936316430568695, -0.027423996478319168, 0.20018523931503296, -4.0676546037777615e-21, 0.012927901931107044], [-9.686200404165538e-31, -0.021128466352820396, 6.200018000022267e-32, 0.0491371713578701, -0.23343594372272491, 0.20906971395015717, -0.4297879636287689, -0.0016265742015093565, -0.07555204629898071, 0.007411590311676264, -0.17976148426532745, -0.07650738954544067, -0.0637136846780777, 0.20533578097820282, -7.784443420942144e-25, 1.198687499320731e-21, -0.26630669832229614, -0.0861629843711853, 0.1763681173324585, 0.3157189190387726, -0.3111502528190613, 0.03691665828227997, -0.3127867877483368, -1.0839112333014178e-31, 0.2672124207019806, -7.359021205307247e-21, 0.020691189914941788, 0.1603817343711853, 0.05732398107647896, -4.212648579220922e-24, -0.08118379861116409, -1.539640538567811e-17, 0.049386993050575256, -0.01848999597132206, -9.108586577805658e-32, -0.0927838608622551, -0.13484640419483185, 0.2419963926076889, -0.2891698181629181, 1.5739311720608384e-06, -0.23542091250419617, -0.250577837228775, 0.02786254696547985, -0.008304211311042309, 1.6881814956376529e-12, -0.12005801498889923, -0.17913004755973816, 0.23799169063568115, -0.05141986533999443, 5.049718937976115e-34, 2.715928349061869e-05, 0.17462389171123505, 0.030024759471416473, 1.8117583822085948e-11, 1.467023442829063e-12, 0.005331971682608128, -0.04971703886985779, -0.07516878098249435, -0.34274762868881226, -0.31456834077835083, -0.26876509189605713, 0.09647293388843536, 1.129313097270066e-20, -0.15525729954242706], [-1.820927473447266e-27, -0.01379272248595953, 2.2192043120925326e-30, 0.056384503841400146, 0.18284401297569275, -0.19263429939746857, 0.14019891619682312, 0.016366081312298775, -0.0500713586807251, 0.13355658948421478, 0.013683763332664967, 0.19109682738780975, 0.1860075294971466, -0.03421252593398094, 2.9249281028753668e-28, 4.5199184309686137e-20, 0.20303493738174438, -0.1309448778629303, 0.06866180151700974, 0.08810743689537048, 0.1302855759859085, -0.15905264019966125, 0.11015522480010986, 2.5075653533203076e-18, -0.14034435153007507, -4.833275269835319e-27, 0.1904546618461609, -0.04214128106832504, 0.1831311732530594, -1.852937622672926e-32, -0.05505380034446716, 2.747378158307612e-10, -0.019584037363529205, -0.014370339922606945, -1.4032674226429854e-31, 0.03447014093399048, -0.1657096892595291, -0.0349765382707119, 0.22012975811958313, -0.0029674882534891367, 0.09204037487506866, -0.05492700636386871, 0.11687307059764862, -0.15695153176784515, 7.44591888146573e-13, -0.13524258136749268, -0.1142645850777626, -0.15383926033973694, -0.1434214860200882, 2.850570274260995e-32, -0.0003669541038107127, 0.17795245349407196, -0.014829023741185665, -3.824082971558552e-27, -7.609803421291127e-31, 0.06534969061613083, -0.11567290127277374, -0.1773245930671692, -0.12309936434030533, 0.11692684143781662, 0.08348860591650009, 0.003557868767529726, -7.38901296486083e-22, 0.058464713394641876], [4.252607071868104e-31, 0.24834129214286804, 7.037668738052739e-25, -0.11403381079435349, 0.03453407436609268, -0.322363942861557, 0.09961211681365967, 0.12825565040111542, -0.207386776804924, -0.22725053131580353, 0.0581384152173996, 0.1525157392024994, -0.0025583337992429733, -0.08732203394174576, -1.27238077387605e-13, 5.0488881542340573e-20, 0.3196983337402344, 0.10220392048358917, -0.2760486602783203, 0.1180163100361824, 0.1544543206691742, 0.23781539499759674, 0.0790930837392807, 1.6924419422937864e-32, -0.09668534994125366, -2.836393765370304e-30, -0.054507121443748474, -0.32325872778892517, -0.1387384533882141, 9.829594953937601e-29, -0.13710880279541016, -6.835364496092195e-26, 0.164788618683815, -0.11404597759246826, -5.915526267829478e-31, 0.0719638392329216, 0.2416490912437439, -0.2001657336950302, 0.17928777635097504, -0.004310374613851309, 0.297504186630249, 0.17221443355083466, 0.09664321690797806, -0.020146667957305908, 8.376240101245797e-21, 0.15241706371307373, -0.2207915186882019, 0.13522617518901825, 0.14725014567375183, -9.912531967263822e-30, 0.0018723970279097557, 0.02935311384499073, -0.10323143005371094, 3.682967493555671e-30, -1.282159934754398e-18, 0.04195106774568558, 0.1781303733587265, -0.11560022830963135, 0.129104882478714, 0.04131400212645531, 0.2539011836051941, 0.07409227639436722, -2.4900278191519263e-31, 0.12315947562456131], [-1.641506062905157e-19, -0.07552849501371384, 3.1293395588946588e-30, -0.10597075521945953, -0.0023550214245915413, 0.29447075724601746, -0.052743591368198395, -0.000935485353693366, 0.05677652731537819, -0.06151237711310387, -0.048750974237918854, -0.18186154961585999, -0.10086175799369812, 0.007721165660768747, -6.452864483895439e-31, 1.0438909268545713e-21, -0.13923978805541992, 0.008307689800858498, -0.1031406968832016, 0.10712658613920212, -0.15725946426391602, -0.22396670281887054, -0.01710684597492218, 4.218621649394871e-30, 0.18844233453273773, -1.1603789040639339e-31, -0.15439724922180176, 0.1309334933757782, 0.04779650643467903, 5.806508923393822e-32, -0.16209012269973755, -2.2696477341485104e-26, -0.0616917684674263, -0.14262141287326813, -2.3432967368105343e-31, -0.06064773350954056, -0.04123076796531677, 0.15170228481292725, 0.06400078535079956, -1.6133420988051483e-10, 0.1370251327753067, -0.23663780093193054, -0.1592160314321518, -0.17937399446964264, -2.736561945380957e-30, -0.06623570621013641, -0.19238628447055817, 0.21191640198230743, -0.22254526615142822, -4.812849676628407e-16, 1.1956619346165098e-05, -0.14317668974399567, 0.045460429042577744, 1.448873341599126e-27, -6.431362585733023e-29, -0.012864490039646626, 0.10363243520259857, -0.026441119611263275, -0.4677314758300781, -0.01150481216609478, -0.012789535336196423, -0.05884289741516113, 6.886848769758572e-32, -0.30540934205055237], [2.2563010655184053e-23, 0.11954224854707718, 2.1281135350027065e-23, 0.05004313588142395, 0.09089986234903336, -0.1933976113796234, 0.036806803196668625, -0.09303515404462814, 0.16509103775024414, 0.004876387305557728, 0.17634236812591553, 0.02991081029176712, -0.15806087851524353, 0.028627237305045128, 3.415596324112154e-14, 3.680609605801454e-20, 0.18399199843406677, 0.12470836192369461, -0.13283784687519073, -0.11556948721408844, 0.10008493810892105, -0.014102155342698097, 0.18817192316055298, 5.2482558458570474e-18, -0.09336414188146591, -1.0243920455466622e-26, 0.10810907930135727, -0.05460743606090546, 0.1382187455892563, 3.3667907343144338e-31, 0.100494384765625, -2.0275862933072375e-10, 0.03535084053874016, 0.004732518456876278, -1.715423003789156e-31, -0.12196312099695206, 0.10552676767110825, 0.14143945276737213, -0.07908623665571213, -0.0037911292165517807, -0.15640239417552948, 0.10571026057004929, 0.0736534595489502, -0.00474129244685173, -3.354266151283688e-26, -0.16062569618225098, 0.028352836146950722, 0.004542552400380373, 0.22598515450954437, -1.5000603753570914e-20, 0.0011939459946006536, -0.03399994969367981, -0.04466116428375244, 2.743727706281423e-28, 3.951176183961322e-29, 0.17276711761951447, -0.15266543626785278, -0.18138429522514343, 0.15087047219276428, 0.0731441080570221, -0.0629454106092453, -0.19345684349536896, 3.2394421034438544e-17, 0.12278474122285843], [-5.4049877772048724e-24, 0.05669844523072243, 4.97250983590441e-26, 0.013314028270542622, -0.016365474089980125, -0.16087226569652557, -0.06857453286647797, 0.08849328756332397, -0.13385401666164398, -0.08300095051527023, 0.29014015197753906, -0.021490877494215965, 0.13498346507549286, -0.21721820533275604, 2.190449463322266e-30, 5.51653083613179e-20, 0.3571646511554718, -0.08990352600812912, -0.09205197542905807, -0.0008866105927154422, 0.12537600100040436, -0.06387452781200409, 0.1667233258485794, 1.1072893768343181e-13, -0.2802346646785736, 1.6472042470841003e-29, -0.06810171157121658, -0.1636655032634735, -0.2895054221153259, -6.363107849496877e-32, 0.05073009431362152, -3.636141591455072e-29, 0.005344245582818985, 0.2108873575925827, -4.454022697369844e-16, 0.024053651839494705, 0.08184012770652771, -0.2578311264514923, 0.35224857926368713, -0.0031903814524412155, 0.1637454479932785, 0.2856893241405487, 0.1473245769739151, -0.07078489661216736, 4.540581738712312e-18, 0.15023651719093323, -0.20702293515205383, 0.05504809319972992, 0.2340792417526245, -6.201872986531593e-29, 0.002253958024084568, -0.18568119406700134, -0.20805692672729492, 1.3736670878059463e-30, 1.3677899612791018e-17, 0.14713336527347565, -0.04360274225473404, 0.022462209686636925, -0.09798135608434677, 0.10502775758504868, 0.1623201072216034, -0.08622264117002487, -1.285781587902145e-16, 0.045298922806978226], [1.1629434394644367e-11, 0.14412052929401398, 7.642175068394896e-26, -0.1651129275560379, -0.18154197931289673, 0.2947293519973755, -0.14381934702396393, 0.014250724576413631, 0.06223420798778534, 0.16677668690681458, 0.0941527783870697, -0.10062433779239655, -0.16342101991176605, -0.0219733864068985, -7.38805314202023e-24, -2.689029610672124e-23, -0.11078321188688278, 0.19813065230846405, 0.011946873739361763, 0.2245539128780365, -0.1493902951478958, 0.15983572602272034, 0.16244962811470032, -3.978430949125674e-32, 0.1459047496318817, 2.3895017442244302e-26, -0.3905208706855774, -0.0515458807349205, -0.04699564725160599, 2.8379648456382957e-22, -0.08186247944831848, -8.517889518722122e-12, -0.2194271683692932, -0.22931648790836334, 2.746610989860787e-13, -0.004032994620501995, 0.1463785618543625, -0.03669912740588188, -0.0924471840262413, 5.2104986991707847e-11, -0.018094507977366447, -0.15630915760993958, 0.07560266554355621, -0.1421665996313095, 1.969003701433852e-31, -0.2303939163684845, -0.1838357150554657, -0.19531385600566864, 0.08228393644094467, 7.26909896149484e-32, -1.2100795174774248e-05, 0.17691199481487274, -0.18065105378627777, 1.1482255855202173e-31, 4.451122630200199e-12, -0.021661804988980293, -0.1654503345489502, -0.12928123772144318, -0.5587918162345886, -0.16947868466377258, 0.027640188112854958, -0.18968166410923004, -1.0899687614027165e-32, 0.11146970838308334], [-1.1678108500350737e-24, 0.04754570871591568, -2.7517861582806036e-29, -0.08158959448337555, -0.02140199765563011, 0.01566603034734726, -0.17861710488796234, 0.12170722335577011, -0.044904954731464386, -0.08570165932178497, -0.05575373023748398, 0.010200386866927147, 0.1340334564447403, 0.12835659086704254, 2.5205147464725252e-26, -8.548989641199434e-12, -0.018412774428725243, 0.013096865266561508, -0.18317225575447083, -0.07001339644193649, 0.12613388895988464, -0.16568022966384888, 0.014684404246509075, -2.6665985973511974e-25, -0.1843983381986618, 1.2513812243457685e-26, 0.046092044562101364, 0.20894989371299744, 0.2483779788017273, 3.000421412483057e-32, -0.10576757788658142, -6.942381489753994e-26, 0.0019982485100626945, 0.17761948704719543, -6.503114891289286e-18, -0.031234338879585266, -0.17755234241485596, -0.04666956141591072, 0.10610412806272507, -0.0044065313413739204, -0.041760630905628204, -0.043380171060562134, -0.04262564703822136, 0.1407197117805481, 8.021783030567881e-19, 0.015600022859871387, 0.19209818542003632, -0.03718830272555351, 0.053123168647289276, -1.8430035199141268e-31, -0.00618281215429306, 0.19855497777462006, -0.1669265180826187, 6.4101129070684176e-18, 1.3329107943620892e-31, 0.0398799404501915, 0.1015004962682724, 0.13355451822280884, -0.0006933268741704524, 0.04572680592536926, -0.17884139716625214, 0.044741321355104446, 1.5080899039970553e-21, 0.07888659834861755], [-3.562103470032655e-32, 0.07098731398582458, -1.2506624425326351e-13, -0.2940146028995514, 0.09872850030660629, -0.1367677003145218, -0.17315033078193665, -0.1588929444551468, 0.15439699590206146, 0.10730475187301636, -0.08356671780347824, -0.028278524056077003, -0.08407153189182281, 0.12841644883155823, 4.212660670522077e-30, 4.606041180549882e-20, -0.09314599633216858, -0.13312245905399323, 0.09772719442844391, 0.10689419507980347, -0.10489364713430405, -0.21277901530265808, -0.17199023067951202, 5.622422557909068e-13, -0.06054893508553505, 2.6001594993183194e-26, 0.11958824843168259, -0.008870954625308514, -0.08845638483762741, 1.6693020456733237e-19, 0.10149246454238892, 2.185746375560349e-11, 0.09680406749248505, -0.16651861369609833, -1.1919970761310739e-13, 0.2030603289604187, 0.11810323596000671, -0.06209878250956535, 0.19587606191635132, -0.005476471036672592, 0.0630950778722763, 0.10117470473051071, 0.14533427357673645, 0.09320544451475143, 1.8130786054029416e-20, -0.08013724535703659, 0.07153745740652084, -0.10663396865129471, -0.08222424983978271, -2.1888294910475106e-31, -0.0016536136390641332, 0.1054994985461235, 0.22521653771400452, 1.1660964241764351e-26, 1.6367540395330106e-19, -0.12497126311063766, 0.19064606726169586, 0.0689472034573555, -0.06708981841802597, 0.12461097538471222, 0.1960233747959137, 0.17837223410606384, -1.161287729339362e-16, -0.16787844896316528], [-6.542347043228508e-27, -0.10327067226171494, -3.3633931615165684e-22, 0.42812272906303406, -0.07699719071388245, 0.1612929254770279, -0.31493398547172546, 6.863650924060494e-05, 0.09750159829854965, 0.32763612270355225, -0.28815507888793945, -0.06792392581701279, -0.23249472677707672, 0.1734808087348938, -1.7646097430926662e-23, 1.3855641796594215e-21, -0.12200193852186203, 0.16645337641239166, 0.25384894013404846, 0.17653721570968628, -0.08513056486845016, -0.13623148202896118, -0.2117946594953537, 1.7454371361475716e-31, 0.20236995816230774, -3.937982006635927e-20, -0.06683442741632462, 0.10878931730985641, -0.01159435324370861, 1.3023430041644363e-31, -0.09741612523794174, 8.285941526875706e-25, 0.11762076616287231, 0.15248613059520721, -5.802303901686903e-18, -0.16500034928321838, 0.030342571437358856, 0.0381929948925972, -0.1054435595870018, -9.987093374519418e-10, -0.06739135831594467, -0.23493604362010956, -0.17421983182430267, 0.21923279762268066, -1.913125872170904e-31, -0.10879746079444885, 0.01114465668797493, -0.08092398196458817, 0.003962886054068804, 1.306689220753554e-24, 2.625957495183684e-05, 0.023647818714380264, 0.05254494771361351, 1.3533220082025222e-21, -1.5156050025942898e-29, 0.003483784617856145, 0.20798678696155548, -0.1976807415485382, 0.02122632786631584, -0.039181143045425415, -0.0027803918346762657, 0.1459096521139145, -6.442028306771819e-31, -0.14029459655284882], [-1.4837872857435205e-29, -0.20577484369277954, 1.982932956842791e-31, 0.05702251195907593, 0.08914036303758621, -0.16074202954769135, 0.012173962779343128, -0.016489768400788307, 0.03330885246396065, -0.1409740298986435, 0.036589283496141434, 0.06887932121753693, 0.029864059761166573, 0.05782127380371094, -1.0159334623422355e-29, 2.244875124650005e-20, -0.07141472399234772, 0.1506248414516449, 0.025759179145097733, -0.14577320218086243, -0.17009538412094116, -0.08029016852378845, 0.12895068526268005, 3.5225044272672954e-30, 0.12906749546527863, -5.433508696704174e-32, -0.035405222326517105, -0.03559515252709389, -0.029875263571739197, -6.940876841111066e-32, -0.11252375692129135, 2.2923051439859127e-19, 0.05454482510685921, 0.06384683400392532, 2.229405549059038e-11, 0.16963836550712585, 0.03333960473537445, -0.010422910563647747, 0.06930147856473923, -0.001971895806491375, -0.14743894338607788, -0.02918093465268612, 0.13449712097644806, -0.03629991412162781, 1.071604512744919e-31, -0.05153553560376167, -0.1057865098118782, -0.020481113344430923, -0.08621132373809814, -1.2863538359497717e-12, -0.006692483089864254, 0.1912442445755005, -0.07000143826007843, -1.9642817332797592e-33, -5.394096251912064e-31, 0.15284810960292816, -0.06649857014417648, -0.06961581110954285, 0.21133306622505188, 0.1499830037355423, -0.12785322964191437, 0.15838630497455597, 3.286806807300303e-32, -0.051730383187532425], [-1.5732173919540176e-20, -0.11390472948551178, -2.6488860083938025e-28, -0.17308959364891052, 0.11135274171829224, 0.0056983777321875095, 0.21472741663455963, -0.10801790654659271, 0.019941002130508423, -0.23275871574878693, 0.163393035531044, 0.06210872158408165, 0.24469654262065887, -0.25804489850997925, -4.112176822879598e-15, 2.158552850057701e-20, 0.02071760967373848, -0.16238510608673096, 0.12492909282445908, -0.21929344534873962, -0.030098387971520424, 0.18721960484981537, 0.06122751906514168, -1.0353047497975491e-25, -0.24147406220436096, -3.7784966985924773e-32, -0.0851050540804863, -0.3237825930118561, 0.13240507245063782, -1.0044425905456572e-20, 0.011633364483714104, 6.064787291242427e-25, -0.06995676457881927, 0.2761717140674591, -2.2704633312331524e-12, 0.15813703835010529, 0.28164130449295044, -0.018346013501286507, 0.26025378704071045, -0.006706960033625364, 0.06774058938026428, -0.037227485328912735, 0.1830567866563797, 0.15968352556228638, 1.2346177760354264e-27, 0.11764968931674957, -0.04632679373025894, -0.023235127329826355, 0.026341637596488, 1.0087305339981367e-12, -0.002832433907315135, -0.08015590906143188, -0.20926974713802338, 1.4945176594078109e-21, 7.879290632767195e-26, -0.10345055162906647, 0.12856727838516235, 0.12407015264034271, -0.20902441442012787, -0.10006074607372284, 0.26905831694602966, 0.06207871809601784, 5.85148677050755e-16, 0.17689792811870575], [3.4670471193534106e-32, -0.1865641325712204, 9.275800061462953e-32, 0.15481795370578766, -0.16132719814777374, 0.20973628759384155, 0.08650689572095871, 0.008410826325416565, 0.006275934167206287, -0.010684573091566563, 0.04167209565639496, -0.004982844460755587, -0.19036325812339783, -0.014741474762558937, 4.06691402115994e-24, -2.293265998277924e-20, -0.20030708611011505, 0.06142052263021469, -0.09424857050180435, -0.07990006357431412, -0.17192578315734863, -0.09578679502010345, 0.06776262819766998, -4.0692757974195095e-32, -0.05774672329425812, -1.4479234398418155e-19, 0.24037127196788788, 0.11702004075050354, -0.0959295704960823, 1.1063539771588283e-32, 0.14770753681659698, 4.343324571462141e-24, -0.1581164002418518, -0.25760990381240845, 1.0996760672202039e-32, 0.14858491718769073, 0.03153223171830177, 0.0470898374915123, -0.18439264595508575, 2.1958997820092918e-07, 0.08824805170297623, -0.07050956785678864, 0.0823674201965332, 0.19871830940246582, 1.1611486238676428e-24, -0.01616823300719261, -0.024363074451684952, 0.1203751415014267, 0.018143296241760254, 1.74843518746957e-30, 0.00014790108252782375, -0.059361182153224945, 0.184611976146698, -5.344469113859614e-32, 3.44051548527234e-22, 0.026208477094769478, 0.08184284716844559, -0.0998452678322792, 0.050691355019807816, 0.12841004133224487, -0.13450010120868683, 0.2077603042125702, -7.183217860158453e-21, -0.14925703406333923], [8.160030846147701e-24, 0.20241212844848633, -2.7957269270465445e-30, 0.008730022236704826, 0.015129003673791885, 0.026774099096655846, -0.17887037992477417, 0.11895891278982162, 0.0992555320262909, 0.02246014215052128, 0.23019389808177948, -0.017607616260647774, 0.2372586876153946, 0.05510903522372246, 1.7869650711030825e-30, -1.84817965926746e-20, 0.2078435719013214, -0.06000365689396858, -0.1498817354440689, -0.2001606822013855, 0.06985462456941605, 0.027330933138728142, 0.12699535489082336, 3.15347926079969e-19, -0.20916809141635895, 8.350638682903644e-28, -0.14554178714752197, 0.18132099509239197, 0.14721888303756714, 1.3484249688042418e-31, 0.1261434108018875, -1.2488916423145039e-22, -0.020070403814315796, 0.1552080363035202, -1.4264385321875242e-31, -0.048812370747327805, -0.004319566302001476, 0.13501864671707153, -0.03469596058130264, -0.002409570850431919, 0.13398049771785736, 0.17660099267959595, -0.15183502435684204, -0.12679530680179596, -4.9209221017817535e-21, -0.12708404660224915, -0.018339142203330994, 0.12004043161869049, 0.07405398786067963, 1.11554855878911e-30, -0.0045203594490885735, 0.16417177021503448, -0.015846334397792816, 2.551261719246911e-12, 1.423632180484258e-30, -0.15292949974536896, 0.0872623473405838, -0.0897187814116478, 0.1374029666185379, -0.15387384593486786, -0.11252351850271225, 0.1508546769618988, 3.761719896252536e-26, 0.12636397778987885], [-1.2654205940093455e-28, 0.12721003592014313, 2.0240526143983967e-29, -0.08252142369747162, 0.019839772954583168, -0.2006235122680664, -0.14853668212890625, -0.07153230905532837, 0.03599335998296738, 0.14786018431186676, 0.21317234635353088, 0.09437461942434311, 0.17880681157112122, 0.016250355169177055, 1.9468180027850765e-27, -3.1542173127012403e-18, 0.156844824552536, -0.029294410720467567, -0.23935265839099884, -0.04806218296289444, 0.05848976969718933, 0.2216193974018097, 0.09773903340101242, -2.0888231336569537e-31, 0.14314620196819305, -1.2880901735115496e-19, 0.04406331479549408, -0.315814346075058, 0.05852806568145752, -9.543381912115783e-17, -0.09178683161735535, 6.958748720150339e-18, -0.10686229914426804, 0.3444690406322479, -2.9826909789534176e-27, 0.19585931301116943, -0.16079223155975342, 0.15352468192577362, 0.17341133952140808, -0.007037450559437275, 0.23098936676979065, -0.021530181169509888, 0.2359466254711151, -0.22226499021053314, 8.509323634370864e-29, 0.002772629726678133, -0.1242946982383728, -0.12450572848320007, -0.17022201418876648, -2.6115035229153366e-32, -0.010824470780789852, 0.013760136440396309, -0.12153364717960358, 3.867530037211046e-29, -1.473407763160675e-27, -0.18208587169647217, 0.1568903625011444, 0.2105409950017929, -0.13910232484340668, 0.09983690828084946, 0.23693756759166718, -0.16392293572425842, 1.7902292803125854e-16, -0.05790066346526146], [-8.075792926029354e-25, -0.1173911765217781, -2.3329972904074996e-31, 0.07877427339553833, 0.1754215657711029, -0.03902202472090721, -0.13251522183418274, 0.023052548989653587, 0.036136213690042496, -0.23996461927890778, -0.07856534421443939, 0.053676582872867584, 0.13770060241222382, 0.022357681766152382, -1.7726046257189793e-19, -9.006410364136989e-21, 0.03545171767473221, -0.17500212788581848, -0.18834231793880463, -0.10743656754493713, 0.17967280745506287, 0.13129344582557678, 0.22501206398010254, 2.180385680026684e-31, 0.018886469304561615, -1.6031128645779773e-30, 0.24440738558769226, 0.011466432362794876, -0.21227245032787323, 2.0645577564212345e-32, -0.2249269336462021, 4.7590359667865385e-28, -0.06895323842763901, -0.044545069336891174, 2.846075087300885e-14, 0.12546616792678833, 0.20354706048965454, -0.06923621147871017, 0.13216491043567657, 3.593701649151626e-06, -0.05574657395482063, 0.023843659088015556, 0.05920499190688133, -0.28446289896965027, -8.50810270752698e-21, -0.26744580268859863, 0.09001651406288147, -0.16402503848075867, 0.06338280439376831, -1.5835636212680247e-24, 0.00020920202950946987, -0.20189674198627472, -0.21987897157669067, -4.470765599069274e-32, -1.4936161682466143e-11, -0.07598842680454254, -0.18067876994609833, -0.10113338381052017, -0.43638867139816284, 0.0006792473723180592, 0.16273391246795654, -0.05498412996530533, -3.721331820564814e-32, -0.05178264528512955], [-5.890533401189198e-16, 0.014511499553918839, 1.804364308056014e-17, 0.0804494097828865, -0.09065119177103043, -0.11916933953762054, 0.032727066427469254, 0.11704966425895691, -0.02809462510049343, 0.07945487648248672, 0.27013108134269714, -0.16476251184940338, -0.042403582483530045, -0.09306569397449493, -3.091737281363267e-31, -3.4568449716436425e-20, 0.2410789281129837, 0.023645522072911263, 0.009529134258627892, -0.10163653641939163, 0.2077348381280899, 0.239399254322052, 0.19725444912910461, -2.249305429413706e-11, 0.0020542917773127556, -1.9768949389813162e-14, -0.1385919749736786, -0.18605120480060577, 0.021715926006436348, -2.650496386753864e-29, -0.14498190581798553, -5.031829156118877e-25, -0.04571707919239998, 0.0016404616180807352, 1.7715024075527524e-19, 0.006679107900708914, 0.1348869949579239, -0.21812398731708527, -0.11900567263364792, -0.002924608066678047, 0.25914689898490906, 0.13408826291561127, 0.1262175440788269, -0.10287695378065109, 5.007361431677974e-31, -0.2941015660762787, 0.047864172607660294, 0.16436181962490082, 0.0826689749956131, -4.603510847980779e-20, -0.0022889880929142237, -0.17661358416080475, 0.13815712928771973, 5.449592930441434e-16, 9.469257631996706e-32, -0.14729681611061096, -0.21217449009418488, -0.022105632349848747, -0.05680321529507637, 0.05022142082452774, 0.08226332813501358, -0.22547346353530884, 1.2182908639667352e-19, 0.034227777272462845], [3.0181782303125387e-30, 0.16875673830509186, 2.5209606708751706e-30, 0.02003529667854309, 0.11940806359052658, -0.09122162312269211, 0.10858853906393051, -0.08446405082941055, -0.10537905246019363, 0.0946144312620163, 0.03926178067922592, 0.08944790810346603, 0.202629953622818, 0.09113498777151108, -6.607541232386247e-17, 9.27531450281576e-20, 0.0032114903442561626, -0.02748478576540947, -0.13903169333934784, 0.04917333647608757, 0.1664881408214569, 0.14854605495929718, 0.022172098979353905, -1.697413466780673e-22, -0.09576746821403503, -3.913266673882281e-21, 0.18775467574596405, -0.17228063941001892, -0.20983026921749115, -1.4210332129754866e-12, 0.04678943753242493, -2.8883081098009233e-30, -0.10322125256061554, -0.0029805314261466265, -1.098193959861649e-31, -0.02082030288875103, 0.11490201950073242, -0.00839651096612215, 0.013492441736161709, -0.00790817104279995, 0.3016490638256073, 0.056734781712293625, 0.15926103293895721, -0.22437216341495514, 2.5785421837736996e-33, -0.26934367418289185, 0.01099905464798212, 0.18867959082126617, -0.008443661034107208, -1.958902332878376e-13, -0.017596228048205376, -0.10047399252653122, -0.1839759796857834, -1.8681141703003057e-12, -1.0044945699564176e-26, -0.029968658462166786, -0.1143755167722702, 0.2208850085735321, -0.33924534916877747, 0.2622157633304596, -0.029922667890787125, 0.12360022962093353, 4.68959756698403e-31, 0.18430522084236145], [4.630521226872686e-12, 0.011623426340520382, 2.0013901831390096e-13, -0.14168834686279297, 0.06620074808597565, -0.12213313579559326, 0.08534281700849533, -0.02069811336696148, 0.019798465073108673, -0.09064628183841705, 0.20872701704502106, 0.011367623694241047, 0.07066447287797928, -0.22062650322914124, 2.2470248365753646e-27, -6.885445764336434e-21, -0.10655894130468369, -0.23160508275032043, -0.23713462054729462, 0.1041703000664711, 0.124116912484169, 0.06443566083908081, 0.12469697743654251, -1.0140872418382127e-20, -0.07147262245416641, 3.1275649385831094e-31, 0.2205818146467209, -0.07851668447256088, 0.06462065130472183, -2.134846273754586e-19, -0.06582973897457123, 9.90194829008834e-28, -0.043809693306684494, -0.25713029503822327, -2.977518374425223e-32, -0.07375343143939972, 0.11611278355121613, -0.097231924533844, -0.0032747918739914894, 2.199315531470347e-06, 0.2473272979259491, 0.20526567101478577, 0.12198486179113388, 0.018194908276200294, -5.8454163936544535e-21, -0.12729184329509735, -0.07443205267190933, 0.009717685170471668, 0.004988963715732098, -1.2436385213687156e-19, 0.00033164999331347644, -0.2791168689727783, -0.14991611242294312, 3.2193978385941513e-12, 4.9231237432565224e-32, 0.06863941997289658, -0.0680505558848381, 0.055457696318626404, -0.4598086178302765, -0.027483854442834854, 0.1673891395330429, -0.15884102880954742, -3.1578015920221357e-32, 0.030282432213425636], [1.7140930494806357e-31, 0.18780337274074554, 3.123196796669947e-12, -0.04265647754073143, 0.13159725069999695, 0.10577129572629929, 0.054219841957092285, 0.1458452194929123, -0.14679569005966187, -0.16039212048053741, 0.18337620794773102, -0.008715899661183357, 0.17357765138149261, 0.15475806593894958, -1.158977446975726e-16, 6.983900775186844e-20, 0.03466124087572098, -0.023655520752072334, 0.049072157591581345, 0.16216017305850983, -0.16011899709701538, 0.016340799629688263, 0.11430886387825012, -2.0988086384327256e-28, 0.05987848341464996, -1.6367868682635713e-20, -0.24818295240402222, -0.002348552457988262, 0.14523202180862427, -4.916205813240634e-29, -0.0873606875538826, 6.881271941150402e-11, -0.20164425671100616, 0.2622169256210327, -8.029093604591014e-30, 0.15614816546440125, -0.06993256509304047, -0.2120988517999649, 0.14176441729068756, -0.003494667587801814, 0.15107013285160065, -0.11914005875587463, 0.12260039150714874, 0.10007569938898087, 2.502923321318865e-30, 0.005173994228243828, 0.21829719841480255, 0.05433301255106926, -0.16791018843650818, -2.3963817384327223e-32, -0.007311972789466381, -0.020766237750649452, -0.04543687030673027, 5.177572534595452e-16, -3.6863645781899996e-30, -0.1591772586107254, 0.13999363780021667, 0.19211222231388092, -0.2592848539352417, 0.22418388724327087, 0.04986287280917168, -0.0791594460606575, 2.5892574293746363e-16, 0.036935046315193176], [-7.922253476779728e-25, 0.09545708447694778, -2.4185831492390918e-14, -0.34679487347602844, 0.0415264256298542, -0.05102867633104324, -0.0749984011054039, -0.07549414783716202, 0.09609422087669373, 0.1615576595067978, -0.04245566949248314, 0.21752728521823883, -0.08041706681251526, -0.01694021187722683, 6.394070775330904e-26, -7.142380179498908e-20, 0.26639464497566223, 0.0735836997628212, -0.058881569653749466, 0.020228369161486626, -0.1503184288740158, 0.18657413125038147, 0.027771947905421257, 4.17657080753234e-32, 0.04571831598877907, -1.1378854905225312e-30, -0.053832512348890305, 0.06775657832622528, -0.09701421111822128, -5.035032681543788e-29, 0.17274846136569977, 1.7666426654905365e-10, 0.05169449746608734, -0.13843196630477905, -3.484279014426203e-21, 0.1395435929298401, -0.08590221405029297, 0.007332672365009785, -0.08068163692951202, -0.008612685836851597, 0.10321327298879623, -0.18323755264282227, 0.13397693634033203, -0.06977729499340057, -2.6001617525750476e-11, -0.055474601686000824, -0.2338162511587143, -0.10679972916841507, 0.07520591467618942, -4.444727966611606e-17, 0.002240893431007862, -0.17543989419937134, -0.0959511250257492, -2.278653806273053e-27, 5.0136553105509205e-30, -0.15705807507038116, -0.034887488931417465, -0.058425623923540115, 0.07485921680927277, -0.07246924936771393, 0.19184927642345428, 0.18015344440937042, 5.309946020270314e-32, 0.15157075226306915], [5.967924281165686e-32, 0.1469292789697647, 3.733540492533113e-18, 0.2762472331523895, -0.07967683672904968, -0.030391912907361984, -0.022254830226302147, 0.0019687956664711237, -0.10039506107568741, -0.07574097067117691, 0.04373882710933685, 0.059353411197662354, 0.14183545112609863, 0.10829085856676102, 2.9949584072529525e-14, 4.06553212618061e-21, -0.13170161843299866, -0.20397749543190002, 0.19078627228736877, 0.0943925678730011, -0.24248702824115753, -0.11714289337396622, 0.1254725307226181, -6.747351808221835e-34, 0.0388832688331604, -1.4881289459164182e-31, -0.08470866084098816, -0.07963299006223679, -0.006847679615020752, -1.4900058319328516e-14, 0.09030881524085999, 7.604960196486643e-30, 0.10907721519470215, 0.1890363246202469, -3.3203283690649485e-25, 0.016894077882170677, -0.012648669071495533, 0.21947601437568665, -0.17229756712913513, 6.517060313626644e-08, -0.009226387366652489, -0.13195328414440155, -0.19551712274551392, 0.09315303713083267, -1.333788627400289e-27, -0.039102792739868164, 0.08272986114025116, -0.007144796662032604, 0.04767721891403198, 6.901873728789928e-25, -1.1482439731480554e-05, -0.08336164057254791, -0.014612292870879173, -2.878000690819142e-15, -1.0545522873253246e-20, 0.0016719703562557697, -0.08890591561794281, 0.06146156042814255, -0.23695045709609985, -0.1041439026594162, -0.13944658637046814, -0.14524053037166595, 8.69727616711973e-20, 0.03573862090706825], [-1.891283534093695e-33, -0.02054387703537941, -1.0222004835202546e-31, 0.08443370461463928, -0.17490310966968536, -0.032653264701366425, 0.19593897461891174, -0.003883990691974759, 0.04766319692134857, -0.05275603011250496, 0.1286460906267166, 0.14701996743679047, 0.02531663328409195, 0.20154798030853271, 6.064183209013568e-20, -4.298735846453017e-12, 0.15984363853931427, 0.12621942162513733, -0.14918451011180878, -0.09575311094522476, -0.17452363669872284, -0.08281166851520538, 0.13786748051643372, -5.181143577767664e-32, -0.0884525328874588, -1.2567737666505725e-30, -0.27286723256111145, 0.009650788269937038, 0.09262920171022415, 1.3552299473612583e-12, 0.19448129832744598, -4.888792842772105e-11, 0.17335213720798492, 0.07173006981611252, -2.1909241921137155e-26, -0.016886062920093536, -0.04817698895931244, -0.07395865023136139, -0.1593863070011139, -0.0017717715818434954, -0.0754653662443161, 0.016042061150074005, 0.11154792457818985, -0.01083151251077652, -3.1459051418161786e-15, 0.157740980386734, 0.20780807733535767, 0.14403368532657623, 0.20355719327926636, -9.462057141350744e-32, -0.005386924371123314, -0.14555975794792175, -0.04439547285437584, 7.753511691810362e-26, -1.8383448874480363e-24, -0.14698129892349243, 0.07683028280735016, 0.10075205564498901, 0.06180492416024208, -0.13504347205162048, 0.15558159351348877, 0.07704804092645645, 8.437468053309619e-31, 0.07992567867040634], [2.097871577218284e-27, -0.09809129685163498, -8.256467549995583e-17, -0.15018583834171295, 0.012157786637544632, 0.20764048397541046, 0.08227720856666565, -0.12863925099372864, -0.1431742012500763, -0.1999710351228714, 0.013916523195803165, 0.04871300980448723, -0.19274966418743134, 0.24074536561965942, -6.491407180417376e-32, -5.0533029076361323e-20, 0.03378979489207268, 0.1444275826215744, -0.1423402577638626, -0.12003646045923233, 0.09924229234457016, -0.05205540731549263, 0.001630422193557024, 1.874672630769065e-31, -0.15491008758544922, -1.8574624897239606e-22, -0.07122216373682022, -0.18922756612300873, -0.14284588396549225, -6.356105506161832e-22, 0.26967737078666687, -3.7665011418579013e-16, 0.20407912135124207, -0.07305952906608582, 1.841617136566498e-13, -0.15578924119472504, 0.16456954181194305, 0.2621684968471527, 0.06516658514738083, -0.004887215327471495, 0.027486734092235565, -0.14144791662693024, -0.05567275732755661, 0.09554432332515717, 4.330997249830465e-16, 0.10823437571525574, 0.22489218413829803, -0.09062769263982773, 0.07791492342948914, 5.047666201674163e-18, -0.00547639699652791, 0.26759615540504456, 0.06586069613695145, 2.0331499071130077e-12, -1.2274867507861405e-26, -0.12929223477840424, 0.052998434752225876, 0.10623008757829666, -0.298601895570755, 0.03436460718512535, 0.10426274687051773, -0.09358548372983932, 2.021296625575097e-31, 0.14295977354049683], [1.8644807935270085e-33, -0.09777672588825226, -1.020760559411471e-11, 0.02660067193210125, 0.24480731785297394, -0.2535029649734497, 0.14990580081939697, -0.01585131697356701, -0.03212299570441246, 0.025116411969065666, 0.20585031807422638, -0.2883817255496979, 0.06829449534416199, -0.36024826765060425, -1.6216761905509262e-33, 6.913336452822389e-21, -0.06367133557796478, -0.2935869097709656, -0.1445319503545761, 0.014399657025933266, 0.28966403007507324, -0.07528404146432877, 0.20127052068710327, -1.2477747461379654e-30, -0.11830512434244156, -3.976497985869447e-27, 0.38404884934425354, 0.0547674298286438, -0.10466182976961136, -2.5205529153947574e-30, -0.011380867101252079, -7.454548594304024e-24, -0.05910961702466011, -0.005467395763844252, -3.479149938659816e-30, 0.018239350989460945, 0.03499257564544678, 0.07904556393623352, -0.052512072026729584, 3.1762228900333866e-06, -0.02685193531215191, -0.08712993562221527, -0.08615943789482117, -0.25771892070770264, 1.538143641512062e-20, -0.15896309912204742, 0.1556725949048996, -0.096878282725811, 0.08127151429653168, -2.7375763499859427e-31, 0.0001834272115956992, -0.04241779074072838, -0.2163640558719635, 3.0266449869830934e-30, 1.5772425562122772e-18, 0.07013469189405441, 0.032690782099962234, 0.07155566662549973, -0.060248807072639465, 0.08485428243875504, 0.07003781199455261, -0.2200503945350647, -3.7260373244511557e-31, 0.020604191347956657], [-5.3249096636882026e-30, 0.20793437957763672, 3.9608323946646036e-25, -0.007528685033321381, -0.10931511968374252, 0.12630963325500488, 0.03719748556613922, -0.04088478535413742, 0.10203519463539124, 0.13489744067192078, -0.022457290440797806, 0.08039092272520065, 0.16744877398014069, 0.022603128105401993, 1.468423503814744e-21, 1.3852910040699195e-19, 0.09894229471683502, -0.1567046046257019, -0.053332019597291946, -0.23146995902061462, -0.09280066192150116, 0.15634505450725555, -0.1591734141111374, 4.054789710336586e-31, -0.05774549022316933, -8.381351202532781e-15, -0.006068389397114515, -0.08551324158906937, -0.09914913773536682, 2.607303194779227e-29, -0.08913587033748627, -3.3676894606315955e-10, 0.07623958587646484, 0.23961369693279266, 9.549931013380521e-26, 0.11305002123117447, 0.13393400609493256, 0.12108026444911957, 0.02968321554362774, -0.0018307968275621533, -0.00355039001442492, 0.15053875744342804, 0.18190808594226837, -0.17412824928760529, -5.070374981848153e-31, 0.14730729162693024, 0.1376371681690216, 0.19327031075954437, 0.13809077441692352, 5.77191800378048e-31, -0.00766377430409193, 0.06649445742368698, -0.20710253715515137, -1.0151126052331015e-31, -9.632216023587075e-29, -0.13705705106258392, 0.12133181095123291, 0.05284883826971054, 0.22836677730083466, -0.1420515477657318, -0.048508357256650925, 0.024788346141576767, -7.893434710427023e-29, 0.14275717735290527], [-1.2229432509357377e-26, -0.2259581983089447, -6.470731998027938e-33, 0.001033482258208096, -0.05666010454297066, 0.2530439794063568, 0.097222238779068, 0.05030559003353119, 0.05971311405301094, 0.04163409769535065, 0.09992847591638565, 0.18416303396224976, 0.037036482244729996, 0.24329790472984314, 5.420748421526563e-28, 7.801126139820826e-20, -0.1325617879629135, 0.023088933899998665, -0.02809862606227398, 0.2665117383003235, 0.10001243650913239, 0.037229008972644806, 0.05454031750559807, 9.572349515121378e-33, 0.25661951303482056, -3.111417833901436e-33, -0.09624701738357544, -0.22084611654281616, 0.20955070853233337, 9.36671983999849e-28, 0.046972546726465225, -1.182303734081902e-11, 0.20695389807224274, -0.06585429608821869, 8.540811987108488e-29, 0.1422281116247177, -0.10370121896266937, -0.038571469485759735, 0.03310582786798477, -0.004377651493996382, 0.001974276266992092, 0.1387198269367218, -0.23769700527191162, 0.07990992069244385, 2.925132251449472e-28, 0.17092983424663544, -0.05640187859535217, 0.22805149853229523, -0.05528227984905243, -6.5766891780200975e-31, -0.01971660740673542, 0.25755515694618225, -0.05781295523047447, -1.9958652754927974e-29, 1.2890257543727276e-28, 0.11941733211278915, 0.15664906799793243, 0.10326508432626724, -0.2759440839290619, -0.0026645739562809467, 0.017756739631295204, 0.22000694274902344, 7.087075038839978e-18, -0.20896194875240326], [-9.73830376808777e-30, -0.020482491701841354, 4.6810732933748896e-32, -0.025168638676404953, 0.123361736536026, -0.2758103311061859, 0.2242918312549591, -0.009289536625146866, 0.07426154613494873, -0.23738256096839905, 0.012494653463363647, -0.07662700116634369, 0.07267820835113525, -0.255759060382843, -2.3273319624698697e-29, -1.1416258907142452e-20, -0.020003225654363632, -0.3245928883552551, -0.00993227120488882, -0.17107780277729034, 0.2325258105993271, 0.25306808948516846, 0.03648983687162399, -3.7333738197935078e-31, -0.04922594130039215, -4.260772593674918e-18, 0.4423551559448242, -0.17862121760845184, -0.24139854311943054, 2.984214654902506e-12, -0.3081497848033905, 1.9993633661249122e-28, -0.22369059920310974, 0.19226345419883728, 1.6645305060085998e-19, 0.164234921336174, 0.3210100829601288, -0.0889420360326767, 0.15205493569374084, 1.4621130048908526e-06, 0.10886427760124207, 0.07430745661258698, 0.05067284777760506, -0.20010337233543396, -8.271950963165814e-28, -0.24608664214611053, 0.06692657619714737, 0.01970365084707737, 0.21188241243362427, 2.5406189446587223e-16, 0.0006096402066759765, -0.029606780037283897, -0.29184818267822266, -4.986998294007687e-18, 4.785064635389452e-31, 0.027814337983727455, -0.09455335140228271, 0.0819224938750267, -0.4012731611728668, 0.34844547510147095, 0.03697938844561577, -0.09812556952238083, 5.798110199634316e-29, 0.20912054181098938], [2.464267688001679e-29, 0.002940103178843856, 2.3468326238178077e-31, 0.19795379042625427, 0.26514729857444763, -0.2876322567462921, -0.060653846710920334, 0.14049240946769714, 0.07175742834806442, 0.10280551761388779, -0.02566319704055786, -0.008774860762059689, 0.18084034323692322, -0.02248390018939972, 4.7007614719326595e-31, -5.131811642300477e-12, 0.16222339868545532, -0.2408827245235443, -0.09337732195854187, 0.10758732259273529, 0.06913561373949051, 0.23962479829788208, -0.0296012070029974, 3.8138340571185917e-31, 0.0875697135925293, -3.900413014177417e-18, -0.2646484076976776, -0.06660042703151703, -0.24835897982120514, 4.803929875272691e-27, 0.15705564618110657, 5.08712208096929e-27, -0.15142852067947388, 0.11175647377967834, -3.388871144968641e-28, -0.1141529232263565, 0.12163969874382019, -0.02937430515885353, 0.16960354149341583, -0.002391824731603265, 0.2123054713010788, -0.0712050274014473, -0.03269658982753754, 0.07472996413707733, -1.4122871245210822e-27, -0.2561700940132141, -0.07925858348608017, -0.18896715342998505, -0.020600223913788795, -1.473875764137161e-27, -0.008351800963282585, -0.07282845675945282, 0.020477954298257828, -6.117519455492857e-31, -2.4666082571213978e-30, -0.1696138232946396, 0.15776462852954865, 0.21014852821826935, 0.14189699292182922, 0.2401806265115738, 0.2798674702644348, -0.04881688579916954, 1.0825279850401485e-24, 0.16069310903549194], [-1.7069197392733303e-27, 0.09921009093523026, -5.619237979628447e-32, -0.12396907061338425, -0.02192477509379387, 0.19741028547286987, 0.021742818877100945, 0.002592715434730053, -0.11845756322145462, -0.02888258546590805, 0.143733948469162, 0.12220976501703262, 0.11275026202201843, 0.02177472598850727, -9.978732987915692e-31, -3.879105164715478e-20, 0.11086994409561157, -0.002434407826513052, -0.04949603229761124, 0.11987683176994324, 0.19838692247867584, -0.18721480667591095, 0.15181145071983337, -7.26924954232118e-30, -0.014266066253185272, -2.244699218167945e-12, -0.07537849992513657, -0.14859598875045776, -0.16075965762138367, -2.67224954448278e-32, 0.23551461100578308, -4.643393878202906e-19, 0.13001184165477753, 0.18482287228107452, -4.341688948999407e-30, -0.11724470555782318, -0.189020037651062, -0.1308428943157196, -0.17552700638771057, -0.00799016933888197, 0.10262573510408401, 0.16473284363746643, 0.14522290229797363, 0.09666991978883743, -1.7893900590522409e-19, -0.13313192129135132, 0.016086459159851074, -0.034003905951976776, -0.02936982735991478, -6.827604442224304e-32, -0.025814499706029892, -0.018567781895399094, 0.1761469542980194, 2.4890363613853287e-25, -3.963445561413284e-29, 0.13878333568572998, 0.23788440227508545, -0.06901105493307114, -0.20572377741336823, -0.004147924482822418, 0.19702517986297607, 0.19304794073104858, -3.4474822047630342e-18, -0.013995134271681309], [1.957408742706776e-31, 0.13996613025665283, -3.811542785630436e-24, 0.12900790572166443, 0.19823776185512543, -0.04827304556965828, 0.2889810800552368, 0.014864057302474976, -0.0013601415557786822, -0.1261192262172699, 0.022842397913336754, -0.10196573287248611, 0.011552585288882256, -0.11229504644870758, -1.1157372850277955e-26, 8.906672415543554e-20, -0.0032443201635032892, -0.4447014629840851, -0.08672031760215759, -0.09072181582450867, 0.15219035744667053, 0.040594201534986496, -0.03241441771388054, -3.1740745014968708e-12, -0.2629994750022888, 4.536397548981289e-19, 0.4603528678417206, -0.0812339186668396, -0.3479191064834595, 1.009077774778554e-25, -0.13687030971050262, -2.4471669949136e-28, -0.1881263256072998, -0.27619469165802, -7.766350116560755e-31, 0.06866487115621567, 0.08151129633188248, 0.030349357053637505, 0.2057521790266037, 3.0580500265386945e-07, 0.09539252519607544, 0.12008202075958252, 0.16696469485759735, -0.09184441715478897, 3.453715099710283e-29, -0.32144734263420105, 0.006096945609897375, -0.15740205347537994, 0.2948628067970276, -1.592875719375536e-30, 0.00033753245952539146, -0.3449241816997528, -0.14526256918907166, 2.5944868879546634e-19, 1.153844754145679e-30, -0.05436000972986221, -0.06308861821889877, 0.02899068035185337, -0.22398057579994202, 0.2971302270889282, -0.007621924392879009, -0.1453239917755127, -1.0626774559964693e-31, -0.08372889459133148], [-3.5610549442308966e-25, -0.11258585005998611, 7.919091501517901e-32, 0.002012446988373995, 0.09891895949840546, 0.004877073690295219, -0.03145982325077057, -0.17926037311553955, 0.06706223636865616, -0.02422090247273445, 0.21501104533672333, 0.11692091077566147, 0.21084390580654144, -0.07463093101978302, 4.934253958537057e-30, -7.452294705101837e-21, 0.08498243987560272, -0.2271215319633484, 0.1123325303196907, 0.07838018983602524, 0.07226135581731796, -0.11301793903112411, 0.02670147269964218, 1.243793537995509e-24, 0.09218811243772507, 1.2074776359703676e-24, -0.4574103057384491, 0.14827889204025269, -0.07776342332363129, -6.197081027386737e-32, 0.1992512345314026, -1.1834916922000087e-15, 0.04009505361318588, -0.11524145305156708, 1.2288371559880261e-30, 0.1966615468263626, 0.04545179381966591, 0.17050059139728546, 0.10890825092792511, -0.0022116247564554214, -0.029023578390479088, 0.011576691642403603, 0.005535571835935116, -0.24248138070106506, 1.1775815585916076e-30, -0.055766761302948, 0.16392068564891815, 0.027170762419700623, 0.1373174488544464, -1.098840549801361e-11, -0.00516339810565114, 0.047373440116643906, -0.057869844138622284, -1.5243320494739976e-11, 2.161315191667739e-24, 0.09025659412145615, 0.0029197041876614094, -0.13961827754974365, 0.03184538707137108, 0.10558237880468369, 0.2023065686225891, 0.07697932422161102, 7.738300481405438e-25, 0.10699213296175003], [-7.923511388857168e-21, 0.09433428198099136, 9.593817832936674e-31, -0.19864347577095032, -0.03248217701911926, -0.11382942646741867, 0.23716671764850616, 0.06686239689588547, 0.13722878694534302, 0.06130393594503403, 0.0602116696536541, 0.09468165040016174, 0.17692860960960388, 0.008388866670429707, -9.062243300771664e-31, 1.2611774645412247e-19, 0.07856643199920654, 0.11122698336839676, -0.1174008697271347, -0.21219342947006226, -0.052451085299253464, -0.0711965560913086, -0.0796220526099205, -9.327337260286054e-32, 0.16258813440799713, 2.1133814734722566e-32, -0.027720293030142784, -0.19209077954292297, 0.07491008937358856, 7.974206670046036e-31, 0.15814565122127533, 5.335479779343399e-13, 0.14647895097732544, -0.1874382197856903, 3.9619309980679556e-29, -0.05920363590121269, 0.2228366732597351, 0.04959077388048172, -0.04217104986310005, -0.009960209019482136, -0.06850419193506241, 0.10914206504821777, -0.08064350485801697, 0.0351111926138401, -6.275921983627744e-28, -0.005682376213371754, 0.08966200798749924, 0.08716604858636856, 0.11498355120420456, -3.2096287015266418e-24, -0.007830493152141571, 0.10721676051616669, -0.06459856033325195, -8.156681244211751e-32, -6.486677514572214e-13, -0.10000618547201157, -0.17832089960575104, 0.23111863434314728, -0.2627028524875641, 0.051342982798814774, -0.10356392711400986, 0.06682157516479492, 6.976826420604975e-30, 0.1855083554983139], [-3.559083849120343e-20, -0.059245720505714417, 5.896044144604475e-18, 0.19419945776462555, 0.09515051543712616, 0.09809251874685287, -0.09905583411455154, 0.002995703835040331, -0.09733545035123825, -0.17881637811660767, 0.2160271257162094, -0.11622004210948944, 0.1032077744603157, 0.06866469979286194, 4.9127528854392254e-21, 2.0888485385839317e-11, -0.10960184782743454, -0.2767369747161865, -0.03388655558228493, -0.19735480844974518, -0.2024039775133133, -0.050933632999658585, 0.11043287068605423, -5.19455420506902e-32, -0.06113535165786743, -2.9138471821855325e-30, -0.07157783210277557, -0.2623094618320465, 0.08448321372270584, -1.0700415049264046e-30, 0.044365379959344864, -1.2654221420715928e-11, 0.08191147446632385, 0.14310351014137268, -1.801599376268701e-32, 0.06644178926944733, 0.20897601544857025, 0.032500702887773514, 0.026263901963829994, 1.3435428627417423e-05, 0.10213858634233475, -0.021461335942149162, 0.09286331385374069, -0.07464507967233658, 1.301160196357961e-27, 0.004224705509841442, 0.2121094912290573, 0.1542506217956543, -0.045075614005327225, -8.694875455263981e-32, -9.649858111515641e-05, 0.14139074087142944, 0.16876167058944702, 1.4213031970368609e-30, 2.0813507282882007e-24, 0.022896161302924156, -0.0259711854159832, -0.16501718759536743, -0.1668936014175415, 0.06953408569097519, 0.05284671112895012, -0.06643982976675034, 2.6562254423713374e-15, 0.054384298622608185], [-8.471788704731188e-34, 0.11114835739135742, -4.9576063857342217e-29, 0.05886827036738396, -0.04914860427379608, -0.18797670304775238, 0.07573459297418594, 0.023243026807904243, -0.15458770096302032, 0.10057948529720306, -0.002207268960773945, 0.09269127994775772, 0.16625714302062988, -0.16249796748161316, -3.1677746363534265e-12, 7.46784069229772e-21, 0.11060760170221329, 0.07133845239877701, 0.15268802642822266, 0.10291630029678345, 0.23979595303535461, 0.034383270889520645, 0.02455938793718815, -4.886415288119609e-31, -0.1920202076435089, -2.8409189954430034e-31, -0.2611846625804901, 0.24027593433856964, 0.05976484343409538, 8.094685672149384e-32, -0.017728406935930252, -6.019592783219549e-14, -0.18314522504806519, -0.13872100412845612, 4.662460763553529e-17, 0.06158019229769707, 0.18642206490039825, 0.1714324653148651, 0.10348250716924667, -0.001992017962038517, 0.19936273992061615, 0.19800730049610138, -0.11460306495428085, 0.09411042183637619, 8.849572862820896e-29, 0.11614542454481125, 0.2534405589103699, -0.1931198537349701, 0.17516440153121948, -1.5185286734826821e-33, -0.0035527723375707865, 0.012359286658465862, 0.1520654559135437, -1.3644505669717762e-16, 7.241280676093648e-30, -0.17495381832122803, 0.2120351791381836, 0.12955890595912933, 0.14007118344306946, 0.20837485790252686, -0.1385919749736786, -0.034137971699237823, 5.24184327705074e-16, -0.09250643849372864], [-7.409067903497251e-27, -0.02584478259086609, -8.197068880998094e-28, -0.15096695721149445, -0.08207477629184723, -0.13801072537899017, 0.23259833455085754, 0.057144809514284134, 0.16416040062904358, -0.05220754072070122, -0.10217496752738953, 0.1663447618484497, -0.08469589054584503, -0.07861126959323883, -3.4716902540673733e-26, 4.541148215260243e-20, -0.04323706403374672, -0.04088670760393143, 0.10341150313615799, -0.25857609510421753, -0.13221047818660736, 0.11798876523971558, -0.14701852202415466, 1.5355050122870439e-30, 0.16183926165103912, 9.22056370887656e-22, -0.17022249102592468, -0.02386648952960968, -0.06902066618204117, -2.590458647552565e-32, 0.1744859367609024, -9.409247469713278e-13, 0.08547652512788773, -0.019333595409989357, -1.860473388783459e-21, 0.05882694199681282, -0.0885733887553215, 0.01772184669971466, -0.17166796326637268, -0.007091342005878687, -0.08080378919839859, 0.12400533258914948, -0.2092622071504593, -0.007175114471465349, 1.3735725545502531e-31, 0.11520396173000336, -0.0029995401855558157, 0.0814361721277237, 0.10503075271844864, 1.2825880491890082e-20, -0.0018491995288059115, 0.05206476151943207, 0.16890697181224823, 8.637862994320678e-12, 1.701831569496825e-19, -0.052961718291044235, -0.07786159217357635, 0.022868765518069267, -0.042437341064214706, -0.0038251203950494528, 0.053923849016427994, 0.16756653785705566, 2.1195669658885858e-30, 0.21867303550243378], [-3.1334576917637815e-31, -0.09622246026992798, -1.5590406720171314e-32, 0.13504500687122345, -0.17518115043640137, -0.13011187314987183, 0.1413028985261917, -0.020078351721167564, 0.04066329449415207, 0.053621403872966766, -0.026109255850315094, 0.02962157502770424, -0.13433805108070374, 0.008388292044401169, -1.4056316944307943e-30, 1.0120238947301618e-20, -0.1817782074213028, -0.010368382558226585, -0.1008395180106163, -0.09082232415676117, -0.16072465479373932, -0.15500126779079437, 0.09529870003461838, 1.9445169739098955e-29, 0.2306862771511078, 7.557540205628543e-13, 0.19746661186218262, -0.13450518250465393, -0.043350864201784134, -1.3143273664683564e-24, -0.07025530934333801, -7.640072385503571e-13, 0.012814052402973175, 0.1392732858657837, -1.1060712429336302e-24, -0.1604911834001541, 0.0879162847995758, -0.08094026893377304, -0.15031848847866058, 5.245449210633524e-05, -0.13276106119155884, -0.13436061143875122, -0.23071107268333435, 0.1622416377067566, -3.1737432217329116e-25, 0.04286620020866394, 0.12702283263206482, -0.12153862416744232, -0.02942354418337345, 3.4766051814693817e-31, -4.688744593295269e-05, -0.033496465533971786, 0.18885374069213867, -1.643958000329196e-13, 4.924525228747279e-29, -0.03953934088349342, -0.12485291808843613, 0.1339927315711975, -0.08716093748807907, -0.04886583983898163, 0.051875412464141846, -0.11958905309438705, 3.423151809305005e-32, 0.027212219312787056], [-3.061904175134878e-31, 0.219130739569664, 2.3718586851898876e-26, 0.05033351480960846, 0.10760911554098129, -0.15584613382816315, -0.21339285373687744, -0.10958147048950195, -0.08870245516300201, 0.041935503482818604, 0.03171145170927048, 0.21628525853157043, 0.0030032081995159388, 0.008869057521224022, -2.409587659339251e-14, -3.8547588515278064e-13, 0.07280195504426956, -0.018502986058592796, 0.18083955347537994, -0.13946975767612457, -0.18833014369010925, -0.029471464455127716, -0.10756777226924896, -2.759431748313064e-14, 0.06821910291910172, 1.8284344278957447e-24, -0.16104668378829956, 0.0448501855134964, -0.0896347239613533, -8.113741611070564e-31, 0.19106878340244293, -1.5635203340513213e-29, 0.13480167090892792, -0.40664228796958923, -3.648712490091715e-26, -0.12361914664506912, 0.0717005655169487, 0.06481820344924927, 0.19252382218837738, -0.0021739432122558355, -0.1638951301574707, -0.20204241573810577, 0.13514137268066406, 0.03129803389310837, -8.881058317033954e-26, -0.14925162494182587, -0.06293194741010666, -0.16955676674842834, 0.17815767228603363, 2.4031148231374385e-30, -0.00346954632550478, -0.047375019639730453, 0.08310560882091522, 6.280296176782295e-30, -9.829963739429296e-30, 0.11639417707920074, 0.22609013319015503, 0.13644489645957947, 0.11366979032754898, -0.10133062303066254, -0.07934881001710892, 0.2392006367444992, -8.895662852170805e-12, 0.09112595021724701], [7.291727853111164e-29, -0.07345930486917496, 9.292250129078194e-12, 0.3157622814178467, -0.17086097598075867, -0.029794378206133842, -0.174136683344841, -0.05109316483139992, -0.046273402869701385, 0.2698472738265991, 0.043107129633426666, -0.009891468100249767, -0.1621742695569992, 0.34401121735572815, -3.4643327258367703e-16, -1.3590008363984808e-17, -0.25919780135154724, 0.1795184463262558, 0.02106582373380661, 0.3547157347202301, -0.16108137369155884, -0.17016196250915527, -0.2385144829750061, -1.7813603022834183e-32, 0.19294510781764984, 3.987521238499142e-27, -0.03600276634097099, 0.2035844624042511, 0.33232027292251587, -1.582656450948543e-23, 0.24875274300575256, -8.488360188352306e-12, -0.08792928606271744, -0.32281094789505005, -4.1584762114011494e-30, -0.19073911011219025, -0.1878567487001419, 0.3134100139141083, 0.04756683483719826, -0.0011966730235144496, -0.23864959180355072, -0.056520700454711914, -0.2610571086406708, 0.02704809606075287, 6.403089304370326e-24, 0.04431638494133949, -0.21282224357128143, 0.296538770198822, -0.28016412258148193, 7.9589666434559865e-28, -0.0009296541102230549, 0.057095035910606384, 0.1611403226852417, 3.927577824538056e-29, -5.479196400538714e-31, -0.023375868797302246, -0.005285751074552536, -0.32436639070510864, 0.1952534019947052, 0.046467605978250504, -0.1624445766210556, 0.23524799942970276, 2.892727592401823e-30, 0.07233075797557831], [-2.93467679448124e-23, -0.16022230684757233, -2.5007786553856768e-30, 0.39002594351768494, -0.23474113643169403, 0.11355407536029816, -0.4188583195209503, 0.028693240135908127, 0.12127566337585449, 0.028452033177018166, -0.16813696920871735, 0.11380050331354141, -0.3237755000591278, 0.41381749510765076, -2.950660999826429e-25, 5.211695786271184e-16, -0.1559532731771469, 0.283171147108078, -0.0031316576059907675, 0.26992541551589966, -0.1848212629556656, -0.35947439074516296, -0.34330615401268005, 2.379755634496768e-31, 0.1305720955133438, 3.9589840851655207e-16, 0.4037267863750458, 0.41476789116859436, 0.09320492297410965, 7.344258664762626e-13, 0.07626305520534515, 4.575584056013319e-25, -0.0630773976445198, -0.4137900173664093, 3.928576900696707e-29, -0.2268059253692627, -0.29122641682624817, 0.22857901453971863, -0.30009570717811584, 7.789887604303658e-05, -0.24579252302646637, -0.06442126631736755, -0.06333339214324951, 0.18482641875743866, -6.312231631147243e-31, 0.023136725649237633, 0.07415375113487244, 0.12372653186321259, -0.26655125617980957, 4.4861515173270366e-17, 0.00014117789396550506, 0.1443749964237213, 0.3337208926677704, 8.204555856619702e-26, 3.995537271891298e-31, 0.06067340821027756, 0.22093425691127777, -0.23590143024921417, 0.16030269861221313, -0.2683809697628021, -0.021022645756602287, 0.02364463172852993, -5.338003751178969e-16, -0.11281375586986542], [9.0340966762884e-32, -0.19261716306209564, -7.730215420216478e-32, 0.043720562011003494, -0.11732684075832367, 0.04976198449730873, 0.19510197639465332, 0.010347667150199413, 0.06259419023990631, -0.15262441337108612, -0.05612727254629135, -0.12439661473035812, 0.04999862611293793, 0.19659550487995148, 2.9450525134992974e-30, 2.8978373554108903e-16, 0.00380638032220304, 0.010219046846032143, -0.006929674651473761, 0.14660394191741943, 0.1506972461938858, 0.04348905384540558, -0.04499990493059158, -9.409332364094894e-29, -0.20710723102092743, 7.879793314776691e-31, -0.0972333624958992, 0.21424487233161926, 0.11286123096942902, 5.569956312246271e-16, 0.023548942059278488, -5.927863717847084e-23, -0.10744013637304306, -0.19902116060256958, -1.199461943613908e-13, -0.039628319442272186, -0.1422855108976364, 0.20091499388217926, 0.03670678660273552, -0.002858256222680211, 0.030634813010692596, 0.10779743641614914, 0.19823679327964783, -0.09848778694868088, -1.979248947642416e-19, 0.10765603929758072, 0.10379887372255325, 0.0852520763874054, 0.03929464891552925, 3.7661842181136594e-31, -0.002848836127668619, 0.06465626507997513, 0.11334750801324844, -2.6278731045965825e-31, 8.350536608616591e-28, 0.10646160691976547, -0.10025421530008316, 0.12163849920034409, 0.02421300858259201, 0.14240629971027374, -0.01398738194257021, -0.009642594493925571, -4.1403172293859664e-17, -0.10971468687057495], [-7.472891219626659e-22, -0.1779225617647171, 2.1177380024731979e-32, 0.49529385566711426, -0.18529392778873444, 0.13633057475090027, -0.42745471000671387, -0.03331878036260605, -0.1772458851337433, 0.39687925577163696, 0.0003640415088739246, 0.11267448216676712, -0.04691414535045624, 0.15597385168075562, 7.952251256759117e-30, 6.817209018355778e-20, -0.012336754240095615, 0.14018405973911285, 0.3522222638130188, 0.16648119688034058, 0.02386094629764557, -0.43719667196273804, -0.13924235105514526, 5.0590534666169656e-30, 0.2540760934352875, 1.9487663080940712e-19, 0.08380430936813354, 0.16123628616333008, 0.2736448645591736, 1.0301874460832353e-25, 0.09433767944574356, 6.479470811111047e-30, 0.10958977788686752, -0.46227726340293884, -6.434251834481453e-23, -0.2544483244419098, -0.10270918905735016, 0.36870497465133667, -0.35386595129966736, -0.000797784945461899, -0.3926825523376465, -0.39561453461647034, -0.14902858436107635, 0.25881558656692505, -1.5628139801640293e-22, 0.03539981320500374, -0.4922865629196167, 0.3546411097049713, 0.038918741047382355, -1.6035863911033643e-20, 0.0007925014360807836, 0.35335594415664673, 0.4059845209121704, 1.21452428975264e-31, -2.2169618639250772e-14, -0.09038694947957993, 0.20033423602581024, -0.28848907351493835, 0.18972958624362946, -0.14263874292373657, -0.3687029480934143, 0.30238664150238037, -3.025052446044509e-29, -0.4278697371482849], [-3.6247626086560615e-32, -0.3075360655784607, 1.2858918574040756e-12, 0.4417785704135895, -0.38259586691856384, 0.39172178506851196, -0.42261970043182373, 0.03716621547937393, -0.020805250853300095, 0.31618598103523254, -0.4788048267364502, 0.1851736605167389, -0.10056143254041672, 0.47157400846481323, 9.517902644330965e-26, -9.794732874945631e-21, -0.16101394593715668, 0.491855263710022, 0.11532504856586456, 0.33063805103302, -0.3445475995540619, -0.13884411752223969, -0.4660985767841339, -2.84502266385602e-25, 0.40080907940864563, -1.9070816364356695e-14, 0.3715783357620239, 0.35176682472229004, 0.22882243990898132, 4.117545121947325e-31, 0.18722517788410187, 4.58022425376363e-16, 0.17623867094516754, -0.2705087661743164, -9.045832563058366e-27, -0.46240994334220886, -0.45130449533462524, 0.16782285273075104, -0.3444520831108093, 0.00013174652121961117, -0.20446425676345825, -0.47081178426742554, -0.4870556592941284, 0.24723254144191742, -5.005292110230696e-29, 0.0212942436337471, -0.029407218098640442, 0.18299178779125214, -0.07745762169361115, 2.3847391653186867e-18, 0.0002848570002242923, 0.14796026051044464, 0.25422030687332153, 1.1281963569496298e-26, 9.00777183295004e-31, 0.06972050666809082, 0.2491285502910614, -0.16673323512077332, 0.313814252614975, -0.41256290674209595, -0.1852061003446579, 0.20288237929344177, 7.245571888750986e-30, -0.4524390697479248]], "b": [-0.18204540014266968, 0.3009359836578369, -0.1494540572166443, 0.3156502842903137, 0.32238343358039856, 0.04242607578635216, 0.1671815663576126, 0.020774390548467636, 0.13356786966323853, -0.16698352992534637, 0.06605074554681778, 0.03625703230500221, 0.03317389637231827, -0.12753906846046448, -0.07377765327692032, -1.3467944881995209e-05, 0.29182854294776917, -0.24410340189933777, 0.13995593786239624, -0.02767758071422577, 0.23345761001110077, 0.1113104596734047, 0.21884053945541382, -0.2103145271539688, 0.0457545630633831, -0.19990813732147217, 0.38504815101623535, 0.15081633627414703, -0.14118263125419617, -0.1259286105632782, 0.1127203181385994, -0.11534487456083298, 0.13467298448085785, -0.13933449983596802, -0.16260255873203278, 0.3061313331127167, 0.1567944586277008, 0.09372864663600922, 0.015869932249188423, 0.03734928369522095, 0.15449519455432892, 0.1363793909549713, 0.17382216453552246, -0.030052555724978447, -0.030837589874863625, -0.16496777534484863, 0.026288846507668495, -0.18115882575511932, 0.13922829926013947, -0.11592399328947067, 0.0362478531897068, 0.08561663329601288, -0.17628388106822968, -0.19129887223243713, -0.16042092442512512, 0.029848646372556686, 0.13046525418758392, -0.10981260985136032, 0.07712402194738388, 0.014898930676281452, 0.10450461506843567, 0.1391938328742981, -0.07304435968399048, 0.019327489659190178]}, {"w": [[-3.0352089730456555e-09, -3.3191548468036736e-12, 1.0068847414620395e-25, -1.004266558801703e-09, 3.682050796041126e-30, -1.9145587997845565e-31, 2.064006567120134e-31, 5.588354023990975e-20, -8.63207001085209e-28, -1.0361804779673524e-29, 5.624754551014632e-10, -1.3000681087227406e-10, 2.0437907212434402e-14, 1.5261764948304296e-32, -8.05835584374287e-32, 4.728516943323848e-34, -1.6218039064486156e-11, -9.694662607417914e-13, 2.1682341247244936e-31, -4.7817364817438555e-30, 2.8283328370320993e-12, 1.342671511704142e-31, 1.8492970898021395e-18, 3.2973503762323764e-27, 7.278285223211206e-28, 9.672204968424648e-32, -3.5305278664619403e-28, 1.7670138627041282e-13, 1.7996879578562565e-22, 6.055319949266554e-29, 5.879308609795897e-29, 8.966421355394161e-11], [-0.0018032287480309606, -0.28462472558021545, -0.0006204382516443729, 1.8557181289358997e-23, 0.2005140632390976, -0.03612179309129715, 0.0030629546381533146, 0.0339544452726841, 0.050364814698696136, -6.477776895539648e-29, 1.3693139218943427e-29, -0.03418472781777382, -0.12726177275180817, -0.19171682000160217, -0.07007584720849991, 0.2779204547405243, 0.3138025104999542, 1.5721553274733657e-30, -0.05763976275920868, -5.433560659184877e-07, 0.04242422804236412, 0.267084002494812, -0.17229506373405457, -0.32655102014541626, -7.042758916969716e-28, -0.11991874128580093, -0.01397689525038004, 0.0328192338347435, -0.03990516811609268, 0.28147271275520325, 0.1471053808927536, 0.05215579643845558], [-5.223235679481908e-32, -2.0208017117301358e-12, -1.1024057561206452e-31, 1.7736413598540262e-30, -6.487026700719036e-31, -1.375903912496239e-30, 1.2748201276511434e-24, -4.187188248037932e-13, 1.271752449813383e-28, -3.119443722429671e-13, 1.4678460525834125e-20, 3.271789950076709e-09, 2.167329699370971e-31, 5.631009380057581e-32, -5.518239127464883e-16, 5.884492892960225e-09, -1.0100934794539605e-31, 7.397342124329613e-21, 5.784948274023752e-29, 3.3588918787130664e-28, 8.422442414319668e-31, -6.121638143195313e-29, -1.0909459058930663e-28, 1.4450808485008872e-28, 2.090534356198655e-16, 2.5449035159709112e-30, 4.601428664806958e-16, 1.6985903948831212e-31, -1.6676717666415218e-28, 6.142735742771103e-28, -8.625851337136059e-26, -5.198392075043371e-16], [-0.8666919469833374, 0.7213859558105469, -1.2177036162189204e-22, -9.384133020453952e-21, -0.8756239414215088, 0.5850991606712341, 0.6334003210067749, -1.0686794519424438, 0.7628753781318665, 1.5159824510429043e-21, 5.774835582736957e-16, 0.8765767812728882, 0.517697811126709, 4.3191424031133474e-32, -2.4529455799893185e-07, -0.6792076230049133, -0.7646757364273071, -6.581291067675465e-11, -0.7936919331550598, -4.736740814943532e-30, 0.6811955571174622, -0.7187760472297668, 0.6748966574668884, 0.7462647557258606, -3.0357133473657427e-10, 0.6857978105545044, -0.6034982800483704, -1.1119129657745361, 0.6403027772903442, -0.6135377287864685, 0.8087327480316162, -1.1288102865219116], [0.3198799788951874, -0.11826726049184799, -4.670782800531015e-07, 1.606416097743336e-30, 0.2781106233596802, -0.33434462547302246, -0.11934585869312286, 0.16164951026439667, -0.22610199451446533, 1.1727848510043049e-12, -1.7491457171558977e-09, -0.2615954875946045, -0.37277722358703613, 4.207722931728722e-24, -1.488945144956233e-05, 0.19810065627098083, 0.28587082028388977, -3.0389164427090676e-31, 0.3365496098995209, -4.385162455378122e-09, -0.2181367576122284, 0.4086909890174866, -0.2810606062412262, -0.3679065704345703, -7.966921778905685e-32, -0.03451255336403847, 0.19636321067810059, 0.17692740261554718, -0.2312098741531372, 0.22447243332862854, -0.3337852656841278, 0.19058974087238312], [-0.1651948094367981, 0.2932453155517578, -6.1519907224028e-11, -7.501411557399544e-31, -0.5354664921760559, 0.4609410762786865, 0.25786855816841125, -0.3207065165042877, 0.4055671989917755, 2.658223193240463e-31, 9.518508517817345e-30, 0.19293534755706787, 0.47470563650131226, 0.17995931208133698, -6.057949121895945e-06, -0.12059184908866882, -0.42536795139312744, 3.1109593176362183e-32, -0.258052796125412, 4.279541822801377e-29, 0.2756856083869934, -0.4197693467140198, 0.20842577517032623, 0.25947636365890503, 4.910825893885275e-20, 0.4652935266494751, -0.4126163125038147, -0.33821454644203186, 0.36236515641212463, -0.23294535279273987, 0.5111306309700012, -0.36106011271476746], [0.22852185368537903, -0.06460099667310715, -2.463600026203494e-07, -4.571193683994279e-12, 0.3175463080406189, -0.03788479045033455, -0.26914551854133606, 0.1562991440296173, -0.4198192358016968, -5.855703373310876e-18, -1.9666174479016828e-31, -0.18886245787143707, -0.42504072189331055, 0.173858642578125, 0.000476471905130893, 0.301471084356308, 0.39923080801963806, -4.038156094232637e-12, 0.28398147225379944, -1.494481274844084e-11, -0.07679270952939987, 0.419322669506073, -0.272823691368103, -0.018783673644065857, 5.879408682218196e-16, -0.08013062179088593, 0.4744158089160919, 0.18074575066566467, -0.1469874531030655, 0.016321513801813126, -0.282563179731369, 0.20121419429779053], [4.3390991777414456e-05, 0.13613849878311157, -6.059117642375643e-29, 6.9166957468203e-32, 0.04580274596810341, 0.1413513571023941, -0.13808108866214752, 7.560386438854039e-05, -0.048387203365564346, 1.1701388225848194e-20, -9.241174244713719e-28, -0.017723679542541504, -0.03241089731454849, 0.042816370725631714, 2.0326479043232477e-31, -0.09456279873847961, 0.04345560818910599, 2.6288473893402997e-13, 3.5014560126001015e-05, -3.938117884455863e-24, -0.027743833139538765, -0.0003092107945121825, -4.776713467435911e-05, 0.11089302599430084, -6.107862064104241e-31, -0.003975258208811283, 0.12459323555231094, 4.140241435379721e-05, -7.300373545149341e-05, 0.0633680447936058, 0.08059185743331909, 5.097870962345041e-05], [-1.355244512524223e-05, 0.18759793043136597, 1.6349230347550143e-31, 1.1074886172034878e-30, -0.08021094650030136, 0.03680717572569847, 0.019093824550509453, -1.3340886857116005e-20, -0.15519683063030243, 6.338460671696011e-31, 1.025166851785521e-24, 0.0010275642853230238, -0.13875213265419006, 0.06339769810438156, -1.184146458399482e-05, -0.005679381545633078, -0.13448001444339752, -1.4070652412256708e-20, -1.0268770438415231e-06, 1.0611910668997415e-30, -0.21417297422885895, -0.016697125509381294, 4.176799441183575e-32, -0.02638997882604599, -1.8293620490321562e-30, 0.0864764079451561, -0.14370226860046387, -1.9645656518996812e-32, -0.00028095170273445547, -0.1801290512084961, 0.01395518146455288, -3.1697553116250826e-31], [-0.006720343139022589, 0.2382430136203766, -2.826442937475804e-07, -1.5418456789095814e-10, -0.35927340388298035, -0.07145339250564575, 0.04614884406328201, -0.055354177951812744, 0.2873687744140625, -2.0840085213080783e-10, 9.009368945323004e-11, 0.3762270510196686, 0.06639411300420761, -0.11555039137601852, -0.0005063020507805049, -0.34080615639686584, -0.34221765398979187, -1.0087508445001307e-32, -0.3219757378101349, -8.68367738826592e-11, 0.4400063753128052, -0.09264344722032547, 0.4322970509529114, -0.012951950542628765, -1.6182902833985063e-30, 0.21992556750774384, -0.36502155661582947, -0.0808943510055542, 0.2659427225589752, -0.07949284464120865, 0.1463327556848526, -0.0748961940407753], [0.07031834125518799, -0.2838086485862732, -3.5644538911583368e-06, 1.2175218929586163e-20, -0.07846516370773315, 0.1288290023803711, 0.011121049523353577, 0.0473250187933445, -0.13028648495674133, 3.0527327331108924e-31, -4.355129973516386e-25, -0.26531046628952026, -0.18080011010169983, 0.11751128733158112, 0.01478920690715313, 0.12842915952205658, 0.1035032868385315, 5.756715850541161e-12, -0.06896411627531052, -3.478032259531302e-18, -0.16943424940109253, 0.26366549730300903, 0.2266555279493332, -0.18248115479946136, -5.739538661033686e-16, 0.11456052213907242, -0.02454148232936859, 0.04628496617078781, -0.07782738655805588, 0.3309386968612671, -0.239056795835495, 0.05610941722989082], [-0.06654326617717743, 0.15477339923381805, -0.002686388324946165, 2.6358695224674862e-31, 0.19776475429534912, 0.11803770810365677, 0.22959832847118378, 0.00299366214312613, 0.13911454379558563, 2.942430331361379e-17, 3.5751988297491204e-31, 0.058356381952762604, -0.0031526649836450815, -0.005312689580023289, 0.11710316687822342, -0.1435495764017105, 0.1272432804107666, -2.279963217078061e-31, -0.12476636469364166, -0.0010485092643648386, 0.2430901974439621, 0.237544983625412, 0.27316582202911377, 0.247421532869339, -1.872069669333757e-22, -0.02220134437084198, 0.12592628598213196, 0.008518418297171593, 0.02335335686802864, -0.03332996740937233, 0.06770792603492737, 0.008814524859189987], [-0.08276766538619995, -0.04755490645766258, -0.00031811936059966683, 1.7575427296206448e-31, -0.02713351882994175, 0.02515544183552265, -0.2659190595149994, 0.03652125597000122, 0.09673872590065002, -9.900572957936297e-32, 7.924425802497481e-26, 0.04534250125288963, -0.0018890146166086197, 0.12839375436306, 0.030596615746617317, 0.16039501130580902, 0.0922335535287857, 2.1024093610724662e-16, 0.008158345706760883, -3.945632087720696e-08, -0.01354096457362175, 0.12464442849159241, -0.07585810869932175, -0.3133240342140198, -1.2553896161750075e-32, -0.1390542834997177, 0.21557064354419708, 0.02298036217689514, -0.009430695325136185, 0.31745049357414246, -0.2256641834974289, 0.04749813303351402], [-0.47654739022254944, 0.3199523091316223, -2.8031106949488738e-11, 6.7885508758575e-31, -0.31054094433784485, 0.4321626126766205, 0.10571233928203583, -0.2522297203540802, 0.4512048661708832, 