{"classes": ["not_pinky", "pinky_swear"], "layers": [{"w": [[-1.2490524029682387e-17, 0.23078210651874542, 1.7910317673397458e-10, 0.18923084437847137, 0.08512772619724274, -0.15707805752754211, -0.1959001123905182, 0.14281339943408966, -0.2497238963842392, 0.08923810720443726, -0.16924811899662018, 0.24419423937797546, 0.18384739756584167, -0.0941399335861206, -1.9909977311272087e-07, 0.006736706010997295, -0.0865616723895073, 0.00022629840532317758, -0.052480507642030716, -0.10204681754112244, 0.10011547058820724, -0.35890132188796997, -0.039093416184186935, 2.1154666055649627e-17, -0.04394598677754402, 2.4641641616085508e-08, 0.019822312518954277, 0.037919845432043076, 0.02983499877154827, -3.674192703329027e-05, 0.085432268679142, -0.3200816512107849, -0.44758784770965576, 0.17662981152534485, 5.0198119424749166e-05, 0.1834932118654251, -0.11727619916200638, -0.20909728109836578, 0.1177147701382637, -0.003488039132207632, -0.18796448409557343, 0.03757445514202118, -0.240943044424057, 0.24099531769752502, -5.196715280320063e-10, 0.057429809123277664, -0.1810724437236786, 0.00150335393846035, 0.03961516544222832, -1.6768446187143127e-07, 0.1818609982728958, 0.17381584644317627, 0.19788646697998047, 6.061632575438125e-06, 0.03417987376451492, 0.1664702445268631, -0.12413761764764786, -0.14473196864128113, -0.20885010063648224, -0.03316586837172508, 0.0011490064207464457, -0.09071459621191025, 3.5273325238449615e-07, -0.2878662943840027], [-3.1123523897003125e-11, 0.03122873604297638, -1.4933380043657962e-06, 0.0347132608294487, -0.22360441088676453, 0.27024903893470764, 0.09646464139223099, -0.1468292474746704, -0.20730172097682953, 0.1643243432044983, 0.05385119095444679, 0.1794224977493286, 0.08834468573331833, -0.18135122954845428, 1.1359802377599757e-16, -0.016607582569122314, 0.20146797597408295, 0.04318332299590111, -0.010764561593532562, -0.20307593047618866, -0.10985966771841049, -0.08411341905593872, 0.0955120325088501, -6.741952787970193e-17, 0.24998168647289276, 5.163407392243224e-22, -0.11817827075719833, 0.16916142404079437, 0.17039817571640015, 3.611433799799223e-21, 0.19181902706623077, 0.061490729451179504, -0.027730943635106087, -0.05026404187083244, -6.257837958401069e-05, -0.19730637967586517, -0.19050611555576324, 0.1017252579331398, -0.10597895085811615, -0.0053168609738349915, 0.2304276078939438, -0.1273064762353897, -0.05647893622517586, 0.13909009099006653, -8.532369477620705e-09, -0.19891703128814697, -0.031277935951948166, -0.15292230248451233, 0.18754324316978455, 1.1101509045374769e-07, 0.04802994430065155, 0.24994322657585144, 0.1733195036649704, -1.519014034556676e-07, 0.14343026280403137, 0.0021545575000345707, 0.13282246887683868, 0.14955636858940125, -0.0293535515666008, -0.19071327149868011, -0.0926206037402153, -0.02932966873049736, 1.9731633926767245e-07, 0.1303841769695282], [-9.605826198821887e-05, 3.091266626142897e-05, 8.287034003619495e-20, -0.0005461223772726953, -0.0028491956181824207, -2.959826815640554e-05, 0.00011268630623817444, 2.5218727185195335e-14, 0.0009795192163437605, -8.184660691767931e-05, 5.361028161132708e-05, 5.955546839686576e-06, 7.225679291877896e-05, -6.443194433813915e-05, -1.0570497893968181e-23, -5.406632715317106e-13, -5.281485937302932e-05, -4.803289266419597e-05, -7.934605673654005e-05, 7.132420432753861e-05, -5.3387066145660356e-05, 0.0005215748096816242, -2.5151268346235156e-05, -3.433248130235711e-09, -0.0011447028955444694, 1.2995904074067375e-22, 8.090463961707428e-05, -0.0002858576481230557, -6.49332141620107e-05, 3.8111256372985736e-09, -2.6259220248903148e-05, 0.0008538259426131845, 0.0004668758192565292, -7.368740790762247e-18, -2.0126571544113595e-17, 6.229850259842351e-05, -6.864525403216248e-06, -2.3877810235717334e-05, 6.155605660751462e-05, -1.523530954727903e-07, -0.00040598606574349105, 7.600498793181032e-05, 0.000331386283505708, -0.0004294411337468773, -1.1495307616607e-22, -1.1220695483871168e-08, -8.863061520969495e-05, -2.999346691012761e-07, 2.0687752112280577e-05, 1.0378546223786989e-18, 2.3091653929441236e-05, -5.70216761843767e-05, -6.733876216458157e-05, -4.485956651478773e-06, 1.6169589798664674e-05, 3.0872611205268186e-06, 2.3197966584120877e-05, 8.938809332903475e-05, -4.834544233744964e-05, 4.939317295793444e-05, 2.255913204862736e-05, -2.921692248492036e-05, -9.177717402053531e-06, 0.0005405339179560542], [7.369600552920019e-06, 0.12498922646045685, -1.8043938417126046e-15, 0.13772884011268616, 0.3258001208305359, 0.11540256440639496, 0.22077852487564087, 0.10549184679985046, -0.164467915892601, -0.22739210724830627, -0.07809887826442719, 0.1919739842414856, 0.1107112467288971, -0.2202732115983963, -6.903132998559158e-06, 0.0012991345720365644, -0.25513753294944763, -0.15764644742012024, -0.034229815006256104, 0.11502246558666229, 0.14451977610588074, -0.20563200116157532, 0.17134273052215576, -4.207362014341243e-09, -0.09540975838899612, 9.073083395705339e-10, 0.04332766681909561, 0.12220251560211182, 0.02944852225482464, 2.5759911617697204e-20, -0.15010905265808105, -0.12532684206962585, -0.25693508982658386, -0.1284956932067871, 6.0241778555791825e-05, 0.029040073975920677, 0.10035447776317596, -0.009448676370084286, 0.19675272703170776, -0.003852754132822156, -0.07548367232084274, 0.06729968637228012, -0.10825513303279877, 0.1038149818778038, -3.189054575969408e-11, -0.21965323388576508, -0.0722922533750534, -0.14644022285938263, 0.239709734916687, 3.7113273720024154e-05, 0.1577722132205963, -0.0313711017370224, -0.24352748692035675, 1.8045306205749512e-05, -0.03378138691186905, 0.18622854351997375, 0.2979816198348999, 0.1921895295381546, -0.12624520063400269, 0.021269535645842552, 0.24119746685028076, -0.12824006378650665, -3.8671345237162313e-07, -0.1598576307296753], [2.2712329155183397e-05, 0.07308172434568405, 2.1563430499759627e-20, -0.16700789332389832, -0.031861815601587296, 0.2933165729045868, -0.20136579871177673, -0.008427301421761513, 0.1756630837917328, 0.16015024483203888, 0.022393440827727318, 0.19102808833122253, -0.11606112867593765, -0.06555230170488358, 1.1958181289628556e-07, 0.0016907932003960013, 0.22728706896305084, 0.16924025118350983, 0.08796145766973495, -0.04128260910511017, 0.07664366066455841, 0.06622473150491714, 0.05754189193248749, 5.108525158448174e-08, 0.23515790700912476, -1.9231057210285316e-15, -0.055531661957502365, -0.08435475826263428, 0.11238674819469452, -4.8244364734273404e-05, 0.07015293091535568, 0.09991291910409927, -0.15066905319690704, 0.020406251773238182, -5.5275690101552755e-05, -0.25887739658355713, 0.18169918656349182, 0.010294576175510883, -0.21202349662780762, -0.0027654243167489767, 0.13277649879455566, -0.16890370845794678, 0.006093734875321388, -0.1081000566482544, -3.192406802554615e-05, -0.0011680094758048654, 0.03589008003473282, 0.0524321012198925, 0.07649025321006775, 6.45236432319507e-05, 0.0009886248735710979, 0.03023058921098709, 0.1915217638015747, -1.25797094963076e-10, -0.025528043508529663, -0.19789858162403107, -0.23384076356887817, 0.15366524457931519, 0.2196921855211258, 0.03646117448806763, -0.04197981208562851, -0.11845453828573227, -7.386538527498487e-07, -0.11538030207157135], [-1.3344258991361222e-21, 0.04872637614607811, 1.687101907253631e-15, 0.24549883604049683, 0.6403065919876099, -0.04859055206179619, -0.08987283706665039, 0.046937111765146255, 0.21107174456119537, -0.0369209386408329, -0.0744326189160347, 0.1463458091020584, -0.21119001507759094, -0.040073856711387634, -3.7180871004238725e-05, -7.045846723485738e-05, 0.18789739906787872, 0.06750033795833588, -0.0042792269960045815, -0.228483185172081, -0.001915369532071054, -0.1323254257440567, -0.16830170154571533, -2.3182748024344417e-20, 0.1341148316860199, 9.096694413810767e-19, 0.03218025714159012, -0.1611929088830948, -0.032491534948349, 1.2484595626232219e-17, -0.034494124352931976, 0.13897767663002014, 0.5134585499763489, -0.11407671123743057, -1.865449667093344e-05, 0.038316380232572556, -0.13778474926948547, 0.07846462726593018, 0.1735645830631256, 0.0009605232626199722, 0.09855979681015015, 0.03892027959227562, -0.13947094976902008, 0.09834767132997513, 2.6415282263769768e-05, -0.05341464653611183, 0.48630115389823914, 0.1321275234222412, -0.16469921171665192, -1.9334825992700644e-05, -0.008622966706752777, -0.14611369371414185, -0.10899221152067184, -5.966130774094289e-14, -0.0005803264211863279, -0.05603982135653496, 0.08119877427816391, -0.28896674513816833, 0.1488635092973709, -0.11316797137260437, -0.21569514274597168, 0.21587274968624115, 7.958206238879785e-18, 0.37231940031051636], [2.591294956388879e-10, 0.19984765350818634, -2.6323202298450532e-11, 0.04776449501514435, 0.291494220495224, 0.06186709553003311, 0.2831593155860901, -0.05352947488427162, -0.18002371490001678, 0.07253997772932053, -0.005061909090727568, 0.20672672986984253, 0.21402639150619507, -0.038338322192430496, 1.407084559978955e-09, -0.0022938065230846405, -0.20899178087711334, 0.16426536440849304, -0.045383043587207794, 0.17896518111228943, -0.00456859590485692, 0.15497738122940063, 0.02038578689098358, -8.802293450571597e-05, 0.12351035326719284, -9.74708927969914e-06, 0.00413208082318306, 0.15421628952026367, 0.1684104949235916, -5.907983640485497e-21, 0.086360864341259, -0.031969111412763596, -0.12235058844089508, -0.0916481539607048, -6.26832375407089e-15, 0.17719736695289612, 0.05923742055892944, 0.06810873746871948, -0.1106884554028511, -0.006998070981353521, -0.36360403895378113, 0.08863231539726257, 0.019407372921705246, 0.15516777336597443, -3.8618584566985653e-17, -0.17984631657600403, -0.3074565529823303, 0.10580658912658691, 0.09822043776512146, -6.987321285123471e-06, -0.16761136054992676, 0.11546363681554794, -0.21859072148799896, 2.441881576942251e-07, 0.075803242623806, -0.19736476242542267, -0.08560726791620255, 0.2617799937725067, -0.08459542691707611, 0.009177871979773045, 0.22648246586322784, 0.13223345577716827, 8.189574145944789e-05, -0.0048416173085570335], [-1.1498984283776297e-17, -0.22799529135227203, 1.3604050330684458e-08, -0.08883993327617645, -0.08932469040155411, 0.2729620933532715, -0.2500591278076172, -0.019758639857172966, -0.16232135891914368, 0.08143296092748642, -0.2884257137775421, -0.03401249647140503, -0.25175943970680237, 0.12448973208665848, 8.665869133395177e-10, -0.002137081464752555, 0.30171966552734375, -0.06412004679441452, 0.01784856803715229, 0.07902039587497711, -0.2036685049533844, 0.22561819851398468, -0.27843138575553894, 5.579510616371408e-05, -0.1902000904083252, 5.312277608027216e-06, -0.04785475134849548, 0.3313799798488617, -0.07650042325258255, -7.716692001911902e-21, 0.303092896938324, 0.12336857616901398, 0.02517145685851574, 0.0660044327378273, -2.5453938801583546e-21, -0.039380259811878204, 0.12433575093746185, 0.2821768522262573, -0.28209492564201355, -0.061784110963344574, 0.15912413597106934, 0.08974584192037582, -0.11256447434425354, 0.1716422438621521, -5.2260432092943176e-11, -0.1495210826396942, -0.032023776322603226, -0.0699453130364418, -0.018904909491539, -1.5015751159808133e-05, 0.17361630499362946, 0.34643033146858215, 0.18355970084667206, -2.487479625247118e-22, -0.05270211026072502, 0.12122349441051483, 0.010149491019546986, -0.233059823513031, 0.2831859290599823, 0.05782992020249367, 0.15444636344909668, 0.15770229697227478, -9.584365981771764e-19, 0.008667096495628357], [2.056129596894607e-05, 0.10502605885267258, -3.795948941842653e-05, 0.2027495801448822, 0.37591591477394104, 0.005036953836679459, 0.08629138767719269, -0.12177498638629913, 0.2778938114643097, 0.025361312553286552, 0.17759884893894196, 0.18601740896701813, 0.13207845389842987, 0.1227145791053772, 3.142295972788429e-20, 0.000777241017203778, -0.14499561488628387, 0.13785216212272644, 0.1569974571466446, 0.1432504653930664, 0.2009848803281784, -0.08490414172410965, 0.06749740242958069, 2.8960430427105166e-05, 0.20920328795909882, -1.6722646600797475e-09, 0.06016046926379204, -0.12217267602682114, 0.23067738115787506, -1.382664240335969e-18, -0.14524245262145996, 0.07544205337762833, 0.3945946991443634, -0.03896847739815712, -4.472015007195296e-06, 0.03538299351930618, 0.08386153727769852, 0.17043299973011017, -0.022520123049616814, 0.032037705183029175, 0.09049556404352188, -0.010504301637411118, 0.03401565924286842, 0.042481254786252975, -2.0021730051666964e-06, -0.17656004428863525, 0.3107077181339264, 0.030815741047263145, 0.03609020635485649, -2.812323707246378e-08, -0.02914540283381939, -0.1484663039445877, 0.008664165623486042, 1.8452672726529343e-19, -0.0010267333127558231, -0.010543618351221085, 0.09436465054750443, -0.1429983675479889, 0.028383541852235794, 0.08957396447658539, -0.11385989189147949, 0.17863380908966064, 1.7194892052430077e-06, 0.341072678565979], [-1.138629841079819e-06, 0.2600530982017517, 8.510102072335819e-23, 0.0246301107108593, 0.12476853281259537, 0.11130945384502411, 0.08628469705581665, -0.08957570791244507, 0.010066532529890537, -0.17242641746997833, -0.11533740907907486, -0.1527438759803772, -0.10117890685796738, -0.17534135282039642, -1.6343927882189746e-06, -0.00601116381585598, -0.1844819337129593, -0.07735250890254974, 0.12182823568582535, 0.04076546058058739, 0.15034472942352295, -0.13634903728961945, -0.06248945742845535, -4.253004226484336e-05, -0.20841844379901886, -4.397119474086608e-11, -0.037642545998096466, -0.239282488822937, -0.1962737888097763, -1.4458984831230336e-21, -0.10408369451761246, -0.04984569922089577, 0.027048790827393532, 0.06513306498527527, -4.427152089192532e-05, 0.20272257924079895, -0.019661489874124527, -0.24226678907871246, 0.23588570952415466, 0.11875111609697342, -0.36277511715888977, -0.024231677874922752, 0.20347902178764343, 0.0719706192612648, -1.7091409176828165e-07, -0.14021749794483185, -0.2159419059753418, -0.013434141874313354, 0.1065501794219017, 1.4848463783925274e-18, -0.019897397607564926, 0.12380155175924301, -0.24662025272846222, -1.0121045113109517e-09, 0.07654651254415512, 0.15799018740653992, 0.1057351753115654, 0.08110914379358292, -0.20591263473033905, 0.046747997403144836, 0.11454277485609055, -0.1918887048959732, -1.537049931776835e-10, -0.1151544600725174], [-7.109891157597303e-05, -0.1354718655347824, -3.127740910713328e-08, -0.11199555546045303, -0.18667642772197723, 0.25236421823501587, -0.055581048130989075, 0.060842327773571014, 0.1915116310119629, 0.10393326729536057, -0.2864038944244385, 0.15643925964832306, -0.058351434767246246, 0.1767358034849167, -2.5739732934394885e-20, -0.01050368882715702, 0.018749773502349854, -0.06888671964406967, 0.18343211710453033, -0.06661444902420044, -0.15724173188209534, 0.24990321695804596, -0.03382936492562294, -4.215540805319051e-09, -0.20641960203647614, -8.740296948417381e-07, -0.09103382378816605, -0.027912529185414314, -0.017397724092006683, -1.6188125492866412e-11, -0.036929208785295486, 0.30849990248680115, -0.21447531878948212, -0.00796573143452406, -1.6744076887573366e-19, 0.10116502642631531, -0.0623716376721859, 0.07574336230754852, 0.1061488687992096, 0.09246578067541122, 0.07179711759090424, -0.1974748820066452, -0.25693821907043457, 0.22426994144916534, 1.862389581219759e-05, 0.01138586737215519, -0.07089141011238098, -0.10145048052072525, 0.04956028237938881, -1.4778268564441532e-07, -0.06585702300071716, 0.11277485638856888, 0.11208341270685196, -2.656015851698612e-09, -0.025828706100583076, 0.03313348814845085, -0.17796863615512848, -0.0660581886768341, -0.034603897482156754, -0.10228271037340164, -0.04247557371854782, -0.12320395559072495, -1.978913757307802e-15, -0.09127174317836761], [-2.3021912056719884e-05, 0.19649313390254974, 2.5336029389928794e-14, 0.22901049256324768, 0.2820809483528137, -0.06807581335306168, 0.04562821611762047, 0.05691207945346832, 0.1957065463066101, -0.01376473717391491, -0.05717518925666809, 0.18010710179805756, 0.156376913189888, 0.28177616000175476, -2.966664624182158e-06, 0.002942966762930155, 0.19564054906368256, -0.12377272546291351, -0.20129309594631195, 0.07107831537723541, 0.04363449290394783, 0.06467249989509583, -0.17421852052211761, 4.934366515385591e-08, -0.09431026875972748, -5.199060524319066e-07, 0.06882455945014954, 0.12973612546920776, 0.06730271130800247, 3.38350848351098e-22, -0.10877326875925064, 0.16268011927604675, 0.22186630964279175, 0.15106385946273804, -1.9977457885824814e-21, -0.0526614747941494, 0.008812874555587769, -0.07686372101306915, 0.11056619882583618, 0.0032185863237828016, -0.08225759863853455, 0.16552415490150452, -0.12716570496559143, 0.04598529264330864, 9.048564606928267e-06, 0.07077083736658096, -0.028306370601058006, 0.11188521236181259, 0.030986668542027473, -1.800024845770667e-15, -0.060664448887109756, 0.1366465836763382, 0.07736295461654663, -1.0436474780683328e-21, 0.03895943984389305, 0.13618060946464539, -0.18585927784442902, -0.10767825692892075, -0.12429909408092499, 0.10403706878423691, -0.23404313623905182, 0.09868448972702026, 4.101643469311966e-09, 0.2568586766719818], [-1.269147687232863e-15, 0.22493627667427063, -4.980486664862838e-06, 0.13605010509490967, -0.037622902542352676, -0.17597904801368713, 0.24270425736904144, -0.1666657030582428, -0.12426648288965225, 0.01966382935643196, 0.17464320361614227, 0.05590534210205078, 0.15230236947536469, -0.02448088303208351, -1.0794982685524701e-09, -0.007878082804381847, -0.19992172718048096, 0.1669008731842041, -0.025045359507203102, 0.0268216822296381, 0.06997571885585785, 0.22284337878227234, -0.06984621286392212, 4.676519715237527e-21, -0.05350405350327492, -1.6928756850047134e-18, -0.08688827604055405, 0.07323008030653, 0.14551086723804474, 1.9912453929699077e-20, 0.1005508229136467, 0.21100695431232452, 0.1471201777458191, -0.16781742870807648, -4.435201565311259e-20, 0.130560964345932, -0.12181460112333298, 0.034987665712833405, 0.2734702527523041, 0.12499847263097763, -0.19370123744010925, -0.08484477549791336, 0.3080562949180603, 0.09336091578006744, -2.9242369237181265e-06, 0.16853584349155426, -0.014100927859544754, 0.0014869547449052334, 0.10734959691762924, 1.6743135969626586e-19, -0.17767460644245148, -0.07224304229021072, 0.06973608583211899, -0.00010113367898156866, -0.06664218008518219, -0.05722974240779877, 0.1285836398601532, 0.27056342363357544, -0.1124725490808487, 0.012691300362348557, 0.21909880638122559, -0.1217135414481163, -1.1886285733453406e-08, -0.04968928545713425], [-1.4976856164139463e-06, -0.1666506826877594, -1.032255023398726e-23, -0.08875656872987747, 0.1576681137084961, -0.028838524594902992, -0.03719748556613922, 0.04032199829816818, -0.1641308069229126, 0.13954949378967285, -0.21948622167110443, 0.31839486956596375, -0.2249453365802765, -0.0059049781411886215, -1.1821424777735956e-05, 0.019254352897405624, 0.08623021841049194, 0.032056137919425964, -0.09147801995277405, 0.03704426437616348, -0.19817598164081573, 0.21064995229244232, -0.18082980811595917, -1.1923333431695937e-07, -0.21869483590126038, 5.502235394156898e-22, -0.04567192494869232, -0.10812701284885406, 0.2128477245569229, -1.6626050613793301e-21, 0.10499095916748047, 0.11980186402797699, -0.11484542489051819, 0.0074895694851875305, -7.817474170224159e-07, -0.21679316461086273, 0.23390933871269226, 0.28314822912216187, -0.12911926209926605, -0.060924045741558075, 0.0029208557680249214, -0.10456984490156174, -0.2923804819583893, -0.004324079025536776, 1.92480909683157e-11, 0.0568673275411129, -0.43105074763298035, -0.12630677223205566, -0.15642309188842773, -4.873974538717593e-15, -0.1450044810771942, -0.05304953455924988, 0.20746861398220062, -2.3883387711975956e-07, 0.007051088847219944, -0.12835146486759186, -0.22669006884098053, -0.183905228972435, 0.18800534307956696, 0.08741100877523422, 0.11660393327474594, -0.0018434097291901708, 3.9085175974703135e-16, -0.06929120421409607], [-3.725996074177562e-12, 0.20579233765602112, -8.378947677556425e-05, 0.18579965829849243, 0.2487799972295761, -0.38174620270729065, -0.1424804925918579, 0.0521930567920208, 0.09425123780965805, 0.13520586490631104, 0.19253213703632355, -0.1235533282160759, -0.05078776553273201, -0.04106106236577034, 2.049700049660528e-19, 0.0038836458697915077, 0.008924982510507107, -0.02985920011997223, -0.03454999253153801, -0.0068059819750487804, -0.039026107639074326, 0.07794558256864548, 0.14458096027374268, -1.5465965361727285e-06, 0.22104640305042267, 1.0186065464470447e-22, 0.08708758652210236, 0.07035595178604126, -0.08429484069347382, -6.716787174809724e-05, -0.1735316663980484, -0.03872977942228317, 0.22183075547218323, -0.08189786970615387, -1.5977752809703816e-06, 0.19914156198501587, 0.17591767013072968, -0.03302568197250366, -0.09510165452957153, -0.03049304708838463, -0.15229302644729614, 0.21883870661258698, -0.17605336010456085, 0.01649797149002552, -8.256745287482659e-11, 0.04150991886854172, 0.07454563677310944, 0.09848303347826004, -0.10095039010047913, -8.770768909016624e-05, -0.08041727542877197, 0.1250271052122116, 0.1301269829273224, 2.9093252707772997e-19, 0.018535066395998, 0.08532962203025818, -0.11563557386398315, 0.21217317879199982, -0.09597766399383545, -0.00648772856220603, 0.028047941625118256, -0.18756698071956635, -4.5568219775304897e-07, 0.1236436739563942], [-1.2820745723729488e-05, 0.04205275699496269, -2.0223256402829293e-09, 0.09546080976724625, 0.022189529612660408, -0.02662181295454502, 0.08990216255187988, -0.10347854346036911, 0.007851287722587585, 0.032581835985183716, 0.06053359806537628, 0.26118722558021545, 0.0890287533402443, -0.05376835912466049, -5.4349609854398295e-05, -0.005133644677698612, 0.08369667828083038, -0.20489491522312164, 0.03476518765091896, 0.005146794021129608, -0.06841200590133667, 0.16453872621059418, -0.1820293515920639, -1.625841650820803e-05, 0.003233132651075721, 5.890788044162602e-24, 0.025140967220067978, 0.018467703834176064, -0.0571911558508873, 2.0969612535282067e-07, 0.19104571640491486, 0.13561008870601654, 0.01210863795131445, 0.02157791145145893, 8.67119142458354e-17, -0.19176286458969116, 0.19882334768772125, -0.12814205884933472, 0.19097058475017548, -0.0165090374648571, -0.30423837900161743, 0.01037052646279335, 0.12279624491930008, 0.12526145577430725, 1.0101889813540765e-07, 0.054449718445539474, 0.03771722689270973, 0.14370138943195343, -0.12961891293525696, 1.3002683229142482e-22, -0.11599665880203247, 0.3097183108329773, 0.2445773184299469, -4.414135401020758e-05, 0.07539600878953934, 0.1707434058189392, -0.132950559258461, 0.0007507498376071453, 0.2207041084766388, -0.21235361695289612, 0.10186176747083664, -0.06538821756839752, 1.602936208655592e-05, 0.1676071584224701], [2.8562904844875447e-05, 0.01421661488711834, 1.696196250122739e-06, -0.04071309044957161, -0.08584503084421158, 0.17091020941734314, -0.2158099263906479, 0.02534513548016548, -0.1252080351114273, -0.14827431738376617, -0.21051764488220215, 0.15103161334991455, -0.09237097203731537, 0.07706627994775772, -2.1741805539932102e-05, -0.00287253106944263, 0.05008598044514656, 0.11617802828550339, -0.023851381614804268, 0.04885200411081314, 0.14469069242477417, 0.09030716866254807, -0.11683054268360138, -6.413301161956042e-05, 0.24007368087768555, -6.911192031111568e-05, 0.016226787120103836, 0.06875202059745789, 0.23710915446281433, 6.207449843032009e-08, 0.28168952465057373, 0.03056006133556366, 0.04717911779880524, -0.06074080988764763, -4.093630215664879e-22, 0.041630443185567856, 0.1723780632019043, 0.2430301457643509, 0.09833256900310516, -0.020120175555348396, -0.01416774746030569, 0.09297311305999756, -0.12645407021045685, -0.12900184094905853, 1.0358841044516689e-16, -0.10684497654438019, -0.11940626800060272, -0.12089671939611435, -0.1837243288755417, -7.486279355362058e-05, 0.16488999128341675, 0.0384126752614975, -0.02622915804386139, -3.680536371552037e-14, -0.004674485884606838, 0.1802748441696167, 0.125833198428154, -0.19582031667232513, 0.004107864573597908, 0.15267467498779297, 0.2252129763364792, -0.026763081550598145, -9.604928657824067e-19, -0.16509293019771576], [9.210094867739826e-05, -0.47932904958724976, 2.736935311986599e-05, -0.12783002853393555, 0.028989842161536217, 0.370462030172348, -0.5086987018585205, -0.11757529526948929, 0.06869572401046753, 0.2837265133857727, -0.23938070237636566, 0.2595270276069641, -0.5239461064338684, 0.6520779728889465, 4.049383733217837e-06, 0.010448289103806019, 0.5996794700622559, -0.1292768269777298, 0.2967867851257324, -0.28249362111091614, -0.26144418120384216, -0.18569841980934143, -0.21160881221294403, -1.2038691821203429e-08, -0.35706523060798645, 1.73755702052556e-22, 0.014121309854090214, 0.38535845279693604, 0.18091166019439697, 3.1781789857632248e-06, 0.11265968531370163, -0.05973583459854126, 0.3313050866127014, 0.19056467711925507, 1.7023222653733683e-06, -0.24093510210514069, 0.4597538709640503, 0.38191771507263184, -0.5354552268981934, -0.00616146856918931, -0.2712043523788452, -0.4755244851112366, -0.3341074585914612, 0.44727790355682373, -1.354741834802553e-05, -0.10369199514389038, 0.021213913336396217, -0.16223010420799255, -0.19187232851982117, 1.1669094778432456e-23, -0.0007145359413698316, 0.4197823107242584, 0.5361446738243103, -3.214836788942852e-16, 0.04565751552581787, 0.03273880109190941, -0.5036044716835022, -0.2300216108560562, 0.46465057134628296, -0.2888714075088501, -0.2483605295419693, 0.5645179748535156, 5.0425909108031686e-12, 0.30082640051841736], [2.972098478784546e-13, 0.08587717264890671, 4.306423037320495e-18, 0.050976745784282684, -0.16147732734680176, 0.1751297414302826, 0.17908881604671478, -0.21949155628681183, 0.18554343283176422, -0.13480772078037262, -0.08604419231414795, 0.16334503889083862, -0.16285355389118195, 0.15934884548187256, 4.204365779969521e-07, -0.007995391264557838, -0.1815917193889618, -0.10280780494213104, 0.0898595079779625, 0.20422689616680145, 0.05525705963373184, -0.0954703614115715, 0.05413823947310448, 1.879960600792472e-21, 0.05095731467008591, -5.683386461896589e-06, 0.014589562080800533, 0.05489097908139229, 0.25265321135520935, -1.3095941457389663e-15, 0.11583837866783142, 0.23305906355381012, -0.0210367813706398, 0.17194592952728271, -8.378256313550103e-14, -0.1986885666847229, -0.07828474789857864, 0.12218380719423294, -0.19492006301879883, 0.011135810054838657, -0.1577053815126419, 0.04748475179076195, -0.1950249969959259, 0.15789970755577087, 6.0946083976887167e-05, 0.188311368227005, 0.08140526711940765, -0.1654447615146637, 0.10901721566915512, -6.384676089510322e-05, -0.1942082792520523, 0.00435716612264514, 0.03229278326034546, 8.001747708874518e-09, 0.06318584829568863, -0.03698839619755745, -0.08949112147092819, 0.20673993229866028, 0.001122008077800274, -0.028163887560367584, -0.11010095477104187, 0.13012543320655823, 8.49542028250657e-15, -0.06415583938360214], [-1.2990838513360359e-05, 0.12921291589736938, 6.484096503537977e-16, -0.017517942935228348, 0.25734299421310425, -0.15645156800746918, -0.027346812188625336, 0.17577169835567474, -0.07564299553632736, 0.046940963715314865, -0.02228463813662529, -0.05043390393257141, 0.22906021773815155, -0.05595818907022476, 5.906838396185776e-06, -0.003780241822823882, -0.12053503096103668, -0.21350376307964325, 0.09689067304134369, -0.0523960143327713, 0.17400890588760376, -0.02540171891450882, 0.2320399284362793, -1.613486801943509e-07, 0.22551299631595612, 1.3042341429070348e-08, -0.0048123011365532875, 0.18230757117271423, 0.1370815485715866, 1.2385107305238016e-17, -0.10562551021575928, -0.2004629671573639, 0.09740418940782547, 0.0330180898308754, 5.364646327166156e-08, 0.030708665028214455, -0.16889604926109314, -0.16921663284301758, 0.09667813777923584, -0.01968476176261902, -0.0706673189997673, 0.02246253937482834, -0.19394856691360474, 0.05498747155070305, -1.5855949886400822e-10, 0.11418589949607849, -0.1542588621377945, -0.026215119287371635, -0.18320989608764648, -1.7636097254580818e-05, -0.024926600977778435, 0.05264034867286682, 0.04298117384314537, -5.0176169642812685e-12, 0.04359782114624977, 0.14118091762065887, 0.13912951946258545, -0.2025872766971588, -0.0006786914309486747, -0.14327822625637054, -0.05320528522133827, 0.2073976844549179, -1.3946761328043067e-06, -0.05150134861469269], [3.667183236613497e-18, -0.11586052179336548, -2.2019083424860603e-21, 0.08065434545278549, 0.0337238684296608, 0.205081507563591, -0.4009924829006195, -0.046758316457271576, -0.06609645485877991, 0.04316698759794235, -0.2134433537721634, -0.012400426901876926, -0.12171908468008041, 0.3338659405708313, 6.966980237166354e-08, 0.0038051865994930267, 0.03922732174396515, -0.1592399775981903, 0.20312587916851044, -0.17364734411239624, -0.3578738868236542, 0.22030693292617798, -0.3931768238544464, 2.5276464535441523e-21, 0.0662437304854393, 2.4562245926063042e-06, 0.037907764315605164, 0.29417794942855835, 0.08537830412387848, 1.6463260976706806e-07, -0.11813611537218094, 0.23855893313884735, 0.2121192067861557, 0.14923682808876038, -6.793924570736942e-22, -0.14056941866874695, 0.22215451300144196, 0.28693658113479614, -0.34692811965942383, -0.08316150307655334, -0.20132511854171753, -0.3307426869869232, -0.11204183846712112, 0.11752284318208694, 6.454411777667701e-05, -0.054339755326509476, -0.24209387600421906, 0.11755001544952393, -0.140207901597023, -1.082048633711091e-23, 0.007193432189524174, 0.25969359278678894, 0.0667157918214798, 0.0001033088774420321, 0.13094855844974518, 0.07835137099027634, -0.3395293056964874, -0.1268320530653, -0.03135065361857414, -0.38349080085754395, -0.34221768379211426, 0.21243932843208313, 2.2006822746334365e-06, 0.1889883428812027], [6.101959493243214e-10, -0.06245383247733116, -5.780660522436106e-16, -0.03939606994390488, 0.1530739665031433, -0.16922420263290405, 0.14339913427829742, 0.018372850492596626, 0.12438523769378662, 0.16152425110340118, -0.057511039078235626, 0.25220122933387756, 0.11896996945142746, 0.03057490661740303, -5.649033671395465e-11, -0.009386093355715275, 0.24418628215789795, -0.13572892546653748, 0.13151688873767853, 0.02371283993124962, 0.060682859271764755, -0.0595647431910038, 0.04981675744056702, 9.850291462498717e-06, -0.26558464765548706, -4.1008938467257394e-09, 0.06483690440654755, -0.07945633679628372, 0.24606385827064514, 8.089379201298659e-23, -0.03720004856586456, 0.3106853663921356, 0.22329020500183105, -0.010833059437572956, 1.0685533711338792e-16, -0.007964217104017735, -0.08828143775463104, 0.03537292405962944, 0.16021642088890076, -0.07196225970983505, -0.10316544026136398, -0.1225125789642334, 0.07453378289937973, -0.16990910470485687, 5.571541259996593e-05, -0.03521271422505379, -0.07041756808757782, -0.18970733880996704, -0.17999164760112762, 3.954567543373112e-22, -0.06869303435087204, 0.25922316312789917, 0.0513865165412426, -1.465221055596544e-09, 0.03918366879224777, 0.07601983100175858, -0.19238053262233734, -0.1923549622297287, -0.13112124800682068, 0.05620940402150154, 0.07625337690114975, 0.026323415338993073, 7.602576488352497e-07, 0.26763495802879333], [-2.6040240219234584e-20, 0.27072659134864807, -4.584028800991291e-08, 0.0015746637945994735, 0.11737710982561111, -0.2989114224910736, 0.09416184574365616, 0.17294566333293915, -0.40427908301353455, -0.2700214385986328, 0.10288665443658829, 0.15511928498744965, 0.03168648108839989, -0.08235432952642441, -4.176084985374473e-05, -0.0005730784614570439, 0.11589112132787704, 0.19117094576358795, -0.3064020574092865, 0.2772500216960907, 0.17625510692596436, -0.023728525266051292, 0.10036411881446838, 7.537689642776706e-23, 0.11585347354412079, 1.178733802256163e-15, -0.0664195790886879, -0.29413190484046936, -0.16533838212490082, 2.3383385071990004e-12, -0.13483180105686188, -0.10497410595417023, -0.003919251728802919, -0.19238877296447754, -6.468013465451986e-15, 0.11197198927402496, 0.06311696022748947, -0.25026389956474304, 0.19305038452148438, 0.08847372233867645, 0.365800678730011, 0.1962967813014984, 0.09160085022449493, 0.015101299621164799, 2.2584608814213425e-06, 0.015674974769353867, -0.4370651841163635, 0.17850464582443237, 0.17904774844646454, -1.9846740895688997e-14, -0.04364326596260071, 0.02455030009150505, -0.14552369713783264, 2.1564315342615693e-16, -0.12679484486579895, 0.05343524366617203, 0.32526567578315735, -0.11864195764064789, 0.11395611613988876, 0.08079132437705994, 0.2985128164291382, 0.05930841341614723, 2.5065580735164167e-20, -0.053183186799287796], [3.3111623451986816e-06, -0.059118710458278656, 7.377569726191389e-15, 0.16266131401062012, 0.29295098781585693, 0.11366503685712814, 0.09178773313760757, -0.010606618598103523, 0.17416000366210938, -0.15275543928146362, 0.04129122942686081, -0.24438931047916412, -0.058094266802072525, -0.010249101556837559, 8.017120833840379e-19, 0.006379079073667526, -0.05820486322045326, -0.011888452805578709, -0.13629412651062012, -0.10311595350503922, -0.10331200808286667, -0.20957855880260468, 0.03910943493247032, 2.879581942512988e-16, 0.2406405657529831, 5.974140191813521e-23, 0.04257608950138092, 0.14104481041431427, -0.00608457624912262, -4.248110637923775e-22, -0.26714304089546204, -0.10549551248550415, 0.11653579026460648, -0.023010099306702614, -8.748297701277766e-20, 0.024499746039509773, 0.06403786689043045, 0.11375026404857635, 0.14943359792232513, 0.04618104547262192, 0.29237911105155945, -0.20985901355743408, -0.19390982389450073, -0.19759151339530945, -4.506853531953524e-17, 0.1800229698419571, -0.2727419435977936, 0.16621015965938568, -0.22422738373279572, 2.161106385756284e-05, -0.030651211738586426, -0.1959065943956375, -0.0025294767692685127, -6.448251932411608e-10, -0.0531594455242157, -0.06751783192157745, 0.11072054505348206, 0.00022191852622199804, -0.10726696252822876, 0.050813499838113785, 0.06762951612472534, -0.04024752229452133, -1.3355650900139082e-20, -0.12969663739204407], [-2.067720004106377e-07, 0.0014154677046462893, -2.0345800066934316e-07, -0.003921729978173971, 0.04590494930744171, -0.09922926872968674, -0.032532114535570145, -0.12133869528770447, 0.44070184230804443, 0.10736590623855591, 0.03651455044746399, 0.15257464349269867, -0.2983454167842865, 0.18361425399780273, 3.4697033697739244e-05, -0.010057006031274796, 0.24594074487686157, 0.1567527800798416, 0.003991429693996906, -0.20188547670841217, -0.03664955869317055, 0.14401860535144806, 0.05385911464691162, 7.270017249538796e-06, -0.2604447603225708, -4.347911808366689e-09, 0.01649816520512104, -0.0050317468121647835, 0.2773974537849426, 4.3970627229588824e-20, 0.16407518088817596, 0.05629073083400726, 0.37511730194091797, -0.03787843510508537, 1.975542209145898e-20, -0.2393244504928589, 0.21592223644256592, 0.29572656750679016, -0.21089956164360046, -0.12275964021682739, -0.46898263692855835, -0.034324172884225845, -0.06019467115402222, 0.01891181617975235, -6.597704160782314e-09, -0.062312107533216476, 0.12943458557128906, -0.007771371863782406, 0.13314302265644073, -1.8088137494487455e-06, 0.06925638020038605, 0.1198834553360939, 0.10277656465768814, 2.4869750356315556e-11, 0.06860989332199097, 0.19735044240951538, -0.27096840739250183, -0.27014413475990295, 0.2123013734817505, -0.05947238579392433, -0.13631579279899597, -0.09977215528488159, -1.1705107681336813e-05, 0.3599126935005188], [-1.1109678865750539e-07, 0.06064740940928459, -1.0121837590304494e-08, 0.07189087569713593, 0.10014166682958603, -0.14403454959392548, -0.06787794828414917, 0.1140303760766983, -0.38654011487960815, -0.13148091733455658, 0.32397881150245667, -0.0054972413927316666, 0.15634925663471222, -0.20807038247585297, -1.1084185268101497e-15, 0.011361979879438877, 0.07365559041500092, 0.05937372148036957, -0.1230405867099762, 0.22428102791309357, 0.1344444900751114, -0.46671292185783386, 0.19139939546585083, 4.089883077540435e-05, 0.011594937182962894, -7.62772142540516e-14, -0.028807858005166054, -0.1341884434223175, -0.30367860198020935, 1.9252986205825093e-21, 0.07013523578643799, -0.3319322466850281, -0.18787063658237457, 0.11181352287530899, 1.743834582157433e-05, 0.0617402121424675, -0.18910233676433563, -0.30253058671951294, 0.3598213791847229, 0.1195748820900917, 0.24835099279880524, 0.2999109923839569, 0.15426036715507507, -0.020442252978682518, -1.0463784747116733e-05, 0.09594656527042389, -0.44974416494369507, 0.13349086046218872, 0.2534768283367157, 5.430511075543709e-12, -0.09239918738603592, -0.18957553803920746, -0.2480836808681488, 9.702538741160376e-17, -0.13414467871189117, 0.17449608445167542, 0.17844249308109283, 0.03440440073609352, -0.1781914383172989, 0.1311844438314438, 0.21925212442874908, -0.091663658618927, 1.3734493222727906e-05, -0.18537850677967072], [9.416802640771493e-05, 0.24622678756713867, -3.829249806130974e-08, 0.1813543289899826, 0.1072632372379303, 0.03025905042886734, 0.0118474205955863, 0.17661570012569427, 0.12027861922979355, 0.03281964734196663, 0.23751330375671387, -0.18844859302043915, -0.08068710565567017, -0.13167330622673035, -3.1312345072365133e-07, 0.007181070279330015, -0.1729927361011505, 0.2107880711555481, -0.04508870840072632, 0.23313657939434052, -0.06498859822750092, 0.039635758846998215, 0.2856071889400482, 8.8769722492728e-23, 0.33349356055259705, 5.023671256765283e-09, 0.03160833939909935, -0.11302643269300461, -0.14703670144081116, -1.1748896895369398e-06, -0.16726499795913696, -0.34223783016204834, -0.0901411697268486, -0.13383813202381134, 4.710461143986322e-05, 0.13996808230876923, 0.1018165796995163, -0.1362149566411972, 0.015094546601176262, 0.005658146925270557, 0.19766108691692352, -0.07341977208852768, 0.13454343378543854, -0.21813222765922546, 5.74663175132994e-18, 0.05834178999066353, -0.35023248195648193, -0.16734427213668823, 0.20572111010551453, -1.9962279444701893e-21, -0.11446269601583481, 0.09966839849948883, -0.291402667760849, 7.948790958127797e-14, 0.1310788094997406, -0.09674213826656342, -0.056674566119909286, -0.07901594042778015, -0.19717708230018616, -0.0759597048163414, 0.16865280270576477, -0.2276247888803482, -1.1884428088692282e-22, 0.21735025942325592], [1.5672603126404283e-07, 0.039749402552843094, -1.1239447889640868e-14, 0.10734393447637558, 0.05967577546834946, 0.017720945179462433, -0.18401400744915009, 0.1519421488046646, -0.05785410478711128, -0.07678327709436417, -0.0773552656173706, 0.03540334850549698, 0.12380910664796829, 0.17155525088310242, 7.314338912323137e-09, -0.01348627358675003, 0.017447341233491898, -0.018376441672444344, -0.16107383370399475, -0.15086112916469574, 0.10816150903701782, -0.15961308777332306, -0.0023693982511758804, -2.3983091068657814e-08, -0.3059634566307068, -2.9641491483545224e-09, 0.07021218538284302, 0.1998937427997589, 0.25742000341415405, 1.1370553997611728e-22, -0.10401454567909241, 0.03810052573680878, 0.053766533732414246, 0.13156116008758545, -7.758600077067968e-06, -0.02832021564245224, -0.1257946789264679, -0.04090679809451103, 0.08643469214439392, -0.009614828042685986, -0.16017989814281464, -0.061084430664777756, -0.07174792885780334, 0.16029362380504608, 5.495830464496976e-06, 0.18297076225280762, 0.10382484644651413, -0.08641184866428375, 0.05438198521733284, -8.334680737813543e-21, -0.10341640561819077, 0.24984270334243774, -0.13946481049060822, 7.717513653915375e-06, -0.02014366164803505, 0.04562310874462128, 0.06272605061531067, 0.12743540108203888, 0.10511654615402222, 0.03310786932706833, -0.18120509386062622, 0.04602058604359627, -9.895458106257138e-07, 0.05772939696907997], [-1.1182254792801645e-22, 0.1579871028661728, -4.165256905253045e-05, -0.10640213638544083, 0.08704471588134766, -0.21848013997077942, -0.14678460359573364, -0.2275516837835312, 0.1537994146347046, 0.05252624675631523, -0.02669491060078144, -0.07651559263467789, -0.02952645905315876, 0.04571615904569626, 1.856410558519965e-15, -0.007810859475284815, -0.16685082018375397, -0.18449978530406952, 0.07446006685495377, 0.16996309161186218, -0.06729546934366226, -0.19918541610240936, -0.12399405986070633, 5.307388346409425e-05, 0.03144870698451996, 7.265472667938866e-09, -0.03441709652543068, -0.042749546468257904, -0.135908305644989, -3.3237381558137713e-06, 0.08610635250806808, 0.16556404531002045, -0.012722271494567394, -0.004817694425582886, -4.135231574764475e-05, 0.26083314418792725, 0.07941681146621704, -0.12331610918045044, 0.2480989396572113, 0.013410817831754684, 0.1201573982834816, 0.15906041860580444, 0.18631036579608917, 0.034129370003938675, -2.5505887606414035e-06, -0.08526679873466492, 0.18260982632637024, -0.12491568177938461, 0.010433519259095192, -2.5853095452405863e-20, -0.02590957283973694, 0.06662237644195557, 0.15903541445732117, -3.1031919256463425e-09, -0.10185066610574722, -0.14595523476600647, 0.22793768346309662, 0.10168220102787018, -0.1094764694571495, 0.18801768124103546, 0.24854369461536407, 0.08685468882322311, 1.3535894140659366e-05, -0.16480393707752228], [2.097978013537727e-09, -0.28843894600868225, 6.854376692899677e-07, -0.11034903675317764, 0.07185152918100357, 0.3648292124271393, -0.43810656666755676, 0.03219553083181381, 0.3029670715332031, 0.5158530473709106, -0.47688624262809753, 0.07235899567604065, -0.4055451452732086, 0.4364514946937561, 1.9478781609905127e-07, 0.004112909082323313, 0.29965952038764954, 0.15703800320625305, 0.34745678305625916, -0.29647719860076904, -0.22537490725517273, -0.08250431716442108, -0.36976373195648193, 1.9500374197392753e-20, -0.10523557662963867, 2.6996917767974082e-06, 0.011888815090060234, 0.37131398916244507, 0.11012056469917297, -9.907587088854608e-22, -0.07312652468681335, -0.10670662671327591, 0.1195618063211441, 0.213663250207901, -7.472757715731859e-06, -0.3363663852214813, 0.4222167134284973, 0.13740558922290802, -0.24631167948246002, 0.03485593944787979, -0.10652641206979752, -0.41737252473831177, -0.393318772315979, 0.45247042179107666, -8.00831921207016e-21, -0.19673392176628113, -0.011486773379147053, -0.18426324427127838, -0.14760814607143402, -5.7198931813218223e-08, 0.0004013836442027241, 0.20439578592777252, 0.2081146091222763, -1.0490373369975714e-06, -0.049333080649375916, 0.17013855278491974, -0.08855929970741272, -0.34921708703041077, 0.2225704789161682, -0.1745389997959137, -0.1524507701396942, 0.333548367023468, 1.799792191297219e-18, 0.016314079985022545], [1.1971979939524868e-13, -0.2045324444770813, 5.748747265746545e-18, -0.05892261117696762, 0.04660734161734581, -0.17192992568016052, 0.04957819730043411, -0.0240082535892725, 0.08112738281488419, -0.15951712429523468, 0.019215820357203484, 0.07585785537958145, 0.013724345713853836, 0.05481131374835968, -1.964236539804369e-14, -0.0037203747779130936, -0.06324893236160278, 0.13056623935699463, 0.038373567163944244, -0.18656586110591888, -0.1949557512998581, -0.11846115440130234, 0.1226128563284874, 4.407293974217907e-12, 0.056493163108825684, 2.179649186852071e-22, -0.028326276689767838, -0.10492418706417084, -0.02668295055627823, -2.271241668233846e-20, -0.11974839121103287, -0.1199146956205368, 0.14880555868148804, 0.08430753648281097, 0.00010796599235618487, 0.17675921320915222, 0.06794023513793945, -0.009660016745328903, 0.04752828925848007, 0.07202695310115814, -0.2072688192129135, -0.0415823720395565, 0.1487545371055603, -0.053420644253492355, 9.988250325223991e-21, 0.02266691066324711, -0.16377530992031097, -0.06573746353387833, -0.07047922909259796, -6.141253834357485e-05, -0.19456981122493744, 0.21812503039836884, -0.062009964138269424, 2.8556989436586434e-22, -0.07933246344327927, 0.1773674637079239, -0.0983249619603157, -0.045320186764001846, 0.19142945110797882, 0.1445161998271942, -0.10310305655002594, 0.13630418479442596, -2.72692347195484e-21, 0.03294342756271362], [-2.0471757125051226e-06, -0.1088758260011673, 1.0740242029072533e-10, 0.022695066407322884, 0.06593123823404312, 0.0372040830552578, 0.142106294631958, -0.16391050815582275, 0.039850153028964996, -0.20852601528167725, 0.17956401407718658, 0.07199999690055847, 0.26006177067756653, -0.22251293063163757, -2.753277112788055e-05, -0.005019641015678644, -0.14095649123191833, -0.12036994844675064, 0.15800593793392181, -0.06556327641010284, -0.03512056544423103, 0.12527233362197876, 0.042274512350559235, 1.3156706835104615e-08, -0.1392102986574173, 1.0615236720258162e-22, -0.12202535569667816, -0.2066125124692917, 0.1547471135854721, -1.6053730860221549e-06, 0.04012008756399155, -0.021482782438397408, -0.09976043552160263, 0.15640991926193237, -6.820821727160364e-05, 0.15740342438220978, 0.1701064258813858, -0.025056617334485054, 0.2503141760826111, -0.1343197226524353, 0.05379524081945419, -0.037422358989715576, 0.1254386603832245, 0.1657394915819168, -6.619507719740625e-10, 0.051635969430208206, -0.12238691002130508, 0.02125389501452446, 0.039546459913253784, 5.878400770598091e-05, 0.014373577199876308, -0.054883990436792374, -0.2022693008184433, -9.417582305104588e-07, -0.09460869431495667, -0.12283596396446228, 0.19292137026786804, 0.0525970496237278, -0.02647549845278263, -0.09554971754550934, 0.24754050374031067, 0.06528947502374649, -2.0323464923421852e-05, 0.06449057161808014], [3.0410495504880786e-21, -0.30508121848106384, -2.686501481864846e-21, 0.03835282474756241, -0.03959902748465538, 0.31861943006515503, 0.034648098051548004, 0.08803870528936386, -0.023267585784196854, 0.09187629818916321, -0.02524188533425331, 0.06723766773939133, -0.26682788133621216, 0.14365966618061066, 1.0005495454379343e-07, 0.007118822541087866, -0.09816766530275345, 0.13407671451568604, -0.06931062042713165, -0.27554652094841003, -0.22605666518211365, -0.1602936089038849, -0.010160038247704506, 3.7590991706563804e-22, -0.11134196072816849, 3.224174406568636e-06, 0.053682565689086914, 0.2493561953306198, -0.045422766357660294, 6.78836038767362e-22, 0.21295161545276642, 0.02144080400466919, -0.15194980800151825, -0.16568595170974731, 2.6098873612368794e-22, 0.061991892755031586, 0.1256401240825653, 0.09368400275707245, -0.2622232437133789, 0.029972126707434654, 0.1546551138162613, -0.1537647396326065, -0.03627803176641464, 0.32638826966285706, -5.258869606450389e-08, 0.02451273612678051, -0.1811046153306961, 0.12402047961950302, -0.08869508653879166, -3.07901538672287e-17, 0.06002205237746239, 0.012620599940419197, 0.269557923078537, -1.0988557255044953e-21, -0.0946325808763504, 0.09853655844926834, 0.015969639644026756, -0.1891385167837143, 0.22874267399311066, 0.07669403403997421, -0.25539371371269226, 0.3340863883495331, -1.5071535699462402e-06, -0.14655180275440216], [-1.7382870964866015e-07, 0.2106625884771347, 6.135224808387612e-16, -0.08723847568035126, -0.035819102078676224, 0.006178760901093483, -0.13978148996829987, 0.1498282253742218, 0.154313862323761, -0.005461541004478931, 0.21749034523963928, -0.008221951313316822, 0.21980389952659607, 0.05290939286351204, -3.1757687177397275e-17, -0.013991289772093296, 0.16556888818740845, -0.04170439764857292, -0.13489751517772675, -0.17951278388500214, 0.04811865836381912, 0.024918921291828156, 0.12193063646554947, 5.144546776136849e-06, -0.22542482614517212, 1.6847394312957675e-10, -0.06095285341143608, 0.15946315228939056, 0.16131511330604553, 2.299637833544318e-21, 0.13602249324321747, -0.01760275661945343, 0.09156934916973114, 0.12186919897794724, -2.2709991282153704e-21, -0.037412676960229874, -0.02112952619791031, 0.1453765630722046, -0.05554962903261185, -0.09548918902873993, 0.05111850053071976, 0.16619154810905457, -0.14491385221481323, -0.15524010360240936, -1.426898506906582e-06, -0.08126918971538544, -0.1049090102314949, 0.10050977766513824, 0.09311042726039886, 7.793747016672605e-18, -0.06291650235652924, 0.19522522389888763, -0.0057830410078167915, 6.97278228471987e-05, 0.045764874666929245, -0.17801490426063538, 0.10531309992074966, -0.05833161622285843, 0.0866430327296257, -0.16420191526412964, -0.07265620678663254, 0.12133906036615372, -9.71098756963329e-09, 0.16011828184127808], [-3.980394139291299e-11, 0.13324159383773804, 2.9876810389833225e-14, 0.0185098759829998, 0.021428992971777916, -0.2037569284439087, -0.17256955802440643, -0.10101865231990814, 0.05004012584686279, 0.13605275750160217, 0.24606458842754364, 0.10570628196001053, 0.20021866261959076, 0.04799659550189972, -4.4032841262087175e-10, 0.008993687108159065, 0.024890532717108727, 0.015291507355868816, -0.2305780053138733, 0.023924950510263443, 0.06241913512349129, 0.149330273270607, 0.09975436329841614, -5.764064169149189e-18, 0.22223833203315735, -4.964342224411666e-06, -0.037994250655174255, -0.27398642897605896, 0.0578586682677269, 1.3179464986023959e-05, -0.08993338793516159, 0.15629573166370392, -0.1311352401971817, 0.16246995329856873, 1.894905121702095e-09, 0.23369427025318146, -0.24524879455566406, 0.13336817920207977, 0.17489805817604065, -0.05675451084971428, 0.22583255171775818, -0.01839114911854267, 0.19024232029914856, -0.20959407091140747, 1.8608914322676418e-12, 0.002475842135027051, -0.22376981377601624, -0.11799915879964828, -0.15432047843933105, 1.1179539849110236e-21, -0.021632274612784386, 0.02265220321714878, -0.13317610323429108, -7.238235076416355e-13, 0.08105498552322388, -0.21092797815799713, 0.2167772650718689, 0.18237222731113434, 0.015906210988759995, 0.12224458158016205, 0.2660592496395111, -0.1597869098186493, -1.4453479707299266e-05, -0.12693937122821808], [4.713943368983564e-08, -0.2192036509513855, -8.056314589967703e-20, 0.10236690193414688, 0.3061220645904541, 0.021288739517331123, -0.2054586261510849, 0.15783560276031494, -0.03466325253248215, -0.15956513583660126, -0.14921459555625916, 0.12576037645339966, 0.09650808572769165, 0.18276433646678925, 3.3710482512105955e-06, 0.007191201206296682, -0.00888887420296669, -0.01967785879969597, -0.1105116456747055, -0.07508878409862518, 0.13730673491954803, -0.14046916365623474, 0.15959776937961578, 8.032103078061761e-21, 0.13337554037570953, -2.8143294193886606e-18, 0.03797443211078644, 0.08020435273647308, -0.13943922519683838, -1.0802054128743878e-22, -0.23959650099277496, -0.2835369408130646, 0.038212213665246964, 0.08353202790021896, 3.389344419701956e-05, 0.05848725140094757, 0.11037230491638184, -0.013749315403401852, 0.07358727604150772, -0.08235937356948853, -0.0011438741348683834, -0.05496467649936676, -0.04594334959983826, -0.23058119416236877, -1.5525473600064288e-06, -0.08348158001899719, 0.14498628675937653, -0.06460991501808167, -0.03316793218255043, -8.579417709597692e-08, 0.032917775213718414, -0.13922663033008575, -0.13283908367156982, 1.5757314828237148e-22, -0.12650762498378754, -0.1967100352048874, -0.1344679892063141, -0.2116968333721161, -0.2021622657775879, -0.06169643625617027, 0.0959392860531807, 0.07836605608463287, -9.860589659129671e-23, -0.1345035880804062], [1.9981307559646666e-05, -0.0031189904548227787, -1.1177079613844398e-05, 0.05622686818242073, -0.12174317985773087, -0.11829578131437302, 0.04609377309679985, 0.14622712135314941, 0.010711058042943478, 0.07745302468538284, 0.23209024965763092, -0.1313164085149765, -0.08926555514335632, -0.0573953352868557, 6.9717929189706e-20, -0.007138021290302277, 0.17083850502967834, 0.08287125825881958, 0.057308562099933624, -0.048905257135629654, 0.16429008543491364, 0.2520582973957062, 0.1653190702199936, -0.00010817209840752184, 0.01587197557091713, -3.240121077396907e-05, -0.034962207078933716, -0.20007167756557465, 0.06878528743982315, -8.085022993979674e-14, -0.1237797737121582, 0.04667685553431511, 0.06968079507350922, -0.07396215200424194, -3.3705136956996284e-06, -0.0050619225949049, 0.09191510081291199, -0.18005357682704926, -0.1636112630367279, -0.037973351776599884, 0.12988252937793732, 0.09810063987970352, 0.09931387007236481, -0.10844160616397858, 3.5191623679244294e-19, -0.22774873673915863, -0.08397792279720306, 0.17139290273189545, 0.07719482481479645, 2.7404294087318704e-06, 0.08033272624015808, -0.11705555021762848, 0.18167875707149506, -2.1064732209197246e-05, 0.008098424412310123, -0.17124944925308228, -0.186221182346344, -0.013341214507818222, -0.08211217820644379, 0.01780111715197563, 0.10667159408330917, -0.23997896909713745, -3.121130475847167e-06, -0.005253914278000593], [-1.0604272282054971e-15, 0.18017983436584473, 3.336261079514124e-16, 0.07853296399116516, 0.15352635085582733, -0.12825842201709747, 0.11989083886146545, -0.11333288997411728, -0.0941568985581398, 0.054634109139442444, 0.07530248165130615, 0.10377009212970734, 0.22747494280338287, 0.11668171733617783, 1.2593069186550565e-05, -0.004245491232722998, -0.14577732980251312, 0.024625645950436592, -0.1455010026693344, 0.10783512890338898, 0.18263548612594604, 0.08810541778802872, 0.04614971578121185, -4.425469626312406e-07, -0.014132535085082054, -1.3886676697438816e-06, 0.04589581862092018, -0.17953114211559296, -0.21768146753311157, -6.253543688217178e-05, 0.05114316940307617, 0.08179794996976852, -0.10160466283559799, -0.2000419646501541, -2.090734541144723e-19, 0.035006437450647354, 0.024636005982756615, -0.039054643362760544, 0.03215794637799263, -0.08557333797216415, 0.2961709201335907, 0.07034580409526825, 0.12631501257419586, -0.2123086005449295, 1.1670975422830503e-23, -0.22021183371543884, -0.06621292978525162, 0.19321627914905548, 0.019891249015927315, -4.463265941012651e-05, -0.08984357118606567, -0.09421460330486298, -0.21122020483016968, -6.57666678307578e-05, 0.085964635014534, -0.032917607575654984, -0.03595622628927231, 0.21928822994232178, -0.24098995327949524, 0.2924552261829376, 0.0291708093136549, 0.1336645931005478, -5.854961185506263e-19, 0.1441056728363037], [7.822331826901063e-05, -0.07324347645044327, 4.478313712752424e-05, 0.08890901505947113, 0.17436400055885315, -0.08789368718862534, 0.02511725388467312, -0.13076737523078918, -0.06326522678136826, -0.005703217349946499, 0.1696699857711792, 0.0787830650806427, 0.023090526461601257, -0.08107099682092667, -4.89078333387738e-10, 0.004387294873595238, -0.2350306212902069, -0.05831078067421913, -0.15302449464797974, 0.20304040610790253, 0.067262664437294, -0.32592254877090454, 0.0590355321764946, -1.6087210497062188e-06, 0.04981779307126999, 1.2379394795927725e-17, 0.02753901667892933, -0.07123588025569916, 0.1669032871723175, 3.5489861147652846e-06, -0.032763268798589706, -0.2804051339626312, 0.08517100661993027, -0.10659938305616379, 1.0626262001828244e-18, -0.15087702870368958, -0.031977493315935135, -0.028925612568855286, -0.07735749334096909, 0.1009240597486496, 0.3121000826358795, 0.130410835146904, 0.01636824943125248, 0.07162147015333176, -2.2996682673692703e-06, 0.13099117577075958, -0.19362947344779968, 0.12103020399808884, -0.08411165326833725, 3.1325744203059003e-06, 0.1310184746980667, -0.21588610112667084, -0.046903159469366074, 7.289204222615808e-05, -0.0009889279026538134, 0.1709342896938324, 0.056162279099226, -0.04202680289745331, -0.15389372408390045, -0.09190329909324646, 0.11395884305238724, -0.01393536664545536, -1.278574143149691e-22, -0.04219222068786621], [-5.823955741961391e-20, 0.14562135934829712, 7.246848690556362e-05, 0.03554762154817581, 0.13577236235141754, 0.1726125329732895, -0.005715155508369207, 0.1819271594285965, -0.19710415601730347, -0.10549741238355637, 0.12917840480804443, 0.044872455298900604, 0.13084685802459717, 0.23671293258666992, -2.363562634855043e-05, 0.0028379459399729967, 0.0408296175301075, -0.005843804217875004, 0.10881514847278595, 0.1323321908712387, -0.21835541725158691, -0.08774314820766449, 0.062510646879673, 5.2914530396241943e-11, -0.002337085548788309, -1.967456682905322e-06, -0.018376946449279785, 0.02573780156672001, 0.19148752093315125, -4.2906681679832914e-11, -0.0568888895213604, 0.15318770706653595, -0.20320074260234833, 0.19787541031837463, -2.1264319989620743e-14, 0.11572550982236862, -0.060004234313964844, -0.17744725942611694, 0.07866951078176498, 0.06498618423938751, 0.06468851864337921, -0.17313742637634277, 0.04605570062994957, 0.16770623624324799, 1.3888053847135179e-15, 0.1006336584687233, 0.1388445347547531, 0.04206011816859245, -0.2081165462732315, 1.0778359271505935e-22, -0.17509619891643524, 0.06163175031542778, 0.025296658277511597, -2.1332652977434918e-05, -0.06442809849977493, -0.18477918207645416, 0.12054217606782913, 0.1381293535232544, -0.1390262246131897, 0.17987288534641266, 0.009253088384866714, -0.03702087700366974, -1.5424071534653194e-05, -0.06351613998413086], [4.694354061030026e-08, 0.1791924387216568, -3.3208958484465256e-05, -0.09431251883506775, -0.009306833148002625, -0.13910861313343048, -0.06453203409910202, -0.11089307814836502, 0.08687826991081238, 0.1196051761507988, 0.015164218842983246, 0.17460887134075165, -0.024594957008957863, -0.09024029225111008, -1.0634760627681317e-08, -0.003915357869118452, 0.16742047667503357, 0.03451494127511978, -0.0724036917090416, 0.1354297250509262, -0.11015453934669495, 0.1646137684583664, 0.07337488979101181, 3.485466874866398e-21, 0.1559809297323227, 1.2278085850405293e-17, -0.12169622629880905, 0.07918832451105118, -0.134958416223526, 1.3822696459664385e-11, 0.1679588109254837, 0.15304262936115265, -0.02825159952044487, -0.00902812834829092, -1.3716463627133635e-06, 0.19630172848701477, -0.162822425365448, -0.05242579057812691, -0.03781997784972191, -0.09946268796920776, 0.16635076701641083, -0.12605702877044678, 0.17365391552448273, -0.14195513725280762, -0.00011158725101267919, -0.010601958259940147, -0.1516227275133133, -0.10292524099349976, 0.16453593969345093, -2.3478945877286606e-05, 0.11620865017175674, -0.21053728461265564, -0.1551261842250824, 5.020566740121524e-10, -0.06669803708791733, -0.1873515397310257, 0.011528017930686474, -0.04940472170710564, 0.11741765588521957, -0.012975387275218964, 0.2311069518327713, 0.09774044156074524, -2.3274765405142406e-20, 0.1168820858001709], [-1.029701061721733e-17, 0.0624435693025589, -1.0407524314359762e-05, -0.07393375039100647, 0.00011146843462483957, 0.12532465159893036, -0.0927380695939064, 0.10058251768350601, -0.21765576303005219, 0.033546753227710724, -0.04538597911596298, 0.13316130638122559, 0.0913100317120552, 0.277297705411911, 3.411489160498604e-05, 0.006640182808041573, 0.06211487948894501, -0.15893428027629852, 0.22043374180793762, -0.12669329345226288, -0.324972540140152, -0.15650437772274017, 0.03958761319518089, 3.210424267749557e-24, -0.1337699443101883, -2.8755223492528e-21, 0.012563532218337059, 0.05163820460438728, 0.04717503488063812, -3.134384678560309e-05, 0.14415597915649414, -0.10583896934986115, 0.06353016197681427, 0.16170381009578705, -3.010675087011805e-08, -0.0870237797498703, 0.13112908601760864, 0.2859192192554474, -0.25348013639450073, 0.028283847495913506, -0.021669739857316017, -0.2280828058719635, -0.33682310581207275, 0.22023029625415802, 3.8872643992604594e-10, -0.06377939134836197, -0.10566575080156326, -0.038423072546720505, -0.0340367928147316, -7.054966744135527e-08, 0.04102286323904991, -0.013563820160925388, 0.0621022991836071, -2.6745927243609913e-05, -0.10966210067272186, 0.02102573774755001, -0.2564813494682312, 0.004614031873643398, -0.10661199688911438, -0.18596872687339783, -0.2682669758796692, -0.07073348015546799, -2.958394134111586e-06, -0.061631474643945694], [6.52881480000083e-23, -0.02797834947705269, -1.0926082500577325e-21, -0.043070804327726364, -0.2760562300682068, -0.0036817416548728943, 0.2033379226922989, -0.007668300531804562, 0.06186467409133911, -0.04860066622495651, 0.10507303476333618, 0.16176466643810272, 0.001655622269026935, 0.2108033299446106, -2.823442400767817e-06, -0.022041060030460358, 0.16119611263275146, 0.12270842492580414, -0.12633058428764343, -0.10721183568239212, -0.21064120531082153, -0.2047787606716156, 0.12059656530618668, 2.7605529783758716e-22, -0.12107738852500916, -9.766435465629892e-18, -0.10391741991043091, -0.02521853893995285, 0.10714299976825714, 6.199683411978185e-05, 0.21052700281143188, -0.2688433825969696, 0.20855122804641724, 0.10463956743478775, 1.7357967507791727e-08, -0.028302442282438278, -0.041310831904411316, -0.07174892723560333, -0.20237231254577637, -0.07527713477611542, -0.09272708743810654, -0.005382884293794632, 0.1033601462841034, -0.007531939540058374, -2.693190072022844e-05, 0.18324017524719238, 0.1775834709405899, 0.11588173359632492, 0.21711869537830353, 2.9226278213673156e-21, 0.17989973723888397, -0.11494910717010498, -0.022647397592663765, -1.1188751258828233e-08, -0.11787664890289307, -0.17170901596546173, 0.05740095302462578, 0.10008301585912704, 0.059497442096471786, -0.15328513085842133, 0.16433720290660858, 0.07033725827932358, 1.5988126348530928e-18, 0.07652829587459564], [-4.59339288827465e-10, 0.005579868331551552, 1.293627246923279e-05, 0.003286160295829177, 0.08418690413236618, 0.10448013991117477, 0.11478642374277115, -0.20566363632678986, -0.1765155792236328, -0.25831499695777893, 0.12335990369319916, -0.019438939169049263, -0.09851650148630142, 0.16849112510681152, -9.11809408516746e-22, -0.006556261796504259, -0.030064620077610016, 0.06716351211071014, -0.2023589313030243, -0.05457821860909462, 0.1942226141691208, -0.042571309953927994, 0.0779983326792717, -2.5309923748881223e-20, -0.16185271739959717, -4.681308780618565e-07, -0.03499139845371246, -0.13319575786590576, -0.2169850915670395, 7.416972493956564e-07, 0.23710349202156067, 0.10284433513879776, 0.13082678616046906, -0.12803281843662262, 4.420258119353093e-05, -0.04793844372034073, 0.1650150567293167, 0.1621050089597702, 0.1517321914434433, 0.13501718640327454, 0.13879913091659546, -0.04014823958277702, 0.002736159833148122, -0.00782132800668478, -1.7302822016063146e-05, 0.037503719329833984, 0.2574320137500763, -0.1402575522661209, 0.18217214941978455, 9.48812157730572e-06, 0.08494435250759125, 0.21076832711696625, -0.018722420558333397, 6.681221566395834e-05, 0.0874878466129303, -0.16146747767925262, 0.03052055649459362, 0.1200069785118103, -0.14453960955142975, 0.13111954927444458, 0.15875397622585297, -0.17836585640907288, 1.9736175601932918e-20, 0.09348605573177338], [-7.94047981217202e-24, -0.2238069772720337, -9.167346433969215e-05, -0.010434355586767197, 0.22139039635658264, -0.10864192247390747, 0.06394453346729279, -0.10256419330835342, -0.17242462933063507, 0.1477024257183075, 0.12763601541519165, -0.25550177693367004, -0.0026413912419229746, -0.2086077183485031, -3.596603921600439e-22, 0.007401781622320414, -0.19308483600616455, -0.08007784932851791, -0.09187575429677963, 0.1421288251876831, 0.23798930644989014, -0.3117848038673401, 0.10837440192699432, -9.731804722104747e-18, 0.04730542376637459, 1.9500450143539183e-09, 0.06007205694913864, 0.1619473248720169, -0.0119169307872653, 1.2010535439327874e-16, 0.05388176813721657, -0.2661154270172119, -0.015994371846318245, -0.042026907205581665, 1.0222809935467813e-15, -0.10061784088611603, -0.14549151062965393, 0.15209317207336426, -0.15623828768730164, 0.005249910056591034, -0.017478065565228462, -0.1850873827934265, -0.21783016622066498, -0.15022441744804382, 2.068526555376593e-06, -0.07961154729127884, 0.046825751662254333, 0.03882678225636482, -0.03883514925837517, -8.70532631469049e-20, 0.007498928811401129, 0.03408988192677498, -0.12730251252651215, 6.455005818709018e-17, 0.12358685582876205, 0.20654208958148956, 0.173867866396904, -0.026638109236955643, 0.08022051304578781, 0.005090449936687946, -0.042630624026060104, -0.12291457504034042, 2.4912327755230246e-19, -0.21167846024036407], [-9.848176130273402e-17, 0.1979757696390152, -4.219975835439982e-08, -0.13410916924476624, -0.21818378567695618, 0.1585308313369751, 0.0375690720975399, -0.05528683960437775, 0.13315188884735107, 0.1416833996772766, -0.05537921562790871, 0.10241828858852386, 0.13456612825393677, 0.039687629789114, -9.26752591112745e-07, 0.0013586899731308222, 0.019227642565965652, -0.10477889329195023, -0.024491988122463226, -0.16826733946800232, -0.13517281413078308, 0.08490702509880066, -0.18367289006710052, 7.192228797397739e-20, -0.004197181202471256, -2.9444121537380852e-05, 0.04794800281524658, -0.10283222049474716, -0.06966374069452286, -1.5452896395210663e-13, -0.07241464406251907, -0.19373394548892975, 0.129953071475029, 0.18447227776050568, -1.2176688990450657e-08, 0.09921350330114365, 0.07939305901527405, 0.14083901047706604, -0.018283898010849953, -0.05058997496962547, -0.04994894936680794, 0.12314267456531525, 0.16523432731628418, -0.17798513174057007, -7.596704322956348e-18, 0.1591721624135971, 0.06691181659698486, 0.2019169181585312, 0.14229100942611694, 1.5218776000553013e-18, 0.030242064967751503, 0.10970284044742584, -0.1797846555709839, 2.918946908031133e-21, 0.07415742427110672, -0.16037772595882416, 0.1532129943370819, 0.049887657165527344, 0.1960413157939911, -0.1696871966123581, -0.035673484206199646, 0.013925197534263134, -1.7557010532909256e-12, 0.05753019452095032], [3.019980265861477e-09, -0.09906136244535446, -4.5297068442725367e-23, 0.03371429070830345, 0.054508812725543976, 0.10730400681495667, 0.16907186806201935, 0.06957733631134033, 0.06856546550989151, -0.06829921156167984, 0.26696476340293884, 0.07479248195886612, 0.17465195059776306, 0.13292208313941956, -8.238602161592112e-11, 9.82509518507868e-05, -0.17607790231704712, -0.07820285856723785, -0.1285044550895691, 0.25591444969177246, 0.23273450136184692, 0.053077273070812225, 0.16611291468143463, 6.928434922382183e-21, 0.20179174840450287, -4.005329622441599e-24, -0.04298218712210655, -0.2128109335899353, 0.08086657524108887, 2.4063101511373475e-10, -0.04195920005440712, -0.22991812229156494, 0.12081166356801987, -0.22639694809913635, 1.866903766994943e-12, 0.3057757019996643, -0.06105215102434158, -0.18609999120235443, 0.16713304817676544, 0.08379767835140228, 0.12686268985271454, 0.2800242602825165, -0.1581379622220993, -0.0450102835893631, 2.8368149843083224e-11, 0.14197595417499542, -0.1394181251525879, 0.12262535095214844, 0.08111311495304108, 7.072706498009625e-19, -0.062485046684741974, 0.13819490373134613, -0.19017282128334045, 7.438250997126097e-14, -0.08159355074167252, 0.1463305652141571, 0.11682011187076569, 0.16039195656776428, -0.16496802866458893, 0.13616593182086945, 0.12553003430366516, 0.11796215921640396, 8.932982382248156e-06, -0.21532544493675232], [-1.0371341609691827e-14, -0.1621788591146469, -8.13746601637927e-22, 0.00042316847248002887, 0.05842871963977814, -0.09307476878166199, 0.08240470290184021, -0.05450921878218651, -0.06803005188703537, -0.08172368258237839, -0.11687534302473068, 0.023556597530841827, -0.031140035018324852, -0.05004570633172989, -7.545402020206482e-14, 0.0072321523912250996, -0.25284266471862793, -0.04406650736927986, 0.12242922186851501, 0.06989727914333344, 0.12846609950065613, -0.17776763439178467, -0.0980987399816513, 8.8919376146476e-20, 0.19903908669948578, -6.9268394327082206e-06, 0.008595091290771961, -0.1512373834848404, -0.09802259504795074, 7.183964044088498e-05, -0.2816271483898163, -0.28759053349494934, -0.20531629025936127, 0.2191736400127411, -4.514319243753562e-06, 0.020281648263335228, 0.06298539787530899, 0.02148323692381382, 0.021037274971604347, -0.020279057323932648, 0.10557810217142105, -0.052025340497493744, -0.10120360553264618, -0.07318264991044998, -1.6784497403055099e-10, -0.07926834374666214, -0.08141244202852249, 0.1980835348367691, 0.07206666469573975, -1.536850140837487e-05, -0.11553990840911865, 0.10055463761091232, -0.14270330965518951, -9.498945473751519e-06, 0.03114299476146698, 0.06795049458742142, 0.09760220348834991, -0.06764804571866989, -0.2866392731666565, 0.25446590781211853, -0.10571596771478653, 0.07793445140123367, 3.5587064978886973e-12, -0.04300886020064354], [8.247244711158744e-14, -0.058346252888441086, 2.726388332950545e-19, 0.09878004342317581, 0.1469878852367401, -0.2032015323638916, -0.11871363967657089, 0.1767149269580841, 0.10482967644929886, 0.16550928354263306, -0.11395063251256943, 0.06058928743004799, 0.09862687438726425, 0.0658540427684784, -2.844658099945494e-19, -0.0285020861774683, 0.03699098154902458, -0.11727536469697952, -0.009733499959111214, 0.22826844453811646, -0.020643815398216248, 0.18773609399795532, -0.10602568835020065, -6.1314631350688556e-15, 0.20157715678215027, -6.802543339290423e-06, -0.07558401674032211, -0.02090183086693287, -0.1556035876274109, 1.0995990784579135e-09, 0.22683930397033691, 0.05828804895281792, -0.08671187609434128, -0.046025920659303665, 5.870860741996609e-11, -0.1848251223564148, 0.019092736765742302, 0.048357121646404266, 0.07212775200605392, -0.06174566224217415, 0.09693817794322968, -0.15172678232192993, -0.11518892645835876, 0.12225919961929321, 3.942464410489066e-10, -0.2262786626815796, -0.22574374079704285, -0.12937243282794952, -0.07169091701507568, -1.6385660606133001e-09, -0.1743287593126297, 0.027631867676973343, 0.11064865440130234, -1.5064581262567004e-18, 0.061319004744291306, -0.1978570520877838, 0.22022384405136108, 0.1590803861618042, 0.13818864524364471, 0.1652144342660904, 0.253559947013855, -0.014990899711847305, -6.591380952158943e-08, -0.03268430009484291], [6.217304449052108e-10, 0.18866607546806335, 4.229819667213214e-22, -0.09066931158304214, 0.05692152678966522, 0.08057920634746552, 0.08028274774551392, 0.0007447714451700449, -0.1178506538271904, -0.1315837800502777, 0.2747693359851837, 0.044799208641052246, 0.21596093475818634, -0.06461524963378906, 2.9370509690427935e-18, -0.00684353057295084, 0.02106097713112831, -0.04256494715809822, -0.11497915536165237, 0.13346116244792938, 0.285978227853775, -0.20431484282016754, 0.22875864803791046, -4.3512615385821185e-12, -0.010016917251050472, -6.806323654018342e-05, -0.059638846665620804, -0.10886535048484802, -0.26273128390312195, 1.092318782281727e-22, 0.17217163741588593, -0.16925649344921112, 0.09877020120620728, -0.05302070826292038, 7.587873607434528e-16, 0.018067967146635056, -0.2017902135848999, -0.23939645290374756, -0.08983144164085388, -0.09717664867639542, 0.18557195365428925, 0.2611919343471527, 0.19468604028224945, 0.016586225479841232, -5.016904196963878e-06, -0.10688638687133789, -0.10621391981840134, -0.11456608772277832, 0.07882393151521683, -4.744887525724421e-22, -0.03636893630027771, -0.11475944519042969, 0.07684396207332611, 3.292948846933541e-08, -0.07553793489933014, 0.16470323503017426, 0.2567492127418518, -0.023726431652903557, -0.14119616150856018, 0.10063236206769943, 0.30619657039642334, 0.12116464972496033, -6.644086624874035e-06, -0.03241498023271561], [-7.250558763073365e-21, 0.049551524221897125, -9.844075776754835e-08, 0.01689319871366024, 0.24839100241661072, 0.10830079764127731, 0.18578976392745972, 0.1219266802072525, -0.22616447508335114, 0.00027736558695323765, -0.06873434036970139, -0.017185086384415627, -0.07005519419908524, 0.056416645646095276, -7.998232298689345e-09, -0.0002626111381687224, -0.20954865217208862, -0.2036164104938507, 0.02035795897245407, 0.12740759551525116, 0.06665275245904922, -0.47996804118156433, -0.13810980319976807, -7.269351044669747e-05, -0.11254944652318954, 5.2572745516954456e-06, -0.002422075252979994, -0.11663414537906647, -0.24249836802482605, -1.412450068016824e-08, -0.09297624975442886, -0.3365784287452698, -0.22015328705310822, -0.16797113418579102, 1.8457400063730084e-18, -0.041627414524555206, -0.1625758409500122, 0.12444721162319183, 0.11278069019317627, 0.010995971970260143, 0.13463079929351807, 0.030511144548654556, 0.05584001541137695, -0.00428979704156518, 1.2761084506804354e-12, -0.130189448595047, -0.14537395536899567, -0.03152260184288025, 0.2056540846824646, -3.510736499409811e-18, 0.01328352838754654, -0.259422242641449, -0.01267256960272789, -3.900928732036846e-06, -0.0405697263777256, -0.13857455551624298, 0.12467359006404877, -0.09143301844596863, -0.13146968185901642, 0.2326270490884781, -0.11453326791524887, 0.01461286935955286, 8.946537997424635e-20, -0.3066841661930084], [4.17298871013827e-08, -0.1983962208032608, 6.370598963583532e-23, 0.025900285691022873, 0.027532175183296204, 0.14245688915252686, -0.15337194502353668, -0.22844812273979187, -0.008860219269990921, 0.08153049647808075, 0.12310606986284256, 0.20599247515201569, 0.13387556374073029, 0.05069155991077423, -1.4067531658328893e-15, 0.0023267280776053667, 0.048568446189165115, -0.14788170158863068, 0.20613297820091248, 0.11206050962209702, -0.02229166403412819, -0.35605090856552124, -0.06303931772708893, 8.387313243929384e-08, 0.10348880290985107, -5.3611792338870146e-08, -0.01980653777718544, 0.2631569802761078, 0.006090885493904352, 2.708641285999319e-21, 0.2725610136985779, -0.3239003121852875, -0.0022176357451826334, -0.2027035504579544, -1.213495796183463e-17, 0.10848953574895859, -0.0031230784952640533, 0.2408471405506134, -0.000807798991445452, -0.010222396813333035, -0.1015036478638649, -0.07964947819709778, -0.12232036143541336, -0.1253984421491623, -2.0776893083486966e-18, -0.030603639781475067, 0.0851266011595726, 0.06057838350534439, 0.06498047709465027, -9.307285654358566e-05, -0.1194639801979065, 0.16714954376220703, 0.056536637246608734, -9.96209419099614e-05, 0.11468398571014404, 0.10206032544374466, 0.007347872015088797, -0.25168147683143616, 0.15812569856643677, 0.0231577567756176, 0.1197500005364418, 0.16649457812309265, 8.111934590715464e-08, -0.08207076787948608], [-1.5325633739848854e-06, 0.14836762845516205, 7.099024489968919e-18, 0.07523063570261002, -0.1032528430223465, -0.16912387311458588, 0.20853906869888306, 0.09245846420526505, 0.14536170661449432, 0.06133124977350235, 0.08563946932554245, 0.07807443290948868, 0.21010197699069977, -0.02478494495153427, -1.0356463396563967e-17, -0.013068797998130322, -0.03814283013343811, 0.08345048129558563, -0.09911904484033585, -0.0706232339143753, -0.037554796785116196, -0.11806051433086395, -0.06541478633880615, 2.813892344907806e-20, 0.2772298753261566, -6.326364692728531e-23, -0.08704885095357895, -0.16509774327278137, 0.0761033445596695, -2.4199230858784766e-18, 0.17531080543994904, 0.08391653746366501, 0.10991862416267395, -0.11655111610889435, -3.675425374748305e-14, -0.04098133742809296, 0.1422116458415985, 0.02311050146818161, -0.03253593668341637, -0.06367954611778259, -0.025578970089554787, 0.13863441348075867, -0.0717998743057251, -0.016777560114860535, -2.6822338794474376e-10, 0.05464218556880951, 0.22715501487255096, 0.11323828250169754, 0.1725602149963379, -1.4204947262896894e-07, -0.15687119960784912, 0.10772769153118134, -0.08425050973892212, -2.5760564314899296e-20, -0.1782236099243164, -0.11895079910755157, -0.14478972554206848, 0.20073316991329193, -0.1295311003923416, 0.07958313077688217, -0.1085953339934349, 0.01617591455578804, 2.198145027001823e-14, 0.12281211465597153], [4.757508577313274e-06, -0.07239346951246262, 7.5085122261953074e-06, -0.0020367915276437998, 0.1665809452533722, 0.16984251141548157, -0.09109587967395782, 0.04794951155781746, -0.258121132850647, -0.1763075441122055, 0.23999714851379395, -0.1667628288269043, 0.1383538544178009, 0.1060432717204094, 1.4266165635490324e-06, 0.022850127890706062, -0.13433368504047394, -0.18699917197227478, -0.09196560829877853, -0.19647638499736786, -0.18786802887916565, -0.1525857299566269, 0.11602988094091415, 2.3269707001826188e-20, -0.09138842672109604, 6.213448830462139e-16, 0.013671491295099258, -0.2740286588668823, 0.06088610365986824, 1.150155102521705e-17, 0.040490735322237015, -0.31077003479003906, 0.008557623252272606, 0.06798595935106277, 1.2741886116799004e-20, 0.0660184696316719, 0.14196154475212097, -0.0010506163816899061, 0.05853117257356644, 0.09258944541215897, 0.13863912224769592, -0.007205619011074305, 0.08750098943710327, -0.08689560741186142, -8.479230650948466e-09, 0.056840404868125916, -0.0012889401987195015, 0.18401512503623962, -0.058157991617918015, -4.916161471369151e-22, -0.05494794249534607, 0.11762692034244537, 0.16003277897834778, 6.728460479562718e-17, 0.09679750353097916, 0.10648688673973083, 0.047266073524951935, -0.1692568063735962, -0.0658198893070221, 0.09469045698642731, 0.029282154515385628, -0.07599353790283203, 2.658426274138037e-05, -0.22174300253391266], [2.88947719453652e-24, 0.11952172964811325, 2.5869481253340543e-13, -0.03792566433548927, -0.17054636776447296, -0.14089184999465942, 0.0744367390871048, 0.02711816504597664, -0.20627190172672272, 0.09763214737176895, -0.003156235907226801, 0.09069827198982239, 0.168924018740654, -0.1719117909669876, -7.266616739798337e-05, 0.00022266400628723204, 0.06928040087223053, 0.07598484307527542, 0.15424495935440063, 0.14731937646865845, 0.22833570837974548, -0.19139446318149567, 0.025156382471323013, -2.356809980622505e-19, -0.1710154116153717, 3.1602419146717083e-21, -0.045840784907341, 0.2310362458229065, 0.047680288553237915, 3.262932057946648e-19, -0.01801958866417408, -0.35511261224746704, -0.25255393981933594, -0.05130526050925255, -1.2121380677854177e-05, 0.06814006716012955, 0.14075736701488495, 0.1410556435585022, 0.08165854215621948, -0.06918337196111679, 0.25235289335250854, 0.198816180229187, -0.11388176679611206, 0.08347813785076141, -1.2764560242128908e-11, 0.11572962999343872, 0.21021932363510132, -0.20879508554935455, 0.19914689660072327, 1.0230655842839552e-17, 0.184669628739357, 0.024508100003004074, 0.15616929531097412, -2.3678474462940358e-05, -0.06653930246829987, -0.2018587738275528, 0.2365577667951584, 0.13348853588104248, 0.1497206836938858, 0.22122372686862946, -0.12925225496292114, -0.05576198548078537, -1.8397218809695914e-05, -0.17848576605319977], [-8.150172980947445e-09, -0.030336575582623482, -1.6725820728424878e-10, -0.07099805027246475, -0.11637050658464432, -0.09864982217550278, 0.1509404182434082, 0.09640728682279587, 0.18664272129535675, 0.04386068135499954, -0.15513356029987335, 0.21935684978961945, -0.12302950769662857, -0.02040962688624859, -6.298665145010318e-09, -0.015910305082798004, -0.024486441165208817, -0.07339344173669815, 0.16744038462638855, -0.24172179400920868, -0.1762167364358902, 0.1178368404507637, -0.20383533835411072, -1.1603545637292839e-15, 0.12694793939590454, -7.934435757306346e-07, -0.11499110609292984, 0.11423345655202866, 0.004451732616871595, 1.2798881607502035e-20, 0.21742115914821625, -0.16836318373680115, 0.07930485159158707, -0.014828836545348167, -1.3009999975110986e-06, 0.009046314284205437, -0.035240378230810165, 0.06104949116706848, -0.23107334971427917, -0.01435783039778471, -0.058879345655441284, 0.0935496911406517, -0.2551231384277344, 0.010235772468149662, -2.637544142998106e-21, 0.08162245899438858, 0.17293496429920197, 0.06543579697608948, 0.09072869271039963, 1.7077813936339226e-06, -0.06372877210378647, 0.13404612243175507, 0.2318798154592514, 8.860059460857883e-05, 0.13999143242835999, -0.07033824175596237, -0.18783043324947357, -0.07169482856988907, 0.17972929775714874, -0.04619317874312401, -0.027762537822127342, 0.19562102854251862, 8.115211571151128e-17, 0.16525645554065704], [-3.3855233266543037e-19, -0.006038823630660772, -2.2122264916650573e-21, -0.023721542209386826, -0.08962798118591309, -0.20158949494361877, 0.2784919738769531, -0.12290874123573303, -0.13601258397102356, -0.048929162323474884, 0.0957479253411293, -0.08721800148487091, -0.02437470853328705, -0.07987978309392929, -1.0652993584093814e-17, 0.007992895320057869, -0.2558937668800354, 0.04107595980167389, -0.25025784969329834, -0.05594545602798462, -0.03760647028684616, -0.27827444672584534, 0.21094414591789246, -1.4629818190226018e-11, 0.3047523498535156, 5.586054248851724e-05, 0.020915092900395393, -0.2797713577747345, -0.17176207900047302, 5.799581614951421e-08, -0.16607984900474548, -0.3674887418746948, -0.1439494788646698, 0.1649155616760254, 5.153767546062227e-08, -0.04597735032439232, -0.009760054759681225, -0.23294171690940857, -0.03598583862185478, 0.080501489341259, 0.0662047415971756, -0.013267318718135357, -0.1375272423028946, 0.08703850209712982, 4.127299746414792e-08, 0.06908490508794785, -0.13221223652362823, -0.14110326766967773, 0.050462305545806885, -1.982416754705401e-17, -0.10630270093679428, -0.16556014120578766, 0.07051149755716324, -4.342879765317775e-05, -0.06414549052715302, -0.11100920289754868, -0.03712337464094162, 0.2652023434638977, -0.12503930926322937, 0.07426165789365768, 0.14118681848049164, -0.22143374383449554, 9.629994256936535e-23, -0.15214866399765015], [3.2092919801619983e-19, 0.3021077513694763, 7.400981161254094e-09, -0.09016335010528564, 0.008233733475208282, -0.16750653088092804, -0.12969227135181427, -0.1439957618713379, -0.11855386197566986, -0.04703362658619881, 0.11192303150892258, 0.14809858798980713, 0.06972164660692215, -0.09802260994911194, -3.319347888464108e-05, -0.014506262727081776, -0.009860244579613209, -0.037547800689935684, 0.10434385389089584, -0.06738001853227615, -0.13550163805484772, -0.22850117087364197, -0.03165993094444275, -3.376109816599637e-05, 0.14262327551841736, -4.80822063764208e-06, -0.034183062613010406, -0.1022183820605278, -0.18115726113319397, -6.753696850153037e-18, 0.15011043846607208, -0.20386742055416107, 0.012249578721821308, -0.18024314939975739, 9.673343015492719e-09, -0.04046406224370003, -0.005123285111039877, -0.04867260903120041, 0.24413222074508667, -0.02807791717350483, -0.02843538299202919, -0.1293998807668686, 0.23391322791576385, -0.09102590382099152, 1.1747575356935158e-08, -0.1313011199235916, -0.06781445443630219, -0.20815882086753845, 0.27743035554885864, 5.564448480506749e-16, 0.16664035618305206, -0.11798268556594849, -0.0071496497839689255, -2.996280117463848e-14, -0.07061894237995148, 0.137058287858963, 0.2785907983779907, 0.2232385128736496, 0.052187878638505936, -0.018053019419312477, 0.010831758379936218, 0.131949782371521, -8.913240890251473e-05, 0.004517624620348215], [3.284740318285073e-12, -0.10094498842954636, 8.992853690870106e-05, -0.05326316878199577, -0.12332598119974136, 0.012479203753173351, -0.20063966512680054, -0.11943864077329636, -0.0658482238650322, 0.37289196252822876, -0.00995662808418274, 0.06384830176830292, -0.22737254202365875, 0.40885093808174133, -2.4077959096757695e-05, -0.02095365710556507, 0.06687896698713303, 0.030615309253335, 0.05692311003804207, 0.0011762259528040886, -0.198371022939682, -0.002242578659206629, -0.29766979813575745, 7.924201446511731e-22, -0.11800960451364517, 1.4498097167248147e-09, -0.0018902593292295933, 0.28078165650367737, 0.3898116946220398, 1.906923898786772e-07, 0.26044055819511414, -0.18087218701839447, -0.09465650469064713, -0.1413675993680954, 1.9762076987995614e-15, -0.23626631498336792, 0.15994246304035187, 0.3720620572566986, -0.0048570712096989155, 0.12016740441322327, -0.20372344553470612, -0.10107792913913727, -0.30998578667640686, 0.05790036916732788, -1.6982832562462136e-07, -0.08509808033704758, 0.1322798728942871, 0.1360001266002655, -0.3185513913631439, 2.5473689824195844e-10, 0.005084918811917305, 0.14607122540473938, 0.21696346998214722, -7.18914836515816e-13, 0.030986880883574486, -0.04317697510123253, -0.34297916293144226, -0.3666194975376129, 0.21843643486499786, -0.005941587965935469, -0.24454574286937714, 0.27884408831596375, 1.411798623462328e-15, 0.2742392420768738], [2.3269032567441172e-07, 0.07128232717514038, 1.0981175473803533e-15, -0.02577589824795723, 0.017798002809286118, -0.129154235124588, -0.16664817929267883, 0.15552140772342682, -0.09042501449584961, -0.20819111168384552, 0.1052049919962883, -0.13971424102783203, -0.09647489339113235, 0.15643681585788727, -2.486853922789578e-08, -0.004953227937221527, -0.02223188802599907, 0.11313049495220184, -0.28743985295295715, 0.06760406494140625, 0.0712025910615921, -0.35621434450149536, -0.10892947763204575, 2.5856375094287665e-20, 8.109919144771993e-05, 2.4163391572074033e-05, 0.03354678675532341, 0.12079791724681854, -0.18955008685588837, 5.5581935157533735e-05, -0.1263902485370636, -0.29711946845054626, -0.36734139919281006, -0.1712849736213684, -4.54678476943457e-14, 0.045269664376974106, -0.16283316910266876, -0.03117651678621769, -0.048863619565963745, 0.015174929052591324, 0.13063330948352814, 0.20040450990200043, 0.18294808268547058, -0.014435334131121635, -4.485050374495606e-17, -0.04554807394742966, -0.14620980620384216, -0.06706021726131439, -0.08360904455184937, -1.2073967809556052e-05, -0.005655866581946611, -0.13511785864830017, 0.07420235127210617, -1.537936888951208e-08, -0.035081084817647934, 0.1473388671875, 0.17584633827209473, -0.0015509161166846752, -0.10220411419868469, -0.02404058910906315, 0.17371763288974762, -0.19583554565906525, 2.1183628632570617e-05, -0.03651132434606552], [-1.1381849728468024e-21, -0.10592303425073624, -1.7566574256337504e-22, -0.0971764475107193, -0.273001492023468, 0.055660493671894073, 0.2976949214935303, 0.011054906994104385, 0.06234412640333176, -0.2534232437610626, 0.033114757388830185, -0.21219781041145325, 0.12312112748622894, 0.07253672182559967, 1.90168362251776e-15, -0.014335260726511478, -0.10669749230146408, 0.01123637706041336, -0.09657299518585205, 0.24422256648540497, 0.21527917683124542, -0.16175676882266998, 0.04001279175281525, -7.507292565378521e-10, -0.09594760835170746, 1.0781782462181993e-16, -0.046287450939416885, 0.05591665580868721, 0.01819891668856144, -1.8911465303972363e-05, -0.03222306817770004, -0.2949675917625427, -0.2864057421684265, 0.12408313155174255, -4.139093653066084e-05, 0.04880726337432861, -0.24271464347839355, 0.07639627903699875, 0.08998717367649078, -0.07212263345718384, 0.19099098443984985, 0.19027079641819, 0.31531500816345215, -0.2577151358127594, 4.428939519129926e-06, 0.1723911166191101, 0.1903364658355713, 0.05172235891222954, 0.147353395819664, -3.270038573384244e-19, 0.09368240088224411, -0.01689036749303341, 0.005456860177218914, -1.2663904957020274e-20, 0.07625085860490799, 0.126994326710701, -0.055988967418670654, 0.2179485559463501, -0.045852020382881165, 0.23828253149986267, 0.0888579934835434, -0.14169666171073914, 1.1977646863670088e-05, -0.23129422962665558], [7.617717869834451e-07, -0.25932449102401733, -3.135691174906037e-23, -0.10066462308168411, -0.11181513220071793, 0.19840973615646362, -0.4530108869075775, -0.11464092135429382, -0.18981677293777466, 0.5216159820556641, -0.06982994824647903, 0.22630849480628967, -0.14509673416614532, 0.24882882833480835, -3.337059090429556e-15, -0.003367217956110835, 0.47852516174316406, -0.05393354222178459, 0.39637240767478943, -0.39552655816078186, -0.02797563560307026, -0.18205657601356506, -0.21866700053215027, 1.568192457502757e-15, -0.21820895373821259, -3.4544470963737695e-06, 0.04880817234516144, 0.17907024919986725, 0.33621740341186523, -1.3789390074236962e-08, 0.10133098065853119, 0.06495121866464615, 0.15488049387931824, -0.16376730799674988, -3.5878795756616455e-07, -0.3201892673969269, 0.40323179960250854, 0.455855131149292, -0.43117886781692505, -0.032776977866888046, -0.39721712470054626, -0.473135381937027, -0.2343110740184784, 0.33020585775375366, -5.366091500036418e-07, -0.1326075792312622, -0.025641223415732384, 0.13771313428878784, -0.030184544622898102, -1.8849634670914384e-06, -0.08106512576341629, 0.47018787264823914, 0.4842257797718048, 8.837695892214288e-20, -0.17167285084724426, -0.21380066871643066, -0.25562235713005066, -0.3314691483974457, 0.06456412374973297, -0.2240126132965088, -0.47792765498161316, 0.3840661942958832, -3.7119215680499456e-15, -0.05511782690882683], [1.0103951082493852e-19, -0.02826083078980446, 6.140814366517588e-05, -0.10665284842252731, -0.027987871319055557, 0.05680311471223831, -0.09260065108537674, 0.18861137330532074, -0.3010087311267853, 0.034597381949424744, -0.15435613691806793, -0.13132286071777344, 0.18922649323940277, 0.1287950873374939, -1.2153141604187567e-08, 0.006584641523659229, 0.11410454660654068, 0.19537761807441711, -0.23138152062892914, -0.06599551439285278, -0.04220817610621452, -0.05548052489757538, -0.1858631670475006, -3.198625719846859e-08, 0.14032265543937683, -3.226211265427992e-05, 0.00577102554962039, -0.08203790336847305, -0.12561114132404327, 1.2037825037634672e-18, -0.07042116671800613, -0.4000190794467926, -0.14578194916248322, 0.14934629201889038, 3.3495561879703928e-09, -0.12106171995401382, -0.15312336385250092, -0.14952155947685242, -0.03046712838113308, -0.008218296803534031, 0.26768767833709717, -0.16364888846874237, -0.19797219336032867, 0.004132267087697983, 2.6177055857147524e-13, -0.11862645298242569, -0.2350783348083496, -0.09598511457443237, 0.18509869277477264, 6.249525540624745e-06, -0.05580858513712883, -0.21467478573322296, -0.07497057318687439, -3.148408866948671e-09, 0.06160019710659981, 0.15489768981933594, 0.06487354636192322, 0.14966441690921783, -0.10179145634174347, -0.11619401723146439, 0.04571882635354996, -0.05356557294726372, -3.655933960785857e-15, -0.20432186126708984]], "b": [-0.18204540014266968, 0.24172215163707733, -0.1494540572166443, 0.23228111863136292, 0.2348882406949997, 0.1375655084848404, 0.046164434403181076, 0.01761622168123722, 0.22872740030288696, -0.06697472184896469, -0.034696925431489944, 0.1302187591791153, -0.05456279590725899, -0.022467559203505516, -0.07377765327692032, 0.029026681557297707, 0.18866395950317383, -0.14009922742843628, 0.2403355985879898, 0.08324936777353287, 0.12470725178718567, -0.04808405786752701, 0.13542203605175018, -0.2103145271539688, 0.19193829596042633, -0.19990813732147217, 0.15409444272518158, 0.2861337661743164, -0.03649565204977989, -0.1259286105632782, 0.19481080770492554, -0.10970675945281982, 0.18658629059791565, -0.19142447412014008, -0.16260255873203278, 0.20604442059993744, 0.08635227382183075, 0.18007266521453857, -0.090558722615242, 0.06884230673313141, 0.10170945525169373, 0.03978265821933746, 0.056686218827962875, 0.020608874037861824, -0.030837589874863625, -0.11261074990034103, 0.2609311640262604, -0.12569907307624817, 0.09418641775846481, -0.11592399328947067, 0.04848215728998184, 0.19951453804969788, -0.07635804265737534, -0.19129887223243713, -0.16597256064414978, 0.03016575053334236, 0.1552315205335617, -0.21727700531482697, 0.14188912510871887, -0.07549882680177689, 0.0328243225812912, 0.1907738894224167, -0.07304435968399048, 0.00945738423615694]}, {"w": [[-0.00035101137473247945, -7.33208071324043e-05, -1.4151114058336134e-08, -0.0002632152463775128, 2.0283539322385127e-16, 4.6200780478039945e-20, -8.461314496335883e-21, -2.797199840642861e-06, -2.484818462100691e-10, -8.359509780361471e-14, 0.00022754115343559533, -0.00016001691983547062, 3.253153772675432e-05, 1.0489258920404442e-19, -6.864592573405715e-21, 2.5855817442202877e-24, -0.00010092565207742155, -5.836962372995913e-05, 1.130186900496129e-18, 5.909779366179355e-14, 7.110702426871285e-05, 1.645717704692759e-18, -1.0265825949318241e-05, 9.524221411538747e-10, -3.50446782704239e-10, -8.435770044265123e-22, 1.0200755518052773e-10, 4.391828770167194e-05, 5.129268174641766e-07, 1.521260981768302e-12, 3.544669982882831e-12, 0.0001468801638111472], [-0.13076193630695343, -0.2727099657058716, -0.07062574476003647, -0.13101600110530853, 0.19875332713127136, -0.019342459738254547, 0.00866592675447464, 0.05508708581328392, 0.07722292840480804, -1.5684706138052729e-12, -7.757694904216364e-14, 0.01890021748840809, -0.12741102278232574, -0.19686302542686462, -0.22498269379138947, 0.2769778370857239, 0.32353124022483826, -5.723518938660502e-15, -0.05502430349588394, 1.3057980683241727e-18, 0.030562469735741615, 0.25314971804618835, -0.07262654602527618, -0.30899566411972046, 6.99855395858151e-10, -0.0817265510559082, -0.024088770151138306, -0.0484856553375721, -0.0003766057488974184, 0.2734925150871277, 0.1609983742237091, 0.01530524343252182], [1.6281673827381175e-22, -6.673605821561068e-05, -8.289236695117844e-21, 7.389651751211465e-17, 1.0955534893135084e-17, -1.0352800640811582e-17, -6.175487499149312e-08, -5.04907984577585e-05, -1.1514969533443775e-11, -4.809039455722086e-05, -2.522276645322563e-06, 0.0003581068594940007, -1.6598580987704116e-20, 1.428179184133268e-23, 1.8820337572833523e-05, 0.00041966131539084017, 3.6870870116091124e-19, 1.5145393490456627e-06, -5.250953209572085e-13, -5.855923385089667e-11, 1.5779307704819213e-18, 4.2344434707762557e-13, 6.335250466588116e-12, -1.0803223766953085e-11, -1.4836007721896749e-05, 3.321677819140365e-16, -1.760408304107841e-05, 2.0419621627710066e-19, 5.1174137843945644e-11, 1.5337661696257499e-10, 3.842114537633279e-08, 1.8337321307626553e-05], [-3.8956049376783385e-25, -0.24798789620399475, -6.099523957847619e-17, -1.582540448907821e-06, 0.3195481300354004, -0.3246558606624603, -0.288362056016922, 0.33860304951667786, -0.17578615248203278, -9.689592843642458e-07, -1.9361639715498313e-05, 0.00021872120851185173, -0.1644941121339798, -1.2231795730786026e-22, 2.06906719123375e-19, 0.3319148123264313, 0.3265227973461151, -0.00013692410720977932, 0.32917311787605286, 2.041150491794939e-19, -0.2921452522277832, 0.3305792808532715, -0.21147839725017548, -0.24501198530197144, -0.0001956495107151568, -1.1346557953280172e-23, 0.3317212462425232, -0.23880840837955475, -4.203349474041218e-11, 0.33228304982185364, -0.2602146565914154, -0.2607001066207886], [6.273895536423879e-08, -0.5347415804862976, -8.117695892315645e-16, 1.9341182081340216e-15, 0.7339934706687927, -0.7803401947021484, -0.554374098777771, 0.7252174615859985, -0.646492600440979, 6.039423533366062e-05, -0.00030360594973899424, -9.70266315208912e-12, -0.8363393545150757, 0.06653465330600739, 0.009570781141519547, 0.6375542879104614, 0.7433018684387207, -5.902754647323811e-18, 0.7824845314025879, 6.461642927889801e-21, -0.6844360828399658, 0.8508787155151367, -0.8532969355583191, -0.8481513261795044, 3.021653296034704e-19, 0.0002479890827089548, 0.5974262356758118, -0.9285772442817688, -0.004602063447237015, 0.6373580098152161, -0.7940210700035095, -0.6399211287498474], [0.21528513729572296, 0.28590264916419983, -0.03600495308637619, 4.721334454432832e-19, -0.475652813911438, 0.38767197728157043, 0.20753523707389832, -0.3183702528476715, 0.38069528341293335, -2.4437270820857653e-20, -2.3537516709727212e-15, -0.22216960787773132, 0.39186516404151917, 0.2079194039106369, 0.05110456049442291, -0.02179049327969551, -0.40325450897216797, 1.110433679238243e-22, -0.19395527243614197, 3.596920964419594e-19, 0.2085135132074356, -0.3136499524116516, 0.36705467104911804, 0.18546968698501587, -4.737069957627682e-06, 0.1100112795829773, -0.322573184967041, 0.4840116798877716, 0.043099671602249146, -0.15010201930999756, 0.42006978392601013, 0.34000906348228455], [-0.0883297473192215, -0.08722876757383347, 1.980256855909702e-21, -0.16217519342899323, 0.37068334221839905, -0.035000890493392944, -0.3079521059989929, 0.2557639181613922, -0.4565383195877075, -7.49300079405657e-06, 5.886225639980441e-20, 0.03840132802724838, -0.47605031728744507, 0.2055138796567917, 0.10799261182546616, 0.34170442819595337, 0.45644980669021606, -7.61582050472498e-05, 0.2834218442440033, 7.605398983811016e-17, -0.11168240010738373, 0.42452558875083923, -0.3265872299671173, -0.045194752514362335, -2.016826874751132e-05, 0.1755569577217102, 0.4828238785266876, -0.2924894392490387, 0.07070279866456985, 0.017700552940368652, -0.3073417842388153, -0.2733458876609802], [0.03436105698347092, 0.20746736228466034, 3.8092741309371514e-13, -4.214812629787779e-22, 0.1664518564939499, 0.21015937626361847, -0.23905391991138458, 0.00032552305492572486, -0.1729419231414795, 1.6646073390802485e-06, -1.6727351725975836e-09, -0.1773737668991089, -0.043566133826971054, 0.060247719287872314, 5.91218938667253e-17, -0.206339031457901, 0.06430058926343918, 4.6772467612754554e-05, 2.802961724384528e-17, -3.097045748745586e-07, -0.042724642902612686, -0.2015720158815384, 2.2321469259622972e-06, 0.14946377277374268, -2.0935697026942486e-19, -0.08009420335292816, 0.16360028088092804, 1.0551009407159946e-20, 2.8720530735881766e-06, 0.07956043630838394, 0.12744265794754028, 0.03730841726064682], [-0.06186029687523842, 0.5632521510124207, 1.1076138233573273e-21, 0.0350763201713562, -0.6236671805381775, 0.3379982113838196, 0.4146057963371277, -0.5158855319023132, 0.25857308506965637, 6.422351871411752e-18, 8.260879269528232e-08, 0.0022964621894061565, 0.2730172872543335, 0.06990454345941544, -0.20897094905376434, -0.4367639422416687, -0.5919559001922607, -1.7612188685234287e-06, -0.7272770404815674, -2.651916021631477e-18, 0.17776213586330414, -0.4719310998916626, 0.6589754223823547, 0.3786192238330841, 3.339334088576983e-17, 0.15932635962963104, -0.44446519017219543, 0.7515833973884583, -0.22203166782855988, -0.5127748847007751, 0.4055173397064209, 0.5416637063026428], [0.15782806277275085, 0.2385621815919876, 0.13985557854175568, -0.1184624657034874, -0.459370493888855, -0.0332639105618, 0.07757435739040375, -0.10209670662879944, 0.3353414833545685, -0.0001787875226000324, 0.00014704094792250544, 0.15965640544891357, 0.12273593246936798, -0.22281242907047272, -0.18532977998256683, -0.4184900224208832, -0.4076443314552307, 4.243587498819855e-22, -0.35381442308425903, -1.980025911567547e-15, 0.4789406359195709, -0.11879134178161621, 0.31522828340530396, 0.05971067026257515, 4.19621610994883e-17, 0.036436960101127625, -0.4007405638694763, 0.168351411819458, 0.08339002728462219, -0.12622414529323578, 0.18028679490089417, 0.2515672743320465], [-0.06031017750501633, -0.25620129704475403, -0.04557545483112335, -0.14763152599334717, -0.07474877685308456, 0.1300082504749298, -0.030371982604265213, 0.06419134140014648, -0.17493535578250885, -1.0570980280720406e-17, -7.903169318979053e-08, -0.21050713956356049, -0.24673254787921906, 0.13499759137630463, 0.06671999394893646, 0.14170345664024353, 0.10917175561189651, 8.166029874701053e-05, -0.07581667602062225, -1.6242127642840387e-09, -0.182484433054924, 0.261630117893219, 0.08989803493022919, -0.22898852825164795, 1.9267721654614434e-05, 0.15588560700416565, -0.03402608260512352, -0.0268737580627203, -0.05870043858885765, 0.3435511589050293, -0.2525502145290375, 0.08821099251508713], [-0.11152812093496323, 0.15698100626468658, -0.022593539208173752, 0.028366241604089737, 0.20345021784305573, 0.1257002055644989, 0.21521657705307007, 0.001969535369426012, 0.13671588897705078, -1.1607165106397588e-05, -3.2531935571974845e-19, 0.015469644218683243, -0.03486402705311775, -0.003502222942188382, 0.2232929766178131, -0.1430528461933136, 0.13901495933532715, -5.7916787667186594e-18, -0.097987100481987, -5.581432105827844e-06, 0.21200168132781982, 0.2418232411146164, 0.13047853112220764, 0.25563326478004456, -4.982201744496706e-07, -0.08248667418956757, 0.1265210211277008, 0.05667267367243767, -0.05426931008696556, -0.03188954293727875, 0.047267235815525055, 0.09345375746488571], [-0.19247674942016602, -0.045783862471580505, -0.002354665193706751, 0.02513829804956913, -0.020446399226784706, 0.03041619434952736, -0.30014944076538086, 0.06629569083452225, 0.08688019961118698, -6.502508396648048e-21, -1.1265685273542658e-08, 0.08823844790458679, -0.04058455675840378, 0.13434670865535736, 0.09475915133953094, 0.16963078081607819, 0.11101987212896347, -1.485054599470459e-05, 0.048348329961299896, -3.3374830031226966e-19, -0.05042719468474388, 0.1235533282160759, -0.03141147270798683, -0.32697543501853943, 3.1510390160197457e-24, -0.11758015304803848, 0.2154494673013687, -0.05060897395014763, 0.022108085453510284, 0.31920430064201355, -0.24632218480110168, -0.06116102263331413], [-0.2102099061012268, 0.2672617435455322, -0.0023630803916603327, -0.034805890172719955, -0.23436498641967773, 0.39072683453559875, 0.09667255729436874, -0.11403774470090866, 0.37511083483695984, 1.18997556687025e-19, 3.2810512493597344e-05, 0.04089086502790451, 0.4107624590396881, -0.046624988317489624, 0.10355936735868454, -0.02042359672486782, -0.1719639152288437, -2.101688323818962e-06, -0.38303688168525696, -8.528137982466433e-07, 0.12276940047740936, -0.3517031967639923, 0.26059967279434204, 0.2508608102798462, 4.9177609632162225e-20, 0.04969581961631775, -0.40030354261398315, 0.18965965509414673, -0.14411266148090363, -0.18741711974143982, 0.09142842143774033, 0.1825900822877884], [1.4406778546637338e-19, 1.469375092710834e-06, -0.0003497724246699363, -4.708025537757425e-15, 3.4253463509614085e-14, 7.367264061031165e-07, 0.00010655380901880562, -0.00030855194199830294, -6.827337074355455e-06, 