{"classes": ["not_pinky", "pinky_swear"], "layers": [{"w": [[-3.860389587747974e-14, 0.23587031662464142, 4.076717630141502e-09, -0.040492817759513855, -0.06926067918539047, -0.1637822687625885, -0.15655367076396942, 0.1447075754404068, 0.0198341216892004, 0.07883080840110779, -0.17841237783432007, 0.20901568233966827, 0.17199602723121643, -0.14165262877941132, -3.5886367300008715e-07, -0.000162043739692308, -0.0022410000674426556, -0.011319851502776146, -0.03184206411242485, -0.062217358499765396, 0.0956934466958046, -0.1292625367641449, -0.05201074481010437, -1.8933343933456859e-13, -0.04387575387954712, 8.23103931679725e-08, -0.1570378988981247, -0.008259572088718414, 0.057104963809251785, -2.3580871129524894e-05, 0.07172541320323944, -0.09700661897659302, -0.18548260629177094, 0.31789231300354004, 3.10359537252225e-05, 0.1629362255334854, -0.052214350551366806, -0.18936479091644287, 0.1336098462343216, -0.008737239055335522, -0.11026595532894135, 0.03356388956308365, -0.18088805675506592, 0.1593167632818222, -7.362620735307246e-09, 0.06198149174451828, -0.09213348478078842, 0.00791038479655981, 0.04278622195124626, -3.1660439958614006e-07, 0.08224869519472122, 0.13670262694358826, 0.18131133913993835, 5.10405197928776e-06, -3.769977418012992e-16, 0.16900038719177246, -0.17300207912921906, -0.1093626618385315, -0.25275734066963196, -0.043442800641059875, 0.012111181393265724, -0.10959272086620331, 5.477387503560749e-07, -0.042747437953948975], [-1.6749652775871482e-09, 0.008550561964511871, -1.6542130651941989e-06, 0.01496398076415062, -0.121552973985672, 0.2553766965866089, 0.13058970868587494, -0.14412996172904968, -0.23771414160728455, 0.14364339411258698, 0.05348090082406998, 0.15986290574073792, 0.0961216539144516, -0.17117097973823547, -6.761449581650647e-13, -0.0006401462014764547, 0.23669858276844025, 0.09537630528211594, -0.03623513877391815, -0.22446969151496887, -0.09283575415611267, -0.09105169028043747, 0.10305457562208176, 3.6466836494941646e-13, 0.1894659399986267, 1.590333487505973e-21, 0.09948122501373291, 0.11802960187196732, 0.15940774977207184, -8.513578610870338e-19, 0.17658337950706482, -0.009681344963610172, 0.059969231486320496, -0.10457661747932434, -3.775014556595124e-05, -0.1648615151643753, -0.2179650217294693, 0.09283297508955002, -0.147259920835495, -0.0016652176855131984, 0.19816450774669647, -0.12044185400009155, -0.0300412867218256, 0.14482258260250092, -4.0719299931879505e-08, -0.15992553532123566, -0.11853544414043427, -0.13416919112205505, 0.15567949414253235, 2.3506265733885812e-07, 0.024767693132162094, 0.22696635127067566, 0.17742572724819183, -2.9467449280673463e-07, 4.77535331810941e-06, 0.0006878251442685723, 0.18135544657707214, 0.19926448166370392, -0.08852367848157883, -0.18219515681266785, -0.06877657026052475, -0.002739622490480542, 3.5651095231514773e-07, 0.1449355185031891], [-5.547568071051501e-05, -0.0012817255919799209, -1.9117202747284537e-17, 0.0020811501890420914, -0.004979840945452452, 0.0037458508741110563, -0.003188695991411805, -5.3998316235093213e-11, 4.087983455904176e-20, 0.003139293985441327, -0.0019304892048239708, 0.0006740655517205596, -0.0012508440995588899, 0.003751208307221532, -1.1975125635776076e-22, -3.175735785454492e-10, -0.0003828221233561635, 0.004829157143831253, 0.0022680205292999744, 0.006318083498626947, -0.0021023559384047985, -0.0030342189129441977, -0.003542386693879962, -2.279348265687986e-08, 0.001831506728194654, -2.2640358466940973e-22, 0.004731366410851479, 0.0038296279963105917, 0.0020796130411326885, 2.433488077713264e-08, 0.00037120841443538666, 3.168575624101777e-09, 0.00044665340101346374, -0.007694752886891365, 1.8578625508684776e-13, -0.002895231358706951, -0.0019748741760849953, 0.0016864025965332985, -0.0029631543438881636, -2.953748889922281e-07, -0.002201186725869775, -0.003954046405851841, -0.002099524950608611, 0.0023064466658979654, -7.256095329694117e-23, 0.002660466358065605, 0.0009077368886210024, 0.0031740048434585333, -0.000894651748239994, 7.683555640296456e-17, 1.575188616698142e-05, 0.001679093111306429, 0.0028105361852794886, -3.988388925790787e-06, 1.161150066764094e-05, 2.832000063790474e-06, 0.0002773240557871759, 0.00016328810306731611, 0.0020998362451791763, -0.0017688494408503175, -0.0010491732973605394, 0.001110649318434298, -7.199940228019841e-06, -0.002822024282068014], [5.998324922984466e-06, 0.05917426943778992, -8.685614727443891e-12, -0.06805385649204254, 0.05985856056213379, 0.21207690238952637, 0.1515265554189682, 0.10742444545030594, 0.03755410015583038, -0.14351478219032288, -0.16037724912166595, 0.21342574059963226, 0.03727699816226959, -0.181249737739563, -5.682105438609142e-06, -0.00016605349082965404, -0.17530500888824463, -0.11320018768310547, 0.06184952333569527, 0.16189147531986237, 0.07448487728834152, -0.13740943372249603, 0.09100162237882614, -2.5897321620504954e-08, -0.04858211800456047, 1.0169043385133136e-08, 0.12121313065290451, 0.18848387897014618, 0.13070036470890045, 1.7599872262454017e-18, -0.1209527999162674, -0.05020290985703468, -0.07270033657550812, -0.03189162537455559, 3.6491237551672384e-05, -0.0631660521030426, 0.14837029576301575, 0.08201365917921066, 0.10799933969974518, -0.0028657603543251753, 0.041853878647089005, -0.006368797738105059, -0.15850451588630676, 0.12222081422805786, -1.6945554959235665e-09, -0.17106689512729645, 0.006744156125932932, -0.09500724077224731, 0.18100182712078094, 2.3789489205228165e-05, 0.08710935711860657, 0.0038813131395727396, -0.17488901317119598, 1.2747416803904343e-05, -5.5653150018292355e-18, 0.1887500286102295, 0.23871292173862457, 0.17989419400691986, -0.08099070936441422, -0.056506771594285965, 0.17369648814201355, -0.05160438269376755, -5.867489676347759e-07, -0.016817720606923103], [1.5528810763498768e-05, 0.05269515514373779, 3.408905189330552e-18, -0.11922729015350342, 0.019714510068297386, 0.26694485545158386, -0.17361745238304138, -0.005629055667668581, 0.14116211235523224, 0.14385776221752167, 0.024758996441960335, 0.16719520092010498, -0.10506878048181534, -0.050667714327573776, 2.4794445607767557e-07, -0.0003615617461036891, 0.21557290852069855, 0.2480529397726059, 0.0749715119600296, -0.04819346219301224, 0.09345179796218872, 0.0133137796074152, 0.06427101790904999, 1.3582793201294407e-07, 0.21665850281715393, -9.790103623619206e-12, 0.14267240464687347, -0.10519993305206299, 0.10852480679750443, -2.9965131034259684e-05, 0.0635867491364479, 0.009581240825355053, -0.026796303689479828, -0.030082443729043007, -3.3803538826759905e-05, -0.2240838259458542, 0.10184340924024582, -0.00046735722571611404, -0.2639148235321045, 0.0037478413432836533, 0.10860045254230499, -0.16103214025497437, 0.035011306405067444, -0.11981092393398285, -2.085628693748731e-05, 0.07837889343500137, 0.03747619315981865, 0.0995805487036705, 0.04722297564148903, 3.879524228977971e-05, -0.004174172878265381, 0.011765561997890472, 0.20136556029319763, -3.377748969413119e-09, 8.648272048927528e-19, -0.20173127949237823, -0.14385809004306793, 0.2190251648426056, 0.2008792757987976, 0.04758935049176216, -0.01695159263908863, -0.08708090335130692, -9.581518725099158e-07, -0.14678239822387695], [-1.3191654104206062e-19, 0.09935595840215683, 7.935594889540987e-12, -0.4846976399421692, -0.02257850021123886, 0.35353517532348633, -0.14516471326351166, 0.05133931711316109, -0.06064727529883385, 0.001766668283380568, -0.13092689216136932, 0.09419866651296616, -0.1922464817762375, -0.12765999138355255, -2.3827475160942413e-05, -3.476321217021905e-05, 0.14502090215682983, 0.11373041570186615, -0.002536822110414505, 0.3292752504348755, 0.005968103185296059, -0.030411766842007637, -0.13883578777313232, -3.6739919670305737e-19, 0.04706527665257454, 1.8885978105156282e-15, 0.9956737160682678, -0.08087795227766037, -0.03710980340838432, 4.214265045330949e-14, -0.006501972209662199, 0.03530527278780937, 0.009195210412144661, -0.6250813603401184, -1.3114573448547162e-05, 0.024387048557400703, -0.2995924949645996, 0.08161469548940659, 0.1604032814502716, 0.0013510921271517873, -0.05668870359659195, 0.0678306519985199, -0.024010024964809418, 0.03070499189198017, 1.7692231267574243e-05, -0.02729608491063118, -0.13379646837711334, 0.23871088027954102, -0.11301123350858688, -1.3522895642381627e-05, -0.017341243103146553, -0.21018046140670776, -0.12801778316497803, 8.681728946857703e-11, -1.2908897588204127e-05, -0.0634937435388565, 0.1446288526058197, -0.1993872970342636, -0.13483715057373047, -0.11939498037099838, -0.2370380312204361, 0.10280156880617142, 7.960430546075786e-14, -0.09190581738948822], [4.984131773966283e-09, 0.12651613354682922, -1.5472998438070817e-09, -0.10045182704925537, 0.05140179395675659, 0.1860441118478775, 0.18359200656414032, -0.05170610919594765, -0.08001421391963959, 0.16702879965305328, -0.08805612474679947, 0.23519113659858704, 0.14186625182628632, 0.01028476096689701, 1.3196761905476251e-08, -0.00015036863624118268, -0.14600320160388947, 0.21696187555789948, 0.04979798197746277, 0.2269870489835739, -0.07532044500112534, 0.1487002968788147, -0.05523642152547836, -5.1264651119709015e-05, 0.21595081686973572, -7.571545211249031e-06, 0.1011863425374031, 0.2502744793891907, 0.2651525139808655, 7.991621026904478e-18, 0.11839628964662552, -0.024787208065390587, -0.060031458735466, 0.0032884208485484123, 3.081981891916996e-11, 0.08413367718458176, 0.08859387040138245, 0.15540480613708496, -0.21531502902507782, -0.006145524326711893, -0.19344709813594818, 0.013810760341584682, -0.06008579954504967, 0.20100045204162598, -1.9715173504158967e-12, -0.12107181549072266, -0.2386505901813507, 0.16728685796260834, 0.03605859726667404, -5.7394026953261346e-06, -0.1059996634721756, 0.1568082869052887, -0.14284469187259674, 4.1692402419357677e-07, 6.395503016065618e-10, -0.19548261165618896, -0.14085792005062103, 0.23688508570194244, 0.0013831163523718715, -0.06784220039844513, 0.14876364171504974, 0.2268659621477127, 4.803783667739481e-05, 0.048243749886751175], [-2.6036462956870003e-14, -0.23533134162425995, 5.529199142983998e-08, 0.05881156772375107, -0.057706426829099655, 0.23040470480918884, -0.21419663727283478, -0.01710166409611702, -0.2350563108921051, 0.054477423429489136, -0.2776666581630707, -0.0718853771686554, -0.22923369705677032, 0.13122707605361938, 9.898627695292816e-09, -0.00020140851847827435, 0.24291421473026276, 0.038423407822847366, 0.005075098015367985, 0.10465015470981598, -0.17998650670051575, 0.11482532322406769, -0.26048964262008667, 3.40853730449453e-05, -0.12763293087482452, 4.5795591177011374e-06, 0.1536703258752823, 0.258565753698349, -0.08640830218791962, -4.812306227237766e-19, 0.3003927767276764, 0.0018618591129779816, 0.13621237874031067, 0.022785751149058342, -1.7391537002412763e-20, 0.005802455358207226, -0.026018384844064713, 0.2603355646133423, -0.3254053592681885, -0.09029658883810043, 0.1597927212715149, 0.10680121928453445, -0.06409349292516708, 0.13818368315696716, -2.155199574360722e-09, -0.03478993475437164, 0.07489669322967529, 0.0037200041115283966, -0.031039120629429817, -1.089969100576127e-05, 0.12739157676696777, 0.31927353143692017, 0.1850346326828003, 4.203878891423671e-20, -1.717225389663568e-10, 0.11749499291181564, 0.16467732191085815, -0.1417841613292694, 0.2564675509929657, 0.08092956990003586, 0.1928938776254654, 0.17857332527637482, -4.064420117556352e-20, -0.09284919500350952], [1.425534446752863e-05, 0.1860646903514862, -2.4264292733278126e-05, -0.5485004782676697, -0.15183790028095245, 0.3637227416038513, 0.10151024907827377, -0.13591191172599792, 0.016955943778157234, 0.014694622717797756, 0.18132151663303375, 0.11215107142925262, 0.17994770407676697, -0.012432419694960117, -1.2151917645933805e-17, -8.255431566794869e-06, -0.17580637335777283, 0.15138636529445648, 0.11132558435201645, 0.855958878993988, 0.24818778038024902, 0.041945163160562515, 0.14345017075538635, 1.9161430827807635e-05, 0.2280125766992569, -1.4643934953539883e-08, 0.6646128296852112, -0.18971627950668335, 0.18148204684257507, -1.0479132693218805e-15, -0.1574200838804245, 0.030318710952997208, -0.01835539937019348, -0.4137473702430725, -3.97825397158158e-06, 0.0719263032078743, -0.037467874586582184, 0.13147713243961334, 0.028383398428559303, 0.006331746466457844, 0.0445348359644413, 0.0565013661980629, 0.1895226538181305, -0.06670448929071426, -2.0848633539571892e-06, -0.22578853368759155, -0.417817085981369, 0.06295003741979599, 0.12154760211706161, -9.004053680428115e-08, -0.025447243824601173, -0.24294427037239075, -0.06215974688529968, -4.05200511108409e-17, 1.102597187001026e-15, -0.014571057632565498, 0.142461895942688, -0.06590495258569717, -0.3355412483215332, 0.12665021419525146, -0.07959331572055817, 0.04355287551879883, 1.8483879102859646e-06, 0.013569055125117302], [-1.338279389528907e-06, 0.20503117144107819, -3.8206171946181565e-22, -0.026883354410529137, -0.018824581056833267, 0.22491200268268585, -0.008076122961938381, -0.08792494982481003, 0.03318332880735397, -0.09108831733465195, -0.174532949924469, -0.13316309452056885, -0.14927580952644348, -0.14049287140369415, -1.7758758303898503e-06, -0.0001499870850238949, -0.09051842987537384, -0.058948542922735214, 0.19504866003990173, 0.03356899693608284, 0.10175449401140213, -0.13604290783405304, -0.11358699947595596, -2.6812314899871126e-05, -0.1375047266483307, -1.979353791980998e-09, 0.052520353347063065, -0.11532244086265564, -0.12654152512550354, -6.114760779827211e-20, -0.08404857665300369, -0.056043051183223724, 0.008434338495135307, 0.18221861124038696, -2.777675945253577e-05, 0.13231974840164185, 0.039121113717556, -0.18033908307552338, 0.16143305599689484, 0.142085999250412, -0.1654239147901535, -0.0766429603099823, 0.1288476437330246, 0.11228976398706436, -3.2102965974445397e-07, -0.10049766302108765, -0.1239081472158432, 0.018141360953450203, 0.05859172344207764, -1.1976105328791176e-13, -0.01282378938049078, 0.15224844217300415, -0.18715724349021912, -1.0845606190912349e-08, 1.102182012324704e-09, 0.15808100998401642, 0.027357611805200577, 0.035843588411808014, -0.09181690216064453, -0.007399613969027996, 0.04774516075849533, -0.10679010301828384, -3.756060351634005e-09, -0.093599833548069], [-4.2311541619710624e-05, -0.15490573644638062, -9.681464518962457e-08, 0.02364443428814411, -0.18883606791496277, 0.23254022002220154, -0.03682488203048706, 0.06349439173936844, 0.1027844101190567, 0.09725787490606308, -0.29124999046325684, 0.12709224224090576, -0.04627644643187523, 0.20203310251235962, -1.785608111743466e-18, -0.0002053110220003873, -0.06977465003728867, 0.062272049486637115, 0.186892569065094, 0.014613617211580276, -0.14803916215896606, 0.09243778884410858, -0.028551215305924416, -2.592905268272716e-08, -0.07183137536048889, -1.0904583405135782e-06, 0.06484214216470718, -0.076326884329319, -0.012487475760281086, -1.237133284703873e-09, -0.02623039297759533, 0.14304286241531372, -0.08532920479774475, -0.05164715647697449, 3.4661117597238004e-17, 0.13175728917121887, -0.2537315785884857, 0.06879507750272751, 0.058408502489328384, 0.1338857263326645, 0.07574283331632614, -0.19408470392227173, -0.21474890410900116, 0.18563145399093628, 1.3096039765514433e-05, 0.15639692544937134, 0.1335805207490921, 0.0009093281696550548, 0.02902650274336338, -2.8886080372103606e-07, -0.04681432247161865, 0.09588019549846649, 0.12954087555408478, -1.9432825126841635e-08, -3.826857664535055e-06, 0.029027706012129784, 0.013100037351250648, 0.03820037841796875, -0.1364024132490158, -0.09211426973342896, -0.01446230337023735, -0.08821149170398712, -1.147570406756504e-11, -0.23833709955215454], [-1.571087705087848e-05, 0.27868229150772095, -5.17616227657669e-11, -0.39353135228157043, -0.0960676297545433, 0.23678889870643616, 0.09900190681219101, 0.05676697567105293, -0.033171962946653366, -0.049754295498132706, -0.01990630105137825, 0.1185663565993309, 0.20656415820121765, 0.14190830290317535, -2.8537972411868395e-06, -6.871435743960319e-06, 0.2327852100133896, -0.1968463808298111, -0.26622244715690613, 0.7957022190093994, 0.10716786235570908, 0.2279108613729477, -0.08740555495023727, 1.3258949138617027e-07, -0.1068141907453537, -7.332706104534736e-07, 0.24172165989875793, -0.020138951018452644, 0.0006743556004948914, -5.804903526788178e-21, -0.144882932305336, 0.07928173243999481, -0.13611437380313873, -0.09479182213544846, 8.719149536702017e-19, 0.0025710915215313435, 0.006944013759493828, -0.13414330780506134, 0.18902558088302612, 0.0002518161782063544, -0.04252095893025398, 0.24639728665351868, 0.029331211000680923, -0.06083051115274429, 7.115248536138097e-06, -0.030639680102467537, -0.8585202693939209, 0.13443763554096222, 0.11533413827419281, -1.3889265605693257e-11, -0.03223372623324394, 0.047263097018003464, -0.011830005794763565, 2.35985629941043e-20, 4.966301730746636e-06, 0.13753995299339294, -0.22240787744522095, -0.06031346321105957, -0.5055570602416992, 0.16099850833415985, -0.1772688329219818, -0.030489876866340637, 2.5485389798518554e-08, 0.09368623793125153], [-6.052728197120105e-12, 0.16062237322330475, -4.343925411376404e-06, 0.18595372140407562, -0.13646842539310455, -0.04557530954480171, 0.1310422569513321, -0.1655196249485016, -0.14252908527851105, 0.11385666579008102, 0.10810437798500061, 0.09109869599342346, 0.09768622368574142, 0.029870763421058655, -1.126727777744918e-08, -0.00015374430222436786, -0.08235396444797516, 0.18041299283504486, 0.05844270437955856, -0.01893753930926323, 0.014943634159862995, 0.20434105396270752, -0.12787337601184845, 5.953585309555501e-18, -0.0009967554360628128, -7.372737297348185e-16, -0.10618539899587631, 0.16196665167808533, 0.22373734414577484, -7.552517652952867e-20, 0.12898744642734528, 0.1499364823102951, 0.09721683710813522, -0.035546865314245224, 1.295889602638645e-17, 0.0521094873547554, -0.05074078589677811, 0.09921862930059433, 0.20660968124866486, 0.14408807456493378, 0.004508795216679573, -0.14518938958644867, 0.20985884964466095, 0.15040157735347748, -2.8209669835632667e-06, 0.20738576352596283, 0.15499867498874664, 0.02804933860898018, 0.04727090522646904, 6.218986308354814e-16, -0.11997298151254654, -0.02666216716170311, 0.14280925691127777, -5.812334347865544e-05, -1.6226662374885237e-11, -0.057470858097076416, 0.04377566650509834, 0.20983950793743134, 0.03289687633514404, -0.04766125604510307, 0.14084595441818237, -0.017706308513879776, -5.057780327888395e-08, -0.05332217365503311], [-1.6580119108766667e-06, -0.24149879813194275, -5.990067609034296e-23, -0.05311373993754387, 0.05486677214503288, 0.03238311782479286, -0.07566548138856888, 0.04290013760328293, -0.23482395708560944, 0.19944757223129272, -0.2791490852832794, 0.33401480317115784, -0.2606581151485443, 0.08842983096837997, -8.903171874408145e-06, -9.13973490241915e-05, -0.004545310512185097, 0.20182755589485168, -0.04644676297903061, 0.1659228354692459, -0.23809590935707092, 0.025535646826028824, -0.23002545535564423, -2.4742467985561234e-07, -0.06443402171134949, 1.2494706535971616e-21, 0.030898042023181915, -0.12631073594093323, 0.27068907022476196, 1.8767652117797025e-20, 0.1460304707288742, -0.028379812836647034, 0.07529827207326889, -0.053673554211854935, -1.0007485116148018e-06, -0.2452530413866043, 0.0468776673078537, 0.3320927619934082, -0.2186967432498932, -0.0893620029091835, -0.02488846704363823, -0.15413914620876312, -0.30388984084129333, -0.01066775992512703, 1.3382386310212269e-09, 0.22600772976875305, -0.18622726202011108, 0.004351355135440826, -0.23078690469264984, 2.8880823080279505e-11, -0.1260731965303421, -0.01998189091682434, 0.2841312885284424, -4.10169917586245e-07, 3.1855707308126036e-12, -0.1329382210969925, -0.05515134334564209, -0.08394375443458557, -0.0342024527490139, 0.043439626693725586, 0.09060605615377426, 0.08568979799747467, 1.9283363100752737e-11, -0.23650413751602173], [-6.70874134023336e-10, 0.2927977442741394, -4.90365746372845e-05, -0.594103217124939, 0.003709218231961131, -0.16427457332611084, -0.03663225844502449, 0.051927514374256134, -0.05413072928786278, 0.06361479312181473, 0.2678678333759308, -0.17807063460350037, 0.003848314518108964, -0.1947999745607376, -4.8109400143790426e-17, -6.799249149480602e-06, 0.15926334261894226, -0.17752152681350708, -0.12080255895853043, 0.6240079402923584, 0.04410190507769585, 0.3505373001098633, 0.24258306622505188, -1.70038913438475e-06, 0.09883906692266464, 2.0325960477880118e-22, 0.09139803051948547, -0.1261884570121765, -0.17513588070869446, -4.0212289604824036e-05, -0.230568990111351, 0.0141610037535429, -0.06150548905134201, -0.18058986961841583, -1.7444936020183377e-06, 0.28236421942710876, 0.3255023956298828, -0.11148390918970108, 0.029286518692970276, -0.0003502604376990348, -0.06682474911212921, 0.31072989106178284, -0.016219688579440117, -0.11496562510728836, -2.714168667594663e-09, -0.13756278157234192, -0.7100179195404053, 0.005759114865213633, -0.01732957549393177, -5.1099283155053854e-05, -0.03931042179465294, 0.034345220774412155, 0.018045710399746895, -3.441491953018466e-16, -5.804506617483683e-16, 0.08591477572917938, -0.2550385892391205, 0.20506924390792847, -0.4781125783920288, 0.07334469258785248, 0.10608239471912384, -0.3209540545940399, -6.63755770347052e-07, 0.1705590933561325], [-9.533974662190303e-06, 0.029159823432564735, -1.6436990435408916e-08, -0.1185634583234787, -0.10742606222629547, 0.015363787300884724, 0.051009755581617355, -0.10170818865299225, 0.00428728386759758, 0.05435735732316971, 0.040958866477012634, 0.2441309094429016, 0.07704195380210876, -0.0711246132850647, -3.330036997795105e-05, -0.00012997262820135802, 0.060362834483385086, -0.14299897849559784, 0.04875446856021881, 0.21514689922332764, -0.08009018748998642, 0.08835100382566452, -0.18873092532157898, -1.1662404176604468e-05, 0.15342843532562256, -2.3146193749852963e-22, 0.04202072322368622, 0.07335038483142853, -0.03294171765446663, 3.727570287992421e-07, 0.19803480803966522, 0.061730146408081055, -0.05922171100974083, 0.046120934188365936, -4.603711617652551e-13, -0.21636523306369781, 0.13585740327835083, -0.11624215543270111, 0.14642910659313202, -0.02222236804664135, -0.14839279651641846, 0.0007762308232486248, 0.11734860390424728, 0.14066670835018158, 2.1971739272430568e-07, 0.11775179952383041, -0.08045489341020584, 0.2164747714996338, -0.13868840038776398, -2.225967312674304e-22, -0.06625138223171234, 0.2873876690864563, 0.24611671268939972, -2.770478567981627e-05, 6.068323066266146e-10, 0.17103271186351776, -0.0937751829624176, 0.050799667835235596, 0.18968930840492249, -0.2270495444536209, 0.08575864881277084, -0.045399170368909836, 1.1522270142449997e-05, 0.1289418786764145], [1.893290209409315e-05, -0.03580354154109955, 1.8285821852259687e-06, -0.008246434852480888, -0.06095872446894646, 0.1955261528491974, -0.21654118597507477, 0.028113145381212234, -0.14010922610759735, -0.13186681270599365, -0.23881210386753082, 0.16017596423625946, -0.11042854934930801, 0.1270056962966919, -1.4955731785448734e-05, -0.00014997633115854114, 0.05745803192257881, 0.18416368961334229, -0.018360087648034096, -0.026910021901130676, 0.13999781012535095, 0.008135228417813778, -0.13124960660934448, -3.858548006974161e-05, 0.21440091729164124, -4.1251416405430064e-05, 0.27339592576026917, 0.07047751545906067, 0.2594509422779083, 1.5564899058517767e-07, 0.2861472964286804, -0.06256718188524246, 0.17534062266349792, -0.2120198756456375, 4.503723785538474e-21, 0.03857012465596199, 0.1299162358045578, 0.25950801372528076, 0.018663454800844193, -0.03571445494890213, -0.03204930201172829, 0.07387910783290863, -0.12108232825994492, -0.11979207396507263, -1.183249136692266e-12, -0.023050593212246895, -0.15015631914138794, -0.07806766778230667, -0.24380020797252655, -4.4314158003544435e-05, 0.11984175443649292, 0.05063605681061745, 0.012746055610477924, 6.296341920064563e-11, -6.959046316978856e-08, 0.1766207069158554, 0.16857364773750305, -0.15883460640907288, 0.06240158528089523, 0.13061118125915527, 0.2189445197582245, 0.03100273385643959, -2.037037310349625e-18, -0.18239815533161163], [5.340479765436612e-05, -0.2868540287017822, 1.8244460079586133e-05, 0.43372154235839844, -0.27829763293266296, 0.23495374619960785, -0.44274210929870605, -0.13013164699077606, -0.1061534583568573, 0.14929340779781342, -0.09147347509860992, 0.06400881707668304, -0.3614081144332886, 0.3814515173435211, 3.6695382732432336e-06, 1.3391575521382038e-05, 0.06890400499105453, -0.0009430482750758529, 0.20468784868717194, 0.7095354795455933, -0.1117819994688034, -0.3815658688545227, -0.053500864654779434, -5.10039797063655e-08, 0.09937578439712524, 4.820683563514882e-20, 0.27778077125549316, 0.1513652354478836, 0.01947072148323059, 3.016421032953076e-06, 0.055305659770965576, -0.06691960990428925, 0.2944621741771698, 0.07664775103330612, 1.8338100744585972e-06, -0.07967975735664368, -0.12951694428920746, 0.29299667477607727, -0.37168848514556885, -9.206251706928015e-05, -0.2427053600549698, -0.281162828207016, -0.10093435645103455, 0.17944012582302094, -9.989076716010459e-06, 0.09790253639221191, 0.5471293926239014, 0.021307872608304024, -0.038029611110687256, -2.537575448172273e-22, 0.0004152363690081984, 0.2031998336315155, 0.3653298616409302, -2.9662455217766004e-12, 5.3684921091923243e-11, 0.017990930005908012, 0.051262810826301575, -0.048293065279722214, 0.1806998997926712, -0.1465948075056076, -0.12245660275220871, 0.38029494881629944, 7.545106761597253e-10, -0.12385797500610352], [3.1389679744364685e-10, 0.07439110428094864, 6.1865766043313775e-15, 0.0814065933227539, -0.1584465652704239, 0.21291831135749817, 0.11954344809055328, -0.21773092448711395, 0.11653225868940353, -0.10349153727293015, -0.09205015003681183, 0.15362024307250977, -0.1585685759782791, 0.16979774832725525, 6.247461783459585e-07, -0.00013669957115780562, -0.17764000594615936, -0.0569264218211174, 0.096065953373909, 0.3222689628601074, 0.06061377376317978, -0.12497707456350327, 0.05221087485551834, 6.37414264793882e-20, 0.1573203206062317, -4.8405695451947395e-06, 0.1554902195930481, 0.12754610180854797, 0.2650337219238281, -6.2071654240158924e-12, 0.12324515730142593, 0.1478680819272995, -0.14609894156455994, 0.13760262727737427, 1.362227691759088e-10, -0.2138928472995758, -0.1267590969800949, 0.12323126941919327, -0.2216259241104126, 0.023787103593349457, -0.06520947068929672, 0.04831380769610405, -0.22342301905155182, 0.18953700363636017, 3.687091884785332e-05, 0.2525974214076996, 0.026426713913679123, -0.10583305358886719, 0.09252813458442688, -3.843157537630759e-05, -0.1212237998843193, -0.009646052494645119, 0.0380384586751461, 3.9058132728087e-08, 8.920827271330367e-11, -0.037699416279792786, -0.057250019162893295, 0.22651754319667816, 0.036015551537275314, -0.03484484180808067, -0.1415252685546875, 0.1605902761220932, 2.2738123883758732e-10, -0.1951514333486557], [-9.640815733291674e-06, 0.10510439425706863, 3.9834932227811315e-12, -0.10712821781635284, 0.2151956409215927, -0.21077091991901398, 0.014459636993706226, 0.17842569947242737, -0.05890709534287453, 0.038869842886924744, -0.04525570571422577, -0.06647833436727524, 0.21946905553340912, -0.06747179478406906, 4.996494681108743e-06, -0.00011171490768902004, -0.027013590559363365, -0.21295447647571564, 0.07441818714141846, -0.1812318116426468, 0.17919689416885376, 0.00022829583031125367, 0.2383226454257965, -3.0785858484705386e-07, 0.1560114026069641, 5.37706874581545e-08, 0.1934974193572998, 0.06554882973432541, 0.12950506806373596, 4.5555254718238763e-14, -0.1299942135810852, -0.1661592572927475, 0.20553670823574066, 0.05103280022740364, 1.405407630272748e-07, 0.03374519944190979, -0.13643191754817963, -0.1633051186800003, 0.059441737830638885, -0.02991313673555851, -0.0777384340763092, 0.017113106325268745, -0.144600048661232, 0.034149229526519775, -3.818934946053787e-09, 0.1654626578092575, -0.10070334374904633, -0.02917855978012085, -0.21075518429279327, -1.250008699571481e-05, -0.02309487760066986, 0.023916402831673622, 0.05457576364278793, -7.530250312193232e-10, 2.5423982363825814e-10, 0.13737837970256805, 0.1373392641544342, -0.1835552453994751, -0.0424329899251461, -0.15349547564983368, -0.0377013124525547, 0.21352900564670563, -1.5678633644711226e-06, 0.03617916256189346], [5.265460884960795e-15, 0.0001086042684619315, -8.861441145673389e-19, 0.0019347306806594133, -0.2617940604686737, 0.18203996121883392, -0.41032686829566956, -0.04750959575176239, -0.1838407814502716, -0.0023511156905442476, -0.16432532668113708, -0.11432499438524246, -0.05329757556319237, 0.1768108457326889, 1.6880557041076827e-07, 1.4957759049138986e-06, -0.2440025955438614, -0.11092398315668106, 0.17223863303661346, 0.7549458742141724, -0.3089872896671295, 0.07387501746416092, -0.30524498224258423, 6.46597132815957e-20, 0.24525223672389984, 2.4531252620363375e-06, 0.09879743307828903, 0.15004421770572662, 0.022921275347471237, 3.1240190878634166e-07, -0.12486070394515991, 0.10341346263885498, 0.056934189051389694, 0.05152956396341324, 5.570841705694432e-20, -0.06183216720819473, -0.10253584384918213, 0.24848784506320953, -0.2881621718406677, -0.04610950127243996, -0.2206992506980896, -0.23457729816436768, 0.05403358116745949, -0.039414212107658386, 3.8806178054073825e-05, 0.05172175168991089, 0.0021460256539285183, 0.2219112366437912, -0.03832581266760826, -6.822000950769099e-23, 0.0056922719813883305, 0.15882541239261627, -0.00013327301712706685, 5.9256231907056645e-05, 3.792268398683518e-05, 0.076158307492733, -0.06848561763763428, -0.0340958796441555, -0.3522202968597412, -0.32583707571029663, -0.2914680242538452, 0.10008525103330612, 2.247460088256048e-06, -0.09147274494171143], [8.073024915233873e-09, -0.008013004437088966, -3.76637696725135e-12, 0.0453365258872509, 0.1497041881084442, -0.19406408071517944, 0.14451463520526886, 0.02053264155983925, -0.05205580219626427, 0.13071568310260773, 0.005611616652458906, 0.18548895418643951, 0.19212570786476135, -0.03532889857888222, -2.2402808497190563e-09, -0.0001516214688308537, 0.2311498522758484, -0.12945310771465302, 0.06655687093734741, 0.12421418726444244, 0.1314738541841507, -0.15504120290279388, 0.115805484354496, 7.638522220076993e-06, -0.14000552892684937, -2.548270394697738e-08, 0.23048123717308044, -0.06307300925254822, 0.18239806592464447, -3.808431881096261e-22, -0.06532026827335358, 0.1272464543581009, -0.022406335920095444, -0.0004446540551725775, -6.021374262914214e-13, 0.043562423437833786, -0.160720556974411, -0.04554666578769684, 0.2047509104013443, -0.08484768867492676, 0.0970621407032013, -0.05191830173134804, 0.125637486577034, -0.1627083420753479, 3.40422811859753e-05, 0.005628771614283323, -0.1364499181509018, -0.15744662284851074, -0.13646797835826874, -4.272177837508982e-21, -0.03936624526977539, 0.17724794149398804, -0.01957489550113678, -1.3521892938683777e-08, 3.5450812766710292e-15, 0.07540643215179443, -0.1284279078245163, -0.1269751787185669, -0.13852375745773315, 0.11824244260787964, 0.09709810465574265, -0.010475978255271912, 9.795780897547957e-07, 0.08446928858757019], [1.1285909175427538e-17, 0.23424707353115082, -1.2597695331351133e-07, -0.08627687394618988, 0.002955671399831772, -0.2989487648010254, 0.07654095441102982, 0.17553004622459412, -0.2266198843717575, -0.21068936586380005, 0.02771543338894844, 0.1705416440963745, -0.02167125977575779, -0.06302279233932495, -2.6385214368929155e-05, -0.0001611351763131097, 0.3285890519618988, 0.1327778846025467, -0.26478326320648193, 0.08808000385761261, 0.13473106920719147, 0.2205803096294403, 0.05939347669482231, -1.5032663666604271e-21, -0.06796866655349731, 1.688594923610065e-11, 0.0281726885586977, -0.28956982493400574, -0.11634048074483871, 5.653377210812494e-10, -0.13531453907489777, 0.045659638941287994, 0.18412452936172485, -0.11332674324512482, 3.1087684509989444e-11, 0.05210287496447563, 0.21716228127479553, -0.18983279168605804, 0.1345212459564209, 0.12356307357549667, 0.28275832533836365, 0.1521330624818802, 0.08187984675168991, -0.0027023106813430786, 2.294296564286924e-06, 0.02179432287812233, -0.147879958152771, 0.15778997540473938, 0.13053175806999207, 4.6256352914664234e-11, -0.04199550300836563, 0.05047198757529259, -0.08425909280776978, 2.619734507450233e-12, -4.8960391723085195e-06, 0.04968922585248947, 0.2049102485179901, -0.18136391043663025, 0.13309864699840546, 0.01961706019937992, 0.24932336807250977, 0.08317310363054276, 8.483912295189007e-19, 0.15276727080345154], [3.1177644359559054e-06, -0.03774116560816765, -3.2281330386574325e-11, -0.08360970765352249, 0.008352592587471008, 0.21708230674266815, 0.02821473218500614, -0.011177717708051205, 0.14590948820114136, -0.1086658164858818, 0.007103903219103813, -0.24295376241207123, -0.07346265763044357, -0.06124306470155716, 8.737348668231041e-16, 1.0334696526115295e-05, -0.09064436703920364, -0.04926005005836487, -0.1347319632768631, 0.6830291152000427, -0.11957114189863205, -0.17315472662448883, 0.030414879322052002, 1.9551036137266387e-11, 0.11728125065565109, -4.4950099547731106e-20, -0.28132349252700806, 0.07765676826238632, -0.006616420112550259, 4.932233635099703e-21, -0.2438998967409134, -0.03914114832878113, -0.09098553657531738, -0.08165756613016129, 1.8875672625863954e-17, 0.000988147803582251, 0.031137332320213318, 0.12553587555885315, 0.13684779405593872, 0.02923518233001232, 0.195249542593956, -0.1984151303768158, -0.1253572255373001, -0.23777246475219727, 1.5845407668260703e-12, 0.1664028763771057, -0.29017195105552673, 0.1708448827266693, -0.20540602505207062, 1.4878456568112597e-05, -0.012257617898285389, -0.20460663735866547, -0.009132894687354565, -8.334239964824519e-09, -1.257602244564282e-09, -0.06767338514328003, 0.10123856365680695, -0.010014030151069164, -0.43152597546577454, 0.03382681682705879, 0.021394828334450722, -0.09678683429956436, -4.3276559364641185e-18, -0.25319379568099976], [-3.6894419963573455e-07, 0.12198399007320404, -3.6460130559134996e-07, 0.06368780881166458, 0.06512344628572464, -0.18991923332214355, 0.034148138016462326, -0.11940065771341324, 0.17555977404117584, 0.0062584830448031425, 0.16676680743694305, 0.026627711951732635, -0.16106794774532318, 0.034336455166339874, 2.2428992451750673e-05, -0.0001643090508878231, 0.1981532722711563, 0.1346312165260315, -0.13178591430187225, -0.07162485271692276, 0.09645006060600281, -0.014386813156306744, 0.1892007738351822, 5.93104823565227e-06, -0.08810047060251236, -2.6439769484909448e-08, 0.1649657040834427, -0.06761988997459412, 0.14164823293685913, -1.2910788029140978e-17, 0.10063569247722626, -0.1534227877855301, 0.038519036024808884, 0.012714751996099949, 3.0948429087176434e-18, -0.1212594285607338, 0.10716474056243896, 0.1376885622739792, -0.10072912275791168, -0.13523541390895844, -0.15931494534015656, 0.10510015487670898, 0.07568223774433136, -0.003575313137844205, -3.448611707312921e-08, -0.04162922501564026, 0.039390046149492264, 0.007777667138725519, 0.23723147809505463, -1.9238004824728705e-06, 0.035356294363737106, -0.03317891061306, -0.04418201372027397, 1.5066509151395735e-09, 2.0407535383792919e-10, 0.19894573092460632, -0.16470420360565186, -0.1484411656856537, 0.1416255384683609, 0.06961499154567719, -0.057257574051618576, -0.20549842715263367, -8.829400940157939e-06, 0.14065337181091309], [-2.351877128603519e-07, 0.035188253968954086, -4.5515598401379975e-08, 0.025296663865447044, -0.047022901475429535, -0.13019905984401703, -0.0976315289735794, 0.11662797629833221, -0.14276179671287537, -0.061682045459747314, 0.2626205384731293, -0.0006365192239172757, 0.11549511551856995, -0.18865814805030823, -1.7135095425890867e-11, -0.00014661480963695794, 0.35521379113197327, -0.05433272570371628, -0.07747244089841843, -0.020574901252985, 0.1027045026421547, -0.08510260283946991, 0.1445976346731186, 2.590583790151868e-05, -0.25191232562065125, 1.6474097086494055e-10, 0.050622131675481796, -0.11960425972938538, -0.26740455627441406, 1.5537932524667118e-19, 0.06728310137987137, -0.03205600380897522, 0.01336506474763155, 0.2251272201538086, 1.2380201951600611e-05, -0.003595516085624695, 0.04835612326860428, -0.24397490918636322, 0.3206629753112793, 0.1591070592403412, 0.1449866145849228, 0.26376596093177795, 0.12886099517345428, -0.05137750506401062, -8.035325663513504e-06, 0.0489053800702095, -0.0738503485918045, 0.08076027035713196, 0.21188145875930786, 7.770958321273724e-10, -0.012177601456642151, -0.16590431332588196, -0.18832123279571533, -5.243838674916235e-13, -8.366973816009704e-06, 0.17102670669555664, -0.02523372322320938, -0.07606863975524902, -0.11715144664049149, 0.08124037086963654, 0.1517341583967209, -0.07584557682275772, 1.0105744877364486e-05, 0.0720207467675209], [5.4486470617121086e-05, 0.20606070756912231, -1.1124145515850614e-07, -0.13137896358966827, -0.1444653421640396, 0.19413569569587708, -0.06442875415086746, 0.17808149755001068, 0.15585055947303772, 0.11958764493465424, 0.17354816198349, -0.14808297157287598, -0.13653965294361115, -0.10214941948652267, -5.012141741644882e-07, 1.6177760699065402e-05, -0.0677991658449173, 0.13449183106422424, -0.01864263415336609, 0.9010850787162781, -0.1044604703783989, 0.23594288527965546, 0.22282318770885468, 3.181824644167576e-22, 0.054066047072410583, 2.897340678487126e-08, -0.5668086409568787, -0.114456407725811, -0.11357206851243973, -1.3713348607780063e-06, -0.14180888235569, -0.12223023921251297, -0.2791353762149811, -0.16534899175167084, 2.9339000320760533e-05, 0.0703149065375328, 0.2443593144416809, -0.0863974392414093, -0.014499218203127384, 0.0024423699360340834, 0.03516138345003128, -0.10942503064870834, 0.13175620138645172, -0.20149527490139008, 8.51500368424709e-15, -0.00993455108255148, -0.520349383354187, -0.26229846477508545, 0.15648730099201202, -6.422647743577105e-20, -0.06232714280486107, 0.1370486617088318, -0.25706711411476135, 2.5540483616914855e-10, 4.577639629133046e-05, -0.09671790152788162, -0.23381905257701874, -0.15343979001045227, -0.5030735731124878, -0.13072368502616882, 0.07731982320547104, -0.24794064462184906, 3.386469299369328e-22, 0.20359283685684204], [3.014335447915073e-07, 0.07410062849521637, -2.2864586612936222e-10, -0.06210055574774742, 0.01035816129297018, -0.011871297843754292, -0.1550804227590561, 0.15400229394435883, -0.04660559818148613, -0.11553548276424408, -0.04419459030032158, -0.017644794657826424, 0.15762990713119507, 0.10539571195840836, 3.685413219045586e-08, -0.00030827062437310815, 0.02675686590373516, -0.008881224319338799, -0.20147469639778137, 0.025214606896042824, 0.14547517895698547, -0.14232280850410461, 0.03882188722491264, -8.081465097120599e-08, -0.2106773555278778, -2.080007632798697e-08, 0.03817993775010109, 0.16639290750026703, 0.23026643693447113, 8.614024714723463e-23, -0.1319604218006134, 0.0097914207726717, -0.009409348480403423, 0.1820719987154007, -6.259925157792168e-06, 0.0025318595580756664, -0.1483382135629654, -0.07627904415130615, 0.1222243383526802, -0.011130054481327534, -0.02004421502351761, -0.022398892790079117, -0.014209117740392685, 0.11975254863500595, 4.708999313152162e-06, 0.20580704510211945, 0.0073176296427845955, -0.06171679124236107, 0.08705268055200577, 7.455821402568154e-19, -0.05223163962364197, 0.18152499198913574, -0.19351381063461304, 6.232315627130447e-06, -5.780247001406206e-20, 0.045699331909418106, 0.08671063184738159, 0.1898055076599121, 0.02120049297809601, 0.06621561199426651, -0.1488727331161499, 0.010749357752501965, -1.2001900131508592e-06, 0.08283413201570511], [-1.0606458276104862e-22, 0.06706636399030685, -2.632506948430091e-05, -0.27408191561698914, 0.08487463742494583, -0.13400210440158844, -0.17766550183296204, -0.22506362199783325, 0.17572198808193207, 0.10993663966655731, -0.10210897028446198, -0.02634851075708866, -0.09181392192840576, 0.13398711383342743, 9.09888050321106e-12, -0.00017411891894880682, -0.08887990564107895, -0.13002502918243408, 0.10195920616388321, 0.07063587009906769, -0.11371959745883942, -0.22260138392448425, -0.17847280204296112, 3.2606087188469246e-05, -0.05010155960917473, 3.669510562076539e-08, 0.1416354477405548, -0.007709043566137552, -0.08066828548908234, -3.1273241347662406e-06, 0.1043800413608551, 0.09517966210842133, 0.11241844296455383, -0.14676064252853394, -2.6158184482483193e-05, 0.20633426308631897, 0.115334153175354, -0.060289863497018814, 0.14959777891635895, 0.033324483782052994, 0.05887240543961525, 0.0950469970703125, 0.14656119048595428, 0.09950626641511917, -2.528173354221508e-06, -0.03945016860961914, 0.025109656155109406, -0.10174043476581573, -0.08779481053352356, -1.4622988824604038e-18, -0.017656560987234116, 0.11402827501296997, 0.23533903062343597, -2.1401344696414526e-08, -3.1161039260041434e-06, -0.14995177090168, 0.20188026130199432, 0.09604697674512863, -0.07887657731771469, 0.11990652233362198, 0.20450359582901, 0.1764202117919922, 9.981855328078382e-06, -0.12315057963132858], [1.6810147940304887e-08, -0.11826768517494202, 9.04865373740904e-07, 0.3877842426300049, -0.09223683923482895, 0.19130101799964905, -0.3288518488407135, 0.0328078456223011, 0.23431460559368134, 0.3620610237121582, -0.31240957975387573, -0.08703693747520447, -0.26707348227500916, 0.17537368834018707, 3.5316531921125716e-07, 9.610168945073383e-07, -0.07659699767827988, 0.1918400675058365, 0.2677555978298187, 0.4740664064884186, -0.08827576041221619, -0.1416141241788864, -0.22105476260185242, -1.1681865955598376e-19, 0.22239962220191956, 2.645803533596336e-06, -0.06387055665254593, 0.14533722400665283, -0.03370603546500206, -5.737100485173616e-20, -0.130161851644516, -0.048175450414419174, 0.16284871101379395, 0.21309639513492584, -6.067870344850235e-06, -0.17323355376720428, 0.04078533127903938, 0.053281426429748535, -0.08939223736524582, 0.0034121510107070208, -0.061920229345560074, -0.24162152409553528, -0.18556787073612213, 0.2232457846403122, -5.147148422211349e-19, -0.08293621242046356, 0.44520652294158936, -0.08796179294586182, -0.007472692988812923, -1.4698036920890445e-07, 0.02009875886142254, 0.016057481989264488, 0.05346208065748215, -1.2557355830722372e-06, -2.417893663064774e-10, 0.16232344508171082, 0.296508252620697, -0.23044876754283905, 0.0003375764936208725, -0.042497262358665466, -0.016113005578517914, 0.18156732618808746, 1.0980642901837947e-15, -0.16696380078792572], [2.684164557287261e-10, -0.19208762049674988, 8.518743334709217e-15, 0.039366643875837326, 0.07661814987659454, -0.17560894787311554, 0.028656097128987312, -0.021834412589669228, 0.0364382266998291, -0.16069631278514862, 0.042184215039014816, 0.05052853003144264, 0.04340876638889313, 0.04337827488780022, 4.604634729066248e-11, -0.00017040202510543168, -0.03317011147737503, 0.1411183476448059, 0.013424711301922798, -0.10809978097677231, -0.16133078932762146, -0.06323978304862976, 0.14586038887500763, 7.156421566456572e-10, 0.12179522216320038, -2.5395795840118667e-21, -0.03766584396362305, -0.0661802664399147, -0.04501286521553993, -2.857060122267078e-19, -0.13390110433101654, -0.0994252935051918, 0.04827922210097313, 0.07917562127113342, 6.167684477986768e-05, 0.19414111971855164, 0.05433850735425949, -0.0313701368868351, 0.08213168382644653, 0.08746273815631866, -0.13318122923374176, -0.015556728467345238, 0.15584459900856018, -0.052744075655937195, 5.643056330929113e-18, 0.06301327794790268, -0.1604457050561905, -0.03570782393217087, -0.06776819378137589, -3.7122114008525386e-05, -0.10409250855445862, 0.180365189909935, -0.08759364485740662, -3.0940119298597386e-21, -4.298247036071956e-10, 0.1768495887517929, -0.08227068185806274, -0.01836390420794487, 0.2010560780763626, 0.1630171686410904, -0.10604014992713928, 0.13616377115249634, -6.346228533439423e-20, -0.0440211147069931], [-2.1219623249635333e-06, -0.1302454173564911, 3.1092730612414243e-09, -0.13542845845222473, 0.09778116643428802, 0.0215179231017828, 0.20283886790275574, -0.16168643534183502, 0.023991938680410385, -0.22627538442611694, 0.1374385952949524, 0.07467684149742126, 0.23506216704845428, -0.24298544228076935, -1.833900205383543e-05, -0.00011112416541436687, 0.02109948918223381, -0.14615488052368164, 0.1377183049917221, -0.18570667505264282, -0.04789579287171364, 0.17111200094223022, 0.045212436467409134, 5.408232439663152e-08, -0.22086675465106964, 1.6279008108610252e-22, -0.08934219181537628, -0.29078957438468933, 0.1551344245672226, -1.751014906403725e-06, 0.01728343963623047, -0.03550843894481659, -0.0629500225186348, 0.2577589750289917, -4.076863478985615e-05, 0.14831426739692688, 0.2661571204662323, -0.008402662351727486, 0.2198939472436905, -0.16660109162330627, 0.053221382200717926, -0.05481289327144623, 0.17703337967395782, 0.17574962973594666, -8.461436884488194e-09, 0.04437779262661934, -0.2616747319698334, -0.009154432453215122, 0.01324438489973545, 3.570417175069451e-05, 0.011733070015907288, -0.0642758160829544, -0.19324031472206116, -1.1551253464858746e-06, -4.876690340438472e-08, -0.12696155905723572, 0.1493626981973648, 0.06032600626349449, -0.16438017785549164, -0.11639414727687836, 0.2712273895740509, 0.06548277288675308, -1.4113742508925498e-05, 0.17349527776241302], [5.103944455700277e-20, -0.2036404013633728, -6.381290651654014e-20, 0.12830659747123718, -0.13697226345539093, 0.22013713419437408, 0.10162974894046783, 0.08785531669855118, 0.009732275269925594, -0.010815798304975033, 0.05887260288000107, -0.00667155347764492, -0.20916365087032318, -0.024277357384562492, 2.1821738016569725e-07, 1.491296734457137e-05, -0.20593474805355072, 0.06843127310276031, -0.10262887924909592, 0.15706133842468262, -0.17877885699272156, -0.09287521243095398, 0.07405247539281845, -4.007862531745962e-21, -0.07696045935153961, 3.0515909656969598e-06, 0.2755190432071686, 0.13226430118083954, -0.1182309091091156, 1.0662019468745263e-19, 0.19551600515842438, 0.07546595484018326, -0.21860405802726746, -0.2241017073392868, -4.183993598744867e-20, 0.15745599567890167, 0.041422802954912186, 0.05886565521359444, -0.1988138109445572, 0.02650277502834797, 0.10403618961572647, -0.06704507768154144, 0.09252425283193588, 0.19993939995765686, -1.386019903293345e-07, 0.01701807975769043, 0.025958620011806488, 0.1177271381020546, 0.010703599080443382, 2.2280931982233965e-13, 0.027210533618927002, -0.07146289944648743, 0.19267050921916962, 2.0837052830838696e-20, -9.064183927876002e-07, 0.09931803494691849, 0.11864057928323746, -0.18822838366031647, 0.07920201122760773, 0.1454625427722931, -0.16137002408504486, 0.24021819233894348, -1.666200205363566e-06, -0.12423736602067947], [-3.2500656743650325e-07, 0.2121715247631073, 3.875757787624723e-12, 0.011227985844016075, -0.016591224819421768, 0.025451112538576126, -0.1760743260383606, 0.1522156000137329, 0.10619154572486877, 0.01589912921190262, 0.23026898503303528, -0.027777543291449547, 0.2455187886953354, 0.0526091605424881, 2.2621028585457365e-13, -0.00019457537564449012, 0.23773112893104553, -0.05855465680360794, -0.15495193004608154, -0.16335541009902954, 0.07222273200750351, 0.034723490476608276, 0.1339699625968933, 4.460725449462188e-06, -0.20986337959766388, 3.944924387155879e-09, -0.10200969129800797, 0.16513308882713318, 0.14406321942806244, 6.492013300288212e-20, 0.12246938049793243, -0.06840131431818008, -0.023541051894426346, 0.1648285686969757, -6.489715935383816e-20, -0.0391429103910923, 0.003152071265503764, 0.12546755373477936, -0.02476981095969677, -0.10488732159137726, 0.14097467064857483, 0.18221433460712433, -0.14506275951862335, -0.13393813371658325, -1.5961782082740683e-06, -0.054727911949157715, 0.015185683034360409, 0.1168467327952385, 0.08674760162830353, 1.2642082781284206e-14, -0.030204497277736664, 0.16156119108200073, -0.022241933271288872, 4.158013325650245e-05, 2.0660648756068434e-13, -0.1769976019859314, 0.08321399241685867, -0.05621183291077614, 0.11922579258680344, -0.1546836644411087, -0.10069958865642548, 0.1383703202009201, -4.4300090706883566e-08, 0.12233194708824158], [-1.8855028649511496e-09, 0.1420215666294098, 2.3674837090759127e-10, -0.033788587898015976, 0.02179350145161152, -0.22229912877082825, -0.1351383626461029, -0.0986735001206398, 0.039755698293447495, 0.13436338305473328, 0.21324265003204346, 0.08221655339002609, 0.1924608051776886, 0.0031556894537061453, -6.7004601866926805e-09, -0.00014893176557961851, 0.18992288410663605, -0.04198364540934563, -0.2476102113723755, -0.03058537095785141, 0.06917833536863327, 0.23906539380550385, 0.10957368463277817, -8.545651030344645e-15, 0.13669805228710175, -4.332403477746993e-06, -0.04773347079753876, -0.3013063371181488, 0.05224810540676117, 9.759044587553944e-06, -0.11133644729852676, 0.08685502409934998, -0.1146901398897171, 0.3269859254360199, 1.579781105931488e-08, 0.2146645188331604, -0.15131694078445435, 0.1387486755847931, 0.15764120221138, -0.07944206148386002, 0.24438832700252533, -0.011738782748579979, 0.2529400587081909, -0.2355845868587494, 5.222251520109467e-10, -0.026326285675168037, -0.21593940258026123, -0.13589727878570557, -0.15662814676761627, -1.0726607572742736e-20, -0.019212838262319565, 0.005562730599194765, -0.13788874447345734, -3.898242006972197e-10, 8.31874835682811e-09, -0.21486763656139374, 0.15686272084712982, 0.19164235889911652, -0.11635708808898926, 0.11066906899213791, 0.26409968733787537, -0.18844397366046906, -1.0552368621574715e-05, -0.060912713408470154], [1.284429202996762e-07, -0.1166919618844986, 1.888472694484896e-17, 0.10707009583711624, 0.21953338384628296, -0.06972195953130722, -0.11845167726278305, 0.1574842929840088, 0.06600762903690338, -0.2711951434612274, -0.06754932552576065, 0.05565861612558365, 0.1637919396162033, 0.00489420909434557, 3.1631893762096297e-06, 2.5298215405200608e-05, 0.06385481357574463, -0.19613796472549438, -0.21010425686836243, 0.15361113846302032, 0.20883722603321075, 0.15943506360054016, 0.2478829026222229, 7.2486105911720895e-19, -0.014292939566075802, 1.2475103957666767e-13, 0.24054761230945587, 0.0014120270498096943, -0.2486141473054886, -1.4456273674071273e-22, -0.2874610722064972, -0.0279573705047369, -0.10977589339017868, 0.017916513606905937, 2.19745488720946e-05, 0.14206434786319733, 0.23866663873195648, -0.083604596555233, 0.14151352643966675, -0.07102370262145996, -0.04197372496128082, 0.0403364822268486, 0.07670354098081589, -0.3196568489074707, -1.7055305079338723e-06, -0.23320728540420532, 0.1132919192314148, -0.19152192771434784, 0.0774732306599617, -1.9558670771857578e-07, 0.014570033177733421, -0.23325835168361664, -0.24971285462379456, -2.0862278608347296e-21, -5.711425546905957e-05, -0.19660700857639313, -0.22262148559093475, -0.2697555124759674, -0.40813326835632324, 0.017823560163378716, 0.1771232932806015, -0.06438963115215302, -2.3286848280342593e-22, 0.023889269679784775], [1.3909611880080774e-05, 0.01398948673158884, -8.492991582897957e-06, 0.10093307495117188, -0.10739395767450333, -0.11369139701128006, 0.028651133179664612, 0.1485559344291687, -0.02872861549258232, 0.08165111392736435, 0.2640010118484497, -0.17011640965938568, -0.04466754570603371, -0.08742740005254745, -1.623587293905e-17, -0.00016203062841668725, 0.25699102878570557, 0.035798080265522, 0.012200864963233471, -0.037369504570961, 0.20461566746234894, 0.24027298390865326, 0.19705592095851898, -6.178369221743196e-05, 0.011140515096485615, -2.1127725631231442e-05, -0.06343977153301239, -0.19061598181724548, 0.02438119240105152, 1.210793826311729e-10, -0.153540700674057, -0.045167554169893265, -0.045835427939891815, 0.004675628151744604, -3.1628112537873676e-06, 0.006932881195098162, 0.13431508839130402, -0.22484473884105682, -0.11271840333938599, -0.04749858006834984, 0.2595471441745758, 0.13245901465415955, 0.12741941213607788, -0.10200464725494385, -1.4793163079022378e-16, -0.22342358529567719, 0.10882550477981567, 0.16948896646499634, 0.08778737485408783, 2.6777420316648204e-06, 0.03552994504570961, -0.17695070803165436, 0.14180584251880646, -1.4554583685821854e-05, 2.696661788180862e-20, -0.1700747162103653, -0.2241758406162262, -0.010200134478509426, -0.07323296368122101, 0.045873820781707764, 0.08930989354848862, -0.23690201342105865, -2.972743459395133e-06, 0.0198509581387043], [-5.306982284181139e-12, 0.1944204717874527, 3.0050276503268414e-12, 0.07522640377283096, 0.13082221150398254, -0.12919703125953674, 0.1406904011964798, -0.11086802184581757, -0.11128466576337814, 0.06613709777593613, 0.05286497250199318, 0.07086680829524994, 0.22702771425247192, 0.062100835144519806, 9.39087931328686e-06, -0.00015712811728008091, 0.03788898512721062, -0.056638315320014954, -0.15594980120658875, 0.05165456607937813, 0.19195450842380524, 0.18039609491825104, 0.04726109281182289, -6.492969646387792e-07, -0.12204093486070633, -1.5625729474777472e-06, 0.06478075683116913, -0.17307503521442413, -0.23790955543518066, -3.772685522562824e-05, 0.026125267148017883, 0.005036399699747562, -0.11520183086395264, -0.02024884521961212, 4.9719818226035215e-17, 0.009677253663539886, 0.14436283707618713, -0.03439252823591232, 0.0061548189260065556, -0.11339686065912247, 0.32802265882492065, 0.08104974031448364, 0.1860257238149643, -0.25031667947769165, 8.974289664637719e-22, -0.2739473879337311, -0.01757599040865898, 0.16745799779891968, 0.02098398469388485, -2.797635897877626e-05, -4.551994788926095e-05, -0.12609325349330902, -0.21611686050891876, -3.946169454138726e-05, 1.7973622590261584e-08, -0.034571073949337006, -0.13618682324886322, 0.2111859917640686, -0.3390098810195923, 0.2880939543247223, 0.004799977410584688, 0.09537160396575928, -7.956931156509147e-16, 0.18805497884750366], [4.6096480218693614e-05, 0.034775856882333755, 2.8059475880581886e-05, -0.0990903452038765, 0.1083488017320633, -0.17840123176574707, 0.1278841197490692, -0.13325610756874084, 0.041885457932949066, -0.12563550472259521, 0.2614962160587311, 0.0009543528431095183, 0.09978003799915314, -0.2623237073421478, -7.112188171731759e-09, 1.7697142538963817e-05, -0.1191173866391182, -0.2698499262332916, -0.269564151763916, 0.4294111132621765, 0.16008774936199188, 0.10102641582489014, 0.15370844304561615, -1.7538824295115774e-06, -0.1287170946598053, 4.569315845831534e-14, 0.17622241377830505, -0.12522660195827484, 0.04050178453326225, 3.297444209238165e-06, -0.09568637609481812, 0.026575807482004166, -0.07898559421300888, -0.2004489004611969, 9.589924916729529e-16, -0.05570317804813385, 0.15581098198890686, -0.12698760628700256, 0.003498256905004382, 0.0745723620057106, 0.2896021902561188, 0.2376885861158371, 0.15284623205661774, -0.0074888551607728004, -2.327588617845322e-06, -0.05834808945655823, -0.3487679958343506, -0.018637141212821007, 0.023519592359662056, 2.98149871014175e-06, 0.07266619056463242, -0.3262959420681, -0.18745799362659454, 4.326654379838146e-05, 2.098806620310826e-21, 0.17515109479427338, -0.0923752635717392, -0.10416766256093979, -0.4210374057292938, -0.0023621912114322186, 0.192860409617424, -0.19159047305583954, 1.083860552547075e-22, 0.1379079967737198], [1.472726755532069e-17, 0.2106882780790329, 4.304099638829939e-05, -0.05411051958799362, 0.14546330273151398, 0.08758264034986496, 0.07401272654533386, 0.1840159296989441, -0.15500450134277344, -0.18741683661937714, 0.19705410301685333, -0.030987173318862915, 0.19308653473854065, 0.13847540318965912, -1.60713661898626e-05, -0.00018484269094187766, 0.07591703534126282, -0.036426667124032974, 0.034282539039850235, 0.25941669940948486, -0.14866648614406586, 0.03568597882986069, 0.1335604041814804, 2.1685504503210495e-09, 0.04499740153551102, -2.0561540168273496e-06, -0.21926656365394592, -0.04199250787496567, 0.13084295392036438, -1.955753559101936e-09, -0.10885355621576309, 0.12849998474121094, -0.22287102043628693, 0.26323091983795166, 4.769748485067282e-11, 0.18413537740707397, -0.04857753589749336, -0.23933403193950653, 0.17811889946460724, 0.08067528158426285, 0.1704447865486145, -0.1037539392709732, 0.14817705750465393, 0.0825410783290863, 6.521740179149527e-12, 0.0947970375418663, 0.10050269216299057, 0.03504808247089386, -0.14854690432548523, 1.4690458077838803e-22, -0.07940682768821716, -0.03605912998318672, -0.06504993140697479, -1.4713561540702358e-05, -2.601483048078612e-12, -0.18316778540611267, 0.13313910365104675, 0.20787061750888824, -0.2478138655424118, 0.24297522008419037, 0.07807626575231552, -0.11085197329521179, -1.1151098078698851e-05, 0.023349033668637276], [1.280730259622942e-07, 0.09016361832618713, -2.1586405637208372e-05, -0.32926395535469055, 0.02914774976670742, -0.046471111476421356, -0.07911185175180435, -0.10833164304494858, 0.11037001758813858, 0.16433966159820557, -0.062281906604766846, 0.2271367460489273, -0.08928534388542175, -0.009919865988194942, -4.701335498680237e-08, -0.00015706433623563498, 0.28096717596054077, 0.07860921323299408, -0.05453011393547058, 0.02604145184159279, -0.16173379123210907, 0.17747747898101807, 0.020258242264389992, 2.2153915641852593e-19, 0.05868023261427879, 3.31802693773111e-14, -0.013856020756065845, 0.07697446644306183, -0.08626391738653183, 1.1528566989937872e-09, 0.18095125257968903, 0.10654368996620178, 0.06458454579114914, -0.12320008873939514, -1.547562192172336e-06, 0.13951292634010315, -0.09436047822237015, 0.011733412742614746, -0.12056013941764832, -0.14173515141010284, 0.09697332978248596, -0.1930076777935028, 0.13431312143802643, -0.06288880109786987, -6.355443474603817e-05, -0.0008320847991853952, -0.4217167794704437, -0.10118633508682251, 0.07094306498765945, -1.597946356923785e-05, 0.07701558619737625, -0.168013334274292, -0.08642444759607315, 7.219115971679457e-09, -9.292057401300013e-11, -0.189264178276062, -0.03210374340415001, -0.05839028209447861, 0.08281639963388443, -0.08078484237194061, 0.19850672781467438, 0.17907878756523132, -3.8452891811690003e-19, 0.19420549273490906], [-2.0104347331871553e-14, 0.1662224531173706, -7.999075023690239e-06, 0.24971933662891388, -0.05888903886079788, -0.03033837303519249, -0.008147714659571648, 0.10137464106082916, -0.18782180547714233, -0.08548365533351898, 0.07090307027101517, 0.060322556644678116, 0.16144390404224396, 0.09753409028053284, 2.2099746274761856e-05, 9.773928468348458e-06, -0.11209926009178162, -0.2115173190832138, 0.19638758897781372, 0.3525291979312897, -0.25083595514297485, -0.11431346833705902, 0.13936765491962433, 1.1373472309644502e-23, 0.032249704003334045, -6.136019967804677e-20, -0.3173220753669739, -0.07029479742050171, -0.029538346454501152, -2.05257620109478e-05, 0.1200636625289917, -0.01457993034273386, 0.14110732078552246, 0.21433576941490173, -9.432534398001735e-08, 0.025836044922471046, 8.975201239991293e-07, 0.24387702345848083, -0.16122448444366455, 0.010649437084794044, 0.005073479376733303, -0.1266876459121704, -0.2022782415151596, 0.08322039246559143, 6.245326922282857e-09, -0.04150846600532532, 0.2025492638349533, -0.017846379429101944, 0.05708528310060501, -1.7030902199621778e-07, 0.021033216267824173, -0.10461163520812988, -0.025526026263833046, -1.7883659893414006e-05, -4.230972535879118e-06, 0.016696924343705177, -0.0983068123459816, 0.01572718471288681, -0.24148383736610413, -0.10476971417665482, -0.16143116354942322, -0.15277621150016785, -2.847389168891823e-06, -0.04024139791727066], [-3.6922499615882484e-22, -0.0026706596836447716, 9.304698640048286e-21, 0.0877533107995987, -0.16446931660175323, -0.04676727578043938, 0.2165059894323349, -0.005475837271660566, 0.051746219396591187, -0.0753994956612587, 0.14020311832427979, 0.12973937392234802, 0.04026351124048233, 0.18587395548820496, -2.7426065116742393e-06, -0.0004058104532305151, 0.21121329069137573, 0.11541265994310379, -0.16532762348651886, -0.0647929236292839, -0.1639811396598816, -0.06453301012516022, 0.15623626112937927, -3.0117726882412432e-21, -0.09803269803524017, -6.95301021619299e-14, -0.28068214654922485, -0.022501910105347633, 0.07742618024349213, 3.743693741853349e-05, 0.18487648665905, -0.14988696575164795, 0.17096075415611267, 0.08881241083145142, 6.502065730273898e-08, 0.007957112044095993, -0.027996275573968887, -0.0974082350730896, -0.12821538746356964, -0.0792573019862175, -0.058550089597702026, 0.031336791813373566, 0.13511507213115692, -0.029381053522229195, -1.7991485947277397e-05, 0.20547273755073547, 0.2075289934873581, 0.12762171030044556, 0.2297687977552414, 3.74963621233187e-20, 0.07392673939466476, -0.1627112627029419, -0.06353648006916046, -4.8605855340611015e-08, -1.978795012291812e-07, -0.1707361787557602, 0.06871628016233444, 0.13261638581752777, 0.04571576043963432, -0.12409661710262299, 0.18440447747707367, 0.05135396122932434, 6.342652059862757e-16, 0.0721171647310257], [-6.8629875116243966e-09, -0.10165657103061676, 9.606661478755996e-06, -0.1446104198694229, 0.038005709648132324, 0.20594115555286407, 0.08506139367818832, -0.20364484190940857, -0.17078784108161926, -0.20626947283744812, -0.0032631591893732548, 0.04854021966457367, -0.19885039329528809, 0.24527840316295624, 3.941480479795015e-21, -0.00012808274186681956, 0.060495443642139435, 0.14585711061954498, -0.1382870376110077, -0.0986439436674118, 0.09520839899778366, -0.06181744486093521, -0.002280081855133176, -9.531100720202178e-19, -0.14911004900932312, -6.773908580726129e-07, -0.0994032546877861, -0.16455644369125366, -0.13775499165058136, 9.611916311769164e-07, 0.28179219365119934, 0.0930522158741951, 0.22188398241996765, -0.087428018450737, 2.7738629796658643e-05, -0.15476326644420624, 0.1648193597793579, 0.26724857091903687, 0.045867372304201126, 0.17150285840034485, 0.02199259214103222, -0.14685702323913574, -0.05394585058093071, 0.10035980492830276, -1.2297985449549742e-05, 0.0891178771853447, 0.08553829789161682, -0.08986453711986542, 0.08184466511011124, 7.402893061225768e-06, 0.08680536597967148, 0.27634063363075256, 0.0713171437382698, 4.002172499895096e-05, 1.9127616823766402e-08, -0.16365845501422882, 0.057172056287527084, 0.14356662333011627, -0.25432419776916504, 0.03224269300699234, 0.12109828740358353, -0.09984060376882553, -9.346503734283605e-20, 0.12941515445709229], [-3.6651471621308787e-23, -0.11959690600633621, -5.3180279792286456e-05, 0.015272896736860275, 0.2654680907726288, -0.2509663999080658, 0.1512647271156311, -0.10430946201086044, -0.05098404735326767, 0.03622012585401535, 0.2228425294160843, -0.3086031377315521, 0.06365112215280533, -0.3652943968772888, 3.816445344741662e-21, 1.8894892491516657e-05, -0.08758660405874252, -0.2834832966327667, -0.14599628746509552, 0.21679700911045074, 0.30182895064353943, -0.0862487405538559, 0.19794847071170807, -6.974297848223385e-14, -0.1248043105006218, 1.6076242559392995e-08, 0.3807923197746277, 0.07744363695383072, -0.10622797906398773, -8.254896332465789e-13, 0.006406706292182207, -0.06365124136209488, -0.08360651135444641, -0.0037862788885831833, 5.178009930550953e-12, -0.0011721898335963488, 0.02028910629451275, 0.10174921154975891, -0.0783962830901146, 0.0037688890006393194, -0.032993149012327194, -0.09760366380214691, -0.10150846838951111, -0.267992228269577, 2.139482376151136e-06, -0.2013334482908249, 0.23314274847507477, -0.09473802894353867, 0.06677398085594177, 1.8796931648993806e-17, 0.003827354870736599, -0.03677916154265404, -0.21726258099079132, -1.473979250286861e-12, 4.995784820494009e-06, 0.20755428075790405, 0.06478571891784668, -0.1295839548110962, -0.018775759264826775, 0.08628784865140915, 0.05014793574810028, -0.22026614844799042, -6.725248371808052e-17, 0.013807575218379498], [-2.0025901076303754e-11, 0.21836379170417786, -1.1895814822082684e-07, -0.007049067877233028, -0.11132636666297913, 0.12693631649017334, 0.04335159808397293, -0.05316156893968582, 0.10941798985004425, 0.12589874863624573, -0.023978227749466896, 0.07193900644779205, 0.17531991004943848, 0.018385304138064384, -1.1408833415771369e-06, -0.0002199986483901739, 0.12732335925102234, -0.15510302782058716, -0.059711258858442307, -0.20073817670345306, -0.09103693813085556, 0.1651458740234375, -0.15346066653728485, -1.7902684886736204e-17, -0.05434795469045639, -1.9439064999460243e-05, 0.0006477613933384418, -0.10043932497501373, -0.10584093630313873, -2.786217645489586e-10, -0.10286090523004532, -0.1590590924024582, 0.07473129034042358, 0.24046461284160614, -5.138857162023669e-08, 0.12463502585887909, 0.1423286646604538, 0.11022387444972992, 0.05820273235440254, -0.05696481093764305, 0.0033446019515395164, 0.15652388334274292, 0.1946055293083191, -0.18365047872066498, -8.143654614588616e-14, 0.1617923378944397, 0.2112359255552292, 0.1889079064130783, 0.15162797272205353, 1.0784158786645735e-15, 0.007294206414371729, 0.06204695999622345, -0.21635176241397858, 3.72422593477258e-20, 8.123399175552493e-10, -0.15934349596500397, 0.12098219990730286, 0.054879575967788696, 0.20798908174037933, -0.14144010841846466, -0.034349631518125534, 0.008212029002606869, -5.120419088733286e-10, 0.11192959547042847], [2.1042556141992463e-08, -0.20248711109161377, -6.558178601030308e-22, 0.0235733762383461, -0.023632260039448738, 0.21442486345767975, 0.13137081265449524, 0.07168564200401306, 0.06777292490005493, 0.010062905959784985, 0.10912065953016281, 0.16016075015068054, 0.06167593598365784, 0.21228790283203125, -2.711138646915856e-09, -0.00019039881590288132, -0.07922794669866562, -0.009458799846470356, -0.04238668829202652, 0.23891548812389374, 0.12406016886234283, 0.06039810553193092, 0.08026935160160065, -7.843985210790554e-19, 0.2381666749715805, -1.8136053574905277e-22, -0.24984188377857208, -0.20946234464645386, 0.19024798274040222, 4.785583485045208e-09, 0.022759567946195602, -0.13452108204364777, 0.21294182538986206, -0.07863782346248627, 5.228082411434798e-10, 0.1835278868675232, -0.06994497776031494, -0.06681197881698608, 0.03314925357699394, 0.11676821112632751, 0.024043798446655273, 0.16236566007137299, -0.20976917445659637, 0.058171674609184265, 1.602864618810429e-09, 0.17738163471221924, -0.14443542063236237, 0.20287010073661804, -0.018131248652935028, 8.404800886161043e-16, -0.048254333436489105, 0.23883876204490662, -0.08543378114700317, -1.6780375700076178e-10, -8.527709649541748e-10, 0.14483200013637543, 0.1432437151670456, 0.1854085922241211, -0.2632949650287628, 0.02213152125477791, 0.06115850433707237, 0.1909632682800293, 7.039252068352653e-06, -0.22976329922676086], [3.596415873441394e-11, -0.0384436659514904, -1.1177430538548226e-19, -0.0007404290954582393, 0.15561585128307343, -0.272259920835495, 0.22617124021053314, -0.056637417525053024, 0.12531623244285583, -0.24216216802597046, -0.001004368532449007, -0.0646391287446022, 0.06821262091398239, -0.24915507435798645, 1.0897658470065963e-10, 2.2883508790982887e-05, -0.061634745448827744, -0.31616508960723877, -0.007750941440463066, -0.056309863924980164, 0.23838716745376587, 0.2527821958065033, 0.024411579594016075, -1.9570501031686047e-17, -0.04670325666666031, -5.698295353795402e-06, 0.4382990300655365, -0.18864965438842773, -0.24655993282794952, 4.2706076783360913e-05, -0.36358845233917236, 0.010929432697594166, -0.305836021900177, 0.22342558205127716, -4.008912128483644e-06, 0.14473411440849304, 0.3220959007740021, -0.08064643293619156, 0.10700854659080505, -0.025843609124422073, 0.1061817854642868, 0.06505365669727325, 0.04104751721024513, -0.20324701070785522, -3.937068004944422e-09, -0.2962533235549927, 0.08821967989206314, 0.02863353118300438, 0.2123415619134903, -1.1117046597064473e-05, -0.05614054948091507, -0.01925351284444332, -0.2945058345794678, -7.40989116820856e-06, -4.607201194342496e-16, 0.06937197595834732, -0.09008947759866714, -0.19074085354804993, -0.38601791858673096, 0.37145552039146423, 0.010953407734632492, -0.08835749328136444, 6.592957846329739e-10, 0.2751733660697937], [-1.2676261429422908e-10, -0.0007761578890495002, -3.611536464157727e-16, 0.19087886810302734, 0.2356467843055725, -0.2776341438293457, -0.06841107457876205, 0.17910251021385193, 0.07696737349033356, 0.10411931574344635, -0.03737464174628258, -0.007787814363837242, 0.1797155737876892, -0.013179454021155834, 8.648589541526141e-17, -0.00036648428067564964, 0.1712859869003296, -0.22458793222904205, -0.0917491465806961, 0.16738466918468475, 0.06276953965425491, 0.2375863790512085, -0.0339861661195755, 3.063533454694678e-11, 0.10390344262123108, -5.613635039480869e-06, -0.21347646415233612, -0.07553760707378387, -0.24564434587955475, 1.1391061427445948e-08, 0.16279800236225128, -0.026314985007047653, -0.1594099998474121, 0.09106584638357162, 2.2838106961131643e-09, -0.11936164647340775, 0.11453007161617279, -0.0323333814740181, 0.19420437514781952, -0.07049798965454102, 0.21056655049324036, -0.07670126855373383, -0.033629029989242554, 0.07823013514280319, 6.295192367389291e-09, -0.26121121644973755, -0.008855581283569336, -0.1850108951330185, -0.02345130778849125, -1.4464904829480929e-08, -0.07237574458122253, -0.0691227987408638, 0.025633886456489563, -1.0753982179108616e-15, 3.1965895208596606e-11, -0.19676260650157928, 0.1656588613986969, 0.16901051998138428, 0.12412185966968536, 0.23685242235660553, 0.2879696786403656, -0.056722067296504974, -1.623496643787803e-07, 0.10784292966127396], [8.160636610909933e-09, 0.14381659030914307, -5.272810712034207e-21, -0.07713642716407776, 0.010019361041486263, 0.13908086717128754, 0.07290167361497879, 0.0029964407440274954, -0.12730689346790314, -0.07722847163677216, 0.16672135889530182, 0.08118469268083572, 0.15363425016403198, -0.028496814891695976, 1.0235529871588378e-13, -0.00021398856188170612, 0.17779886722564697, -0.05223334580659866, -0.07532703131437302, 0.06277313828468323, 0.23977357149124146, -0.14337287843227386, 0.19379638135433197, -7.120986023068099e-10, -0.055199600756168365, -4.069106944371015e-05, -0.29554808139801025, -0.13380317389965057, -0.19830778241157532, -3.6566934131261682e-22, 0.2064409852027893, -0.036825526505708694, 0.12232910096645355, 0.17602203786373138, 4.3268015038899765e-12, -0.062276359647512436, -0.13870257139205933, -0.17954964935779572, -0.16582149267196655, -0.12608884274959564, 0.14191506803035736, 0.20355325937271118, 0.19010671973228455, 0.060507502406835556, -4.369933321868302e-06, -0.13125751912593842, -0.0735275149345398, -0.07543747127056122, 0.0279234666377306, 3.8141097712015503e-20, -0.00021786463912576437, -0.05366121977567673, 0.13052617013454437, 1.00286527526805e-07, -1.999829468690706e-10, 0.16338735818862915, 0.21574360132217407, -0.017533447593450546, -0.2135380357503891, 0.034895189106464386, 0.25648078322410583, 0.14603853225708008, -5.505315129994415e-06, -0.0324854739010334], [-4.383275043864301e-19, 0.14616839587688446, -2.1570023989170295e-07, 0.18979376554489136, 0.24189284443855286, -0.04130306467413902, 0.3069725036621094, 0.12101273238658905, -0.0035852587316185236, -0.13227133452892303, 0.013843235559761524, -0.10076271742582321, 0.009613574482500553, -0.10779579728841782, -3.90471726063879e-08, 1.0959513019770384e-05, -0.029775768518447876, -0.45469799637794495, -0.09604402631521225, -0.010849211364984512, 0.16139879822731018, 0.037000976502895355, -0.03860020264983177, -4.31606313213706e-05, -0.2887789309024811, 4.5406591198116075e-06, 0.43973180651664734, -0.10726406425237656, -0.3727095425128937, -5.668420399729257e-08, -0.15745462477207184, 0.03879742696881294, -0.26943036913871765, -0.24895666539669037, 1.080717161303145e-15, 0.05464021861553192, 0.07432045042514801, 0.03851288929581642, 0.1612977832555771, 0.00973778497427702, 0.10042105615139008, 0.1201179027557373, 0.17323891818523407, -0.0964280217885971, 4.6135822939774584e-10, -0.3517589569091797, 0.02332725189626217, -0.16574950516223907, 0.32137200236320496, 1.2733314836560483e-13, 0.007572367787361145, -0.369031697511673, -0.14948779344558716, -3.5599086913862266e-06, -1.0715974115005356e-11, -0.13649356365203857, -0.05759263411164284, -0.2230367660522461, -0.2144261598587036, 0.32574740052223206, -0.02888885699212551, -0.14874087274074554, -1.9303627750658064e-17, -0.0024120307061821222], [1.1804031174733609e-07, -0.10409726947546005, 4.82113011179869e-21, 0.005238985177129507, 0.11632708460092545, 0.0013860849430784583, -0.023706287145614624, -0.22672677040100098, 0.07222049683332443, -0.04175632447004318, 0.22324272990226746, 0.10759454220533371, 0.22240938246250153, -0.08092720806598663, -1.599773785665448e-11, -0.00016283172590192407, 0.11628343164920807, -0.2258467972278595, 0.10238124430179596, 0.16236995160579681, 0.07748216390609741, -0.10511846840381622, 0.03553719073534012, 1.9246816407303413e-07, 0.0915474221110344, -1.404773684043903e-07, -0.3481576442718506, 0.12084326893091202, -0.0856274962425232, 6.362935643108433e-20, 0.19691161811351776, -0.09420213103294373, 0.03169063478708267, -0.12464182078838348, -3.131951417504643e-14, 0.21201495826244354, 0.053216706961393356, 0.156387060880661, 0.15880924463272095, -0.024166470393538475, -0.019774163141846657, 0.01832355186343193, 0.021263742819428444, -0.2556892931461334, -1.058645087825133e-13, -0.06889019161462784, 0.11969172209501266, 0.016650734469294548, 0.1502322256565094, -5.39137763553299e-05, -0.036890532821416855, 0.0417453832924366, -0.06710004061460495, -5.733517900807783e-05, 2.0075013651421614e-07, 0.10392182320356369, -0.00022877661103848368, -0.18135282397270203, 0.03584659844636917, 0.11417913436889648, 0.2233886420726776, 0.05595461651682854, 1.8796941958498792e-07, 0.07931936532258987], [-1.6882429463294102e-06, 0.08623603731393814, 1.110743611074539e-14, -0.1916276514530182, -0.01782449707388878, -0.10592952370643616, 0.2336786389350891, 0.09508295357227325, 0.15749859809875488, 0.06380447745323181, 0.03892909735441208, 0.10467202961444855, 0.169505313038826, 0.01970546878874302, 1.5189459661845567e-13, -0.00022873960551805794, 0.08341870456933975, 0.11824388802051544, -0.11138734966516495, -0.17579714953899384, -0.0656672865152359, -0.08659069240093231, -0.09105443209409714, -1.0908843856278916e-17, 0.17960838973522186, 3.6698503508478064e-22, 0.02359808422625065, -0.18437351286411285, 0.09143847972154617, -3.630224393254321e-15, 0.16864639520645142, 0.053182996809482574, 0.16234444081783295, -0.18435266613960266, 2.0270511658093682e-10, -0.06530721485614777, 0.2139442414045334, 0.05717739462852478, -0.07644540816545486, -0.09113574028015137, -0.07981351763010025, 0.09805426746606827, -0.08415687084197998, 0.04571644216775894, -5.079673126573425e-09, 0.0367516465485096, -0.11525136977434158, 0.096000075340271, 0.10784964263439178, -2.8071073643332056e-07, -0.1143212839961052, 0.12105149030685425, -0.05137919262051582, -1.267544583908775e-18, -3.332526102894917e-05, -0.12054169923067093, -0.17821189761161804, 0.21061457693576813, -0.24028007686138153, 0.04289139434695244, -0.10372698307037354, 0.06623652577400208, -4.842089576517772e-11, 0.22027048468589783], [4.1843100007099565e-06, -0.05214286223053932, 6.09195285505848e-06, 0.18803003430366516, 0.14135225117206573, 0.08665260672569275, -0.08030818402767181, 0.047340136021375656, -0.16049452126026154, -0.20845037698745728, 0.26947060227394104, -0.14721965789794922, 0.12775462865829468, 0.04583907499909401, 1.595933326825616e-06, 9.656533075030893e-05, -0.10054463148117065, -0.30261996388435364, -0.045959070324897766, 0.014905447140336037, -0.19603775441646576, -0.03464242070913315, 0.13145217299461365, 3.8357375715394857e-19, -0.08914318680763245, 3.899825341130425e-12, -0.37735214829444885, -0.2665455639362335, 0.06522994488477707, 2.6053276560873e-14, 0.05179457738995552, -0.10759315639734268, 0.09404073655605316, 0.14340902864933014, -5.776313886840487e-19, 0.08623112738132477, 0.24985839426517487, 0.02834545448422432, 0.06489957123994827, 0.0537821426987648, 0.12915974855422974, -0.003228425281122327, 0.11393154412508011, -0.10106627643108368, -4.05547488924185e-08, -0.0015331251779571176, 0.1151023879647255, 0.14143459498882294, -0.037663038820028305, -1.828524749313949e-21, -0.01715977117419243, 0.13420088589191437, 0.15937000513076782, 2.0866349013243246e-12, 2.0004112855076528e-07, 0.10552171617746353, -0.027416912838816643, -0.28656110167503357, -0.12912727892398834, 0.09793504327535629, 0.06265514343976974, -0.07503724098205566, 1.7790325728128664e-05, -0.05380275845527649], [1.0086873305387051e-23, 0.1295890063047409, 3.0517177673772267e-10, 0.05994117259979248, -0.042692605406045914, -0.1979919672012329, 0.09343887120485306, 0.02922808565199375, -0.16436263918876648, 0.07942880690097809, 0.008138083852827549, 0.07644089311361313, 0.1821928322315216, -0.17961497604846954, -4.3146166717633605e-05, -0.00017884140834212303, 0.16427235305309296, 0.06322315335273743, 0.1376139521598816, 0.11711009591817856, 0.2535313069820404, 0.05073467642068863, 0.04029674455523491, 3.9188154005265576e-16, -0.19900758564472198, 6.700576551985801e-18, -0.2662874162197113, 0.2101196050643921, 0.04504236578941345, -1.1769267368725347e-16, -0.03485396131873131, -0.09899415075778961, -0.20612679421901703, -0.11242111772298813, -9.093269000004511e-06, 0.08542231470346451, 0.20626738667488098, 0.15257440507411957, 0.15295623242855072, -0.05990949645638466, 0.21848276257514954, 0.2125619649887085, -0.09344418346881866, 0.07687009871006012, -1.112995140495343e-09, 0.11362017691135406, 0.21539174020290375, -0.212276890873909, 0.1949053257703781, 1.9845790524722177e-14, 0.048171184957027435, -0.001038233982399106, 0.13701412081718445, -1.6096473700599745e-05, -1.3322318942465827e-11, -0.2029498964548111, 0.21545079350471497, 0.13536259531974792, 0.12720076739788055, 0.22447814047336578, -0.116274394094944, -0.06095506623387337, -1.2959687410329934e-05, -0.09781438857316971], [-3.95259291963157e-08, -0.0463595986366272, -3.929623737519705e-09, -0.16436152160167694, -0.04509967938065529, -0.11449304968118668, 0.2117641568183899, 0.09827058762311935, 0.19881808757781982, -0.03772931173443794, -0.14018318057060242, 0.18494988977909088, -0.10464324802160263, -0.05034421756863594, -3.3474158556145994e-08, -0.00023817420878913254, -0.04213797673583031, -0.014795660972595215, 0.12077976018190384, -0.20916953682899475, -0.15761010348796844, 0.088348388671875, -0.17170965671539307, -5.654633445512092e-12, 0.19389069080352783, -1.0122339517693035e-06, -0.10135659575462341, -0.0018517951248213649, -0.04180457442998886, -5.749062421559927e-19, 0.19866706430912018, -0.13445627689361572, 0.09801869839429855, -0.04558646306395531, -1.4848620821794611e-06, 0.0334957093000412, -0.11983026564121246, 0.03674832731485367, -0.20846298336982727, -0.01995949074625969, -0.10568294674158096, 0.10110295563936234, -0.22906909883022308, 0.014852327294647694, -6.41540345086873e-20, 0.12290351837873459, -0.0437634103000164, 0.10311643034219742, 0.0858171284198761, 1.8384495206191787e-06, -0.04361945390701294, 0.0766705721616745, 0.19610542058944702, 5.156835322850384e-05, 4.363570042187348e-06, -0.07090412825345993, -0.06456171721220016, 0.03178415074944496, 0.006211808416992426, -0.02493075467646122, 0.050929293036460876, 0.1836942881345749, -4.302923306293699e-13, 0.18926765024662018], [1.302626955640665e-16, -0.09217988699674606, -2.9958419893591032e-21, 0.1438087821006775, -0.1292164921760559, -0.15475665032863617, 0.17138879001140594, -0.12469112873077393, 0.056721031665802, 0.04241308197379112, -0.005779418163001537, 0.021686451509594917, -0.1325877457857132, -0.013499265536665916, -6.370133641495773e-14, 2.5526593162794597e-05, -0.18699505925178528, -0.023598581552505493, -0.11400463432073593, 0.041940461844205856, -0.15228012204170227, -0.14646105468273163, 0.11256382614374161, -1.1823101386809753e-09, 0.22252006828784943, 3.4121156204491854e-05, 0.06622062623500824, -0.1484505534172058, -0.0683213397860527, 1.484083327341068e-07, -0.09038668870925903, -0.1147320419549942, 0.0019206894794479012, 0.15065108239650726, 1.3666448239746387e-07, -0.1526106745004654, 0.11406315863132477, -0.09189781546592712, -0.15476293861865997, 0.07991352677345276, -0.1209619864821434, -0.1229710653424263, -0.23132944107055664, 0.15305906534194946, 1.1714700320908378e-07, 0.06463826447725296, 0.17360521852970123, -0.14266656339168549, -0.022183651104569435, -1.8924397639230595e-12, -0.04717502370476723, -0.05081308260560036, 0.18227405846118927, -2.7310272344038822e-05, -7.648562894146949e-10, -0.11326110363006592, -0.14811457693576813, 0.09223110973834991, -0.06043905392289162, -0.03331723436713219, 0.0612228624522686, -0.1299387812614441, 2.533977737573486e-22, 0.0059429495595395565], [-3.1204688482892504e-16, 0.23868831992149353, 3.7135549746381e-08, 0.019646020606160164, 0.10551988333463669, -0.16394491493701935, -0.19872921705245972, -0.14210917055606842, -0.09436338394880295, 0.02229035086929798, 0.04182922840118408, 0.20252725481987, 0.014518420211970806, -0.007833825424313545, -2.157771450583823e-05, -0.00039145632763393223, 0.13486894965171814, -0.024724949151277542, 0.1673310548067093, -0.13704513013362885, -0.18024547398090363, -0.0162771288305521, -0.09337220340967178, -2.1899490093346685e-05, 0.06804825365543365, -4.220696609991137e-06, -0.19256971776485443, 0.014738005585968494, -0.10618723183870316, -1.0400504107032846e-14, 0.18319059908390045, -0.027567893266677856, 0.1306218057870865, -0.3593905568122864, 4.418743060341512e-08, -0.1005907729268074, 0.09010466188192368, 0.04724237322807312, 0.23643691837787628, -0.024937691166996956, -0.14883491396903992, -0.19063086807727814, 0.159211203455925, 0.013489151373505592, 5.0188337041845443e-08, -0.11604899168014526, -0.06861242651939392, -0.18798129260540009, 0.1965845823287964, 1.8835370763081727e-11, 0.03765898570418358, -0.06142071634531021, 0.06862196326255798, 5.629770608028828e-11, -8.237110299402772e-11, 0.1362038254737854, 0.2323075234889984, 0.16055381298065186, 0.09449487924575806, -0.09104239195585251, -0.05588943511247635, 0.21924597024917603, -5.184783731237985e-05, 0.10048878192901611], [6.397559149107224e-10, -0.08121352642774582, 5.2265684644225985e-05, 0.26103100180625916, -0.17620043456554413, -0.020760834217071533, -0.18844041228294373, -0.11843840777873993, -0.05205545574426651, 0.2856845557689667, 0.020410621538758278, -0.009723817929625511, -0.17212699353694916, 0.36148571968078613, -1.633051761018578e-05, -0.00038738909643143415, -0.23448322713375092, 0.19973108172416687, 0.02796047180891037, 0.31783875823020935, -0.17449578642845154, -0.1869291514158249, -0.24996955692768097, -1.812715017518459e-21, 0.21301591396331787, 1.3436007861855614e-08, 0.013309978879988194, 0.22401048243045807, 0.3458452522754669, 3.4771954915413517e-07, 0.266483336687088, -0.1476089209318161, -0.08776505291461945, -0.3388364017009735, 1.1643215905299265e-11, -0.20408505201339722, -0.20284004509449005, 0.326103150844574, 0.02057904750108719, 0.15261925756931305, -0.2513519525527954, -0.06797667592763901, -0.27445873618125916, 0.03808632865548134, -3.195436306668853e-07, 0.11144021898508072, 0.2678253948688507, 0.30971208214759827, -0.29425257444381714, 4.937505959645705e-09, -0.0006317311199381948, 0.06781331449747086, 0.17423097789287567, -3.890968658382121e-10, -2.6309724785379305e-16, -0.03977402672171593, 0.0011036948999390006, -0.1566532999277115, 0.19125612080097198, 0.033248841762542725, -0.16135311126708984, 0.24890337884426117, 6.616525903557768e-12, 0.05204373225569725], [4.02371256313927e-07, -0.1468372344970703, 5.436282066867415e-12, 0.3709734380245209, -0.20533378422260284, 0.08513260632753372, -0.40116846561431885, 0.1547182947397232, 0.1581728756427765, 0.0069802626967430115, -0.1516125202178955, 0.09710607677698135, -0.32483524084091187, 0.39208275079727173, -8.282364660772146e-08, 3.7067654830025276e-06, -0.11891990900039673, 0.2611299753189087, -0.020108558237552643, 0.2822212278842926, -0.16940732300281525, -0.34986627101898193, -0.3276258409023285, 1.500509767074255e-18, 0.10581860691308975, 1.6380496163037606e-05, 0.3487420976161957, 0.3855980634689331, 0.06712852418422699, 3.396975444047712e-05, 0.07190437614917755, -0.04115143418312073, -0.09057953953742981, -0.3957509696483612, 1.966401486086511e-10, -0.19942952692508698, -0.2669522166252136, 0.22380751371383667, -0.33653488755226135, 0.01789920963346958, -0.22908611595630646, -0.04281136766076088, -0.04167885333299637, 0.16763514280319214, -1.997033614864474e-12, 0.10532750934362411, 0.3874747157096863, 0.10099738836288452, -0.27073052525520325, -9.06322748051025e-06, 0.0002530498895794153, 0.12721401453018188, 0.3216370642185211, -5.997979712901724e-08, -7.072738662100564e-15, 0.14717423915863037, 0.25701436400413513, -0.14343099296092987, 0.15949317812919617, -0.2608753740787506, -0.0011071042390540242, 0.013266484253108501, 1.4625151379732415e-05, -0.05516640841960907], [1.2455331042447601e-20, -0.18442687392234802, 5.683257489644949e-21, 0.008941232226788998, -0.1087384894490242, 0.04979914426803589, 0.20932485163211823, 0.013168911449611187, 0.06827156990766525, -0.16936133801937103, -0.05244835466146469, -0.14271394908428192, 0.057253289967775345, 0.18601617217063904, 9.537303238826844e-12, -0.0002866109716705978, 0.06448006629943848, 0.01398470439016819, -0.01808292791247368, 0.17294907569885254, 0.15869663655757904, 0.050580307841300964, -0.03519485890865326, -9.102484987977277e-09, -0.20537284016609192, -1.1379381594997517e-12, -0.17067399621009827, 0.1934148371219635, 0.10408637672662735, -1.3269132068671752e-05, 0.011979305185377598, -0.07770033925771713, -0.12149521708488464, -0.1330188661813736, -2.617960490169935e-05, -0.020802222192287445, -0.1331499069929123, 0.19133223593235016, 0.06802646815776825, -0.04781860485672951, 0.04393378272652626, 0.11644738167524338, 0.21944257616996765, -0.11404622346162796, 3.946996457671048e-06, 0.18316663801670074, 0.18238835036754608, 0.07327362149953842, 0.04752643406391144, 3.0456853681673523e-16, 0.017005791887640953, 0.05627423897385597, 0.10522869974374771, -5.195620689119073e-18, 3.944919502174571e-09, 0.12594135105609894, -0.10348617285490036, 0.13299639523029327, 0.00363912433385849, 0.15227189660072327, 0.006135441828519106, -0.029172055423259735, 9.002254955703393e-06, -0.09562389552593231], [9.810634082896286e-07, -0.17972011864185333, -7.571609147088272e-22, 0.4588607847690582, -0.19501999020576477, 0.1356883943080902, -0.4340367317199707, -0.11362755298614502, -0.19373083114624023, 0.4107038974761963, -0.014070136472582817, 0.10804516822099686, -0.05036173388361931, 0.16250520944595337, 2.6564505803405858e-11, -0.0002904277353081852, 0.03339904174208641, 0.15605519711971283, 0.3544209897518158, 0.0705706924200058, 0.01882890798151493, -0.44576993584632874, -0.14192494750022888, 7.314929044432983e-12, 0.26715463399887085, -3.226261696909205e-06, 0.10871454328298569, 0.16130048036575317, 0.275185227394104, -5.578941042472252e-08, 0.10227721184492111, 0.007104697171598673, 0.11227107793092728, -0.460733026266098, -5.547515229409328e-07, -0.25790560245513916, -0.10476116091012955, 0.37523576617240906, -0.3848797082901001, -0.04613589495420456, -0.3977549970149994, -0.4013487994670868, -0.15545660257339478, 0.2641288936138153, -7.510478781114216e-07, 0.13484366238117218, 0.33646053075790405, 0.36119621992111206, 0.03719872236251831, -1.987555606319802e-06, -0.03562998026609421, 0.35895517468452454, 0.41227567195892334, -1.9049747822692063e-17, -2.1385396394180134e-05, -0.19829578697681427, 0.20731383562088013, -0.060864437371492386, 0.137014701962471, -0.15321829915046692, -0.3670927882194519, 0.31360989809036255, -2.2513085840003555e-10, -0.41469743847846985], [-1.522723206115999e-17, -0.292896568775177, 3.711979661602527e-05, 0.4153198301792145, -0.3631056547164917, 0.35861051082611084, -0.3921041190624237, 0.18790467083454132, -0.02680204249918461, 0.30146127939224243, -0.47279858589172363, 0.163333922624588, -0.08172598481178284, 0.4381369352340698, -5.132273273034116e-08, 2.4450164346490055e-05, -0.1014663502573967, 0.4609706699848175, 0.09600695967674255, 0.27471214532852173, -0.3294292092323303, -0.1118185818195343, -0.44370174407958984, -9.831042291352787e-08, 0.3821575343608856, -2.1048843336757272e-05, 0.3544456660747528, 0.2865057587623596, 0.19861146807670593, 1.0007130994899634e-15, 0.1911085993051529, -0.10096271336078644, 0.1922253519296646, -0.20927377045154572, 2.2445165726026062e-08, -0.42719125747680664, -0.4171102046966553, 0.15113511681556702, -0.3866975009441376, -0.014084173366427422, -0.17840825021266937, -0.4501820504665375, -0.47427594661712646, 0.22463354468345642, 3.0589047961271376e-10, 0.12831763923168182, 0.45252925157546997, 0.15541981160640717, -0.05014410987496376, 5.234041054791305e-06, -0.025035390630364418, 0.12091793864965439, 0.22723449766635895, -2.1594882326780862e-08, 3.039275775496009e-11, 0.15532071888446808, 0.2738282382488251, 0.03885406255722046, 0.2855491042137146, -0.4083245098590851, -0.16632933914661407, 0.1972547471523285, 2.7064473925864085e-11, -0.3506210446357727]], "b": [-0.18204540014266968, 0.2980514466762543, -0.1494540572166443, 0.29490432143211365, 0.31159543991088867, 0.051427025347948074, 0.1643505096435547, 0.02032778039574623, 0.1345282644033432, -0.17006319761276245, 0.047297462821006775, 0.035241369158029556, 0.028645889833569527, -0.12219130247831345, -0.07377765327692032, 0.0020056478679180145, 0.30856287479400635, -0.23129501938819885, 0.1425003707408905, 0.011118981055915356, 0.22770462930202484, 0.1070672944188118, 0.2136901617050171, -0.2103145271539688, 0.056670963764190674, -0.19990813732147217, 0.34918636083602905, 0.17078398168087006, -0.13240092992782593, -0.1259286105632782, 0.1105320006608963, -0.11531424522399902, 0.13438944518566132, -0.13375987112522125, -0.16260255873203278, 0.3053664565086365, 0.14954873919487, 0.09336541593074799, -0.03226806968450546, 0.07117147743701935, 0.15089140832424164, 0.13066397607326508, 0.1770508885383606, -0.02800379879772663, -0.030837589874863625, -0.15462832152843475, 0.3024711012840271, -0.1771077960729599, 0.13880085945129395, -0.11592399328947067, 0.045772984623909, 0.09153369069099426, -0.17106471955776215, -0.19129887223243713, -0.16042092442512512, 0.029798129573464394, 0.13681524991989136, -0.17181910574436188, 0.048617903143167496, 0.010043619200587273, 0.10914938896894455, 0.1299617886543274, -0.07304435968399048, 0.058257441967725754]}, {"w": [[-0.00018405723676551133, -4.349467053543776e-05, -5.675475023281251e-08, -0.0001403556962031871, 2.576448386235053e-12, -1.4416725755394806e-17, -6.183612967570652e-19, -2.7221685741096735e-06, -4.870541747692414e-09, 1.430555535142375e-10, 0.0001224928128067404, -8.83968168636784e-05, 2.1201847630436532e-05, -1.623109679819312e-17, 8.122804427429875e-18, 8.903018700869206e-24, -5.80151317990385e-05, -3.548023596522398e-05, 2.128850447433075e-15, -8.616200114497374e-11, 4.2315994505770504e-05, 1.0979034598029348e-15, -7.907574399723671e-06, 1.0463518940184713e-08, -5.892522469963524e-09, 2.653829867152919e-21, 3.02691716136394e-09, 2.7581465474213473e-05, 7.258057053149969e-07, 4.882227400138106e-10, 6.583044664942861e-10, 8.169990178430453e-05], [-0.03255867958068848, -0.2899743318557739, 0.00449922913685441, -4.6301690304062504e-07, 0.20939901471138, -0.03630547225475311, 0.0006374330259859562, 0.029875697568058968, 0.0504913367331028, -4.931536845553808e-10, 1.6240564448821715e-10, -0.02903844602406025, -0.13660189509391785, -0.19811782240867615, -0.2216799110174179, 0.283088743686676, 0.31653472781181335, 3.00784466777948e-11, -0.060817789286375046, 3.3762762394313973e-16, 0.0406266525387764, 0.27106279134750366, -1.670655547059141e-05, -0.32865869998931885, 8.738774148753237e-09, -0.12688003480434418, -0.011734900064766407, -0.00791745726019144, -0.034675076603889465, 0.284766286611557, 0.14679206907749176, 0.024021891877055168], [-2.1245045531593056e-21, -3.9981237932806835e-05, -6.912316694223476e-19, -3.9432568538569357e-13, 2.299553336106413e-14, -6.577616733617966e-14, -1.5508732076341403e-07, -3.1195999326882884e-05, -1.0639186198702077e-09, -2.988061351061333e-05, -2.5057324819499627e-06, 0.0001875781308626756, 3.556885681265969e-19, 4.601964407976217e-20, 1.3214218597568106e-05, 0.00021807558368891478, -2.132997176635697e-16, 1.6726337435102323e-06, -3.5801048237082966e-10, -2.280882815952623e-09, 6.121902038918486e-16, 3.396328773774826e-10, 8.269694928841886e-10, -1.0348603085574837e-09, -1.0788889085233677e-05, 3.000389216592514e-12, -1.248063472303329e-05, -4.781014605050344e-17, 2.1328716570678807e-09, 3.751756239012138e-09, 1.1149948875299742e-07, 1.2923556823807303e-05], [-0.8066722750663757, 0.7797682881355286, 1.0048295259475708, -1.7313888065473293e-06, -0.9548870921134949, 0.651068389415741, 0.6897820234298706, -0.8120364546775818, 0.80913245677948, -1.1808326689788373e-06, -1.3538986422645394e-05, 0.9266082644462585, 0.5792767405509949, 5.5458764416111726e-21, -4.1347174813367784e-16, -0.7368127107620239, -0.8287835717201233, -7.660644041607156e-05, -0.8480539917945862, -4.1548586013335055e-16, 0.739192545413971, -0.7792749404907227, 6.463302549414296e-12, 0.8053624629974365, -0.00010644572466844693, 0.7511947751045227, -0.6508446335792542, -1.1403157031963929e-06, 0.6726999878883362, -0.6626912951469421, 0.858505129814148, 1.513145434728358e-06], [0.3709714412689209, -0.22918029129505157, -0.147541806101799, 9.938752078275659e-12, 0.38267457485198975, -0.44051283597946167, -0.23388627171516418, 0.13855989277362823, -0.35764268040657043, 3.657381239463575e-05, -0.00016049786063376814, -0.3972878158092499, -0.4895590841770172, -0.03803905099630356, 4.203821735160318e-09, 0.2989235818386078, 0.3944944143295288, -8.791574341085722e-15, 0.4436250925064087, 3.80106345273097e-19, -0.3465128540992737, 0.511334240436554, -8.78953585470299e-08, -0.4706639349460602, -3.328738632849118e-16, -0.15133804082870483, 0.29210975766181946, -0.0008416646160185337, -0.3583982586860657, 0.32739177346229553, -0.45109033584594727, 7.777959526444889e-11], [0.005441993474960327, 0.2514738142490387, 0.22508864104747772, -4.723016538616168e-16, -0.5313844084739685, 0.4411506652832031, 0.2197333127260208, -0.15304018557071686, 0.3630880117416382, -6.456846233533403e-19, 2.494476153414027e-11, 0.13896003365516663, 0.44222354888916016, 0.2059735208749771, 0.05485418066382408, -0.059557732194662094, -0.39973315596580505, 4.5820147341501274e-21, -0.20090796053409576, -1.6216942083551112e-16, 0.23485541343688965, -0.3800284266471863, -1.3044132174400147e-05, 0.21514616906642914, -4.1696466723806225e-06, 0.4384615123271942, -0.3763839304447174, -0.0001175416327896528, 0.3282836973667145, -0.19420881569385529, 0.47817420959472656, 0.02811683528125286], [0.14457333087921143, -0.061210162937641144, -0.060066454112529755, -4.599168096319772e-05, 0.3430389165878296, -0.0351920947432518, -0.2735927999019623, 0.08111661672592163, -0.4239869713783264, -6.0814850257884245e-06, -1.4807576866632237e-17, -0.19036951661109924, -0.44356879591941833, 0.20523643493652344, 0.10810525715351105, 0.31391969323158264, 0.4096595346927643, -4.500165960052982e-05, 0.27830836176872253, 2.1207792466615416e-12, -0.07532965391874313, 0.42835623025894165, -1.8176365301769692e-08, -0.013135415501892567, -1.402113866788568e-05, -0.07670360803604126, 0.48595285415649414, -0.0002904145512729883, -0.1346711963415146, 0.014561489224433899, -0.2907189428806305, -0.0003596160386223346], [0.03438325226306915, 0.20870047807693481, 3.3137767530000417e-10, 5.3140146462970046e-21, 0.16893398761749268, 0.20908810198307037, -0.24764220416545868, 0.00017139987903647125, -0.2020929902791977, 1.8017012735072058e-06, -1.4646494683745459e-08, -0.18701708316802979, -0.0465921014547348, 0.05942494049668312, -3.293021779739169e-13, -0.20589110255241394, 0.06583927571773529, 2.9156275559216738e-05, -2.1315230396695695e-13, -4.971353746441309e-07, -0.04303131252527237, -0.1914549171924591, 2.2730030195816653e-06, 0.14708419144153595, -6.411022441782756e-16, -0.08118418604135513, 0.16587194800376892, -6.705868956942492e-19, 0.12311752140522003, 0.08137974143028259, 0.12814222276210785, 0.024203844368457794], [-0.04040846228599548, 0.21890518069267273, -3.975253924932257e-20, 1.2443157093621534e-14, -0.11694035679101944, 0.040711659938097, 0.0220380499958992, -1.8564023775979877e-06, -0.23239345848560333, 9.752968594680615e-15, 1.9040795962155244e-07, 0.0016188727458938956, -0.16243934631347656, 0.06884940713644028, -0.20063793659210205, -0.006951066665351391, -0.14646044373512268, -1.8836917661246844e-06, -0.12530909478664398, -1.035255052257017e-13, -0.2442912459373474, -0.023000601679086685, -5.033606578067476e-22, -0.029257405549287796, -2.3198579016982246e-13, 0.15021809935569763, -0.15426026284694672, 3.4827179028709815e-22, -0.2191622257232666, -0.19203734397888184, 0.015735767781734467, 0.026029909029603004], [-0.026326153427362442, 0.2667495608329773, 0.11957380175590515, -9.170081466436386e-05, -0.4111616611480713, -0.057674285024404526, 0.06303713470697403, -0.04286794364452362, 0.3117966651916504, -9.79237665887922e-05, 8.178175630746409e-05, 0.4147531986236572, 0.08113189041614532, -0.19930417835712433, -0.16550181806087494, -0.3765806555747986, -0.37401801347732544, -5.2228131370016316e-21, -0.3689601719379425, -1.117906895525822e-11, 0.47377872467041016, -0.1239149421453476, 8.726371015654877e-05, 0.0017342445207759738, -2.6285809466564114e-13, 0.2486714869737625, -0.387627512216568, -0.003793346229940653, 0.32051897048950195, -0.09694128483533859, 0.16683238744735718, -0.002547662006691098], [0.10412067919969559, -0.32289502024650574, -0.03375491499900818, -2.488583959348034e-06, -0.04662979021668434, 0.11169611662626266, -0.019319334998726845, 0.07094598561525345, -0.16073423624038696, -2.1229388350875976e-14, -1.8452800532031688e-07, -0.3073226511478424, -0.2166297286748886, 0.13285988569259644, 0.06810686737298965, 0.16213825345039368, 0.12823939323425293, 4.791350875166245e-05, -0.04551129415631294, -1.438795127484127e-08, -0.20754890143871307, 0.30189019441604614, 0.00020632956875488162, -0.2093457579612732, 1.3482640497386456e-05, 0.0842180997133255, -0.0010922715300694108, -0.000988329527899623, -0.13406281173229218, 0.36011478304862976, -0.2806025743484497, 0.12894845008850098], [-0.062200095504522324, 0.15177088975906372, 0.029932020232081413, -4.467138936383628e-17, 0.2033025175333023, 0.12187843769788742, 0.22702215611934662, 0.00924371462315321, 0.13388937711715698, -8.767147846810985e-06, 3.0668537803104213e-16, 0.05972365289926529, -0.011923165991902351, -0.0054884725250303745, 0.22683104872703552, -0.1465660035610199, 0.12379147857427597, -8.594333401955138e-15, -0.1257278025150299, -4.7690905375930015e-06, 0.2392009198665619, 0.24229997396469116, 3.2830826967256144e-05, 0.2499283105134964, -7.100155130501662e-07, -0.028949156403541565, 0.1296577751636505, -0.009189477190375328, 0.000981805264018476, -0.03510333225131035, 0.0607801117002964, 0.02930874191224575], [-0.08746868371963501, -0.05983258783817291, -0.004321998916566372, 1.93689386231028e-17, -0.012485552579164505, 0.018116328865289688, -0.2809601426124573, 0.04858778044581413, 0.08841980993747711, 8.073254654376723e-18, -4.8824915666045854e-08, 0.037738192826509476, -0.020011669024825096, 0.13264989852905273, 0.09685494750738144, 0.17334282398223877, 0.10041596740484238, -1.0797957656905055e-05, 0.01719689927995205, 1.2503967865305966e-16, -0.027162035927176476, 0.13705244660377502, -8.542944129885655e-09, -0.32478922605514526, -2.19499802193052e-22, -0.15896131098270416, 0.22737105190753937, -0.008896511979401112, -0.01333564892411232, 0.3284720480442047, -0.24333761632442474, -0.021522393450140953], [-0.35590168833732605, 0.2983391284942627, 0.2004324197769165, 1.0671088358516758e-15, -0.29640546441078186, 0.424617737531662, 0.08113069087266922, -0.12748195230960846, 0.42970651388168335, -2.0025781240835233e-17, 2.1360510800150223e-05, 0.3609001934528351, 0.390862375497818, -0.05005553364753723, 0.10261283069849014, -0.05286192148923874, -0.18791896104812622, -2.1666999145963928e-06, -0.3578808009624481, -1.0700039183575427e-06, 0.13287676870822906, -0.36002853512763977, -5.73764991404611e-19, 0.27716565132141113, -1.4851864116628326e-17, 0.33106729388237, -0.4311542212963104, -0.0019505748059600592, 0.09004698693752289, 